nep4 2 Si Ti 
cutoff 8 5 161 41
n_max 12 8
basis_size 6 6
l_max 4 2 0 
ANN 60 0
 -7.1954072e-01
  2.4462421e+00
 -1.3833576e+00
  2.0450959e+00
  2.8995278e-01
  6.4927167e-01
  5.2023727e-01
  7.1273154e-01
  6.7281532e-01
 -1.0853395e+00
 -4.6512771e+00
  5.8294988e-01
  5.9066558e+00
 -1.0006218e-01
 -1.7231253e-01
 -1.4977682e+00
  9.4860816e-01
  1.9800669e-02
 -2.1143785e+00
 -1.2385799e+00
 -1.7539873e+00
  4.0967673e-02
 -3.6343807e-01
 -1.5106755e+00
 -1.3101181e+00
 -8.0551028e-01
 -2.8655121e+00
 -6.4620596e-01
 -1.2217026e+00
  7.6455152e-01
 -6.9054925e-01
  2.4276555e+00
 -1.3168960e+00
 -1.2621394e+00
 -1.2004274e+00
  1.8805087e+00
  1.6289912e+00
 -2.6025462e+00
  1.2795076e+00
  8.9926010e-01
 -1.8351734e+00
 -1.3806032e+00
 -1.0420703e+00
 -5.7023031e-01
  1.4219772e+00
  5.4396760e-01
 -2.6887503e+00
 -2.6025206e-01
  3.3711581e+00
  2.4572527e-02
  1.4744151e-01
 -7.4583215e-01
 -3.5629254e-03
  8.2615685e-01
  9.8124579e-02
 -2.8308148e-02
 -7.6082096e-02
  1.2464354e-01
 -6.8977512e-02
  4.6579060e-04
  9.4502032e-01
 -2.1512695e-01
  5.3950936e-01
  2.4354372e+00
  1.4919950e+00
  5.9014875e-01
  3.8591616e-02
  2.0703995e+00
  3.6704561e-01
  1.2029724e+00
 -3.2469237e+00
 -7.3415518e-01
  6.0281199e-01
  1.7752789e-02
 -5.6800205e-02
 -3.0435979e-01
  4.7863984e-01
  1.8546817e+00
  6.4666122e-01
 -1.0028399e+00
  7.6078302e-01
  1.4116213e+00
 -1.7995048e+00
  1.8963744e-01
  2.7432179e+00
 -4.1610441e-01
  4.4930224e+00
 -8.3140188e-01
 -4.7956273e-02
 -2.1113195e-01
 -2.1242635e+00
  4.1847010e+00
 -9.6378893e-01
 -1.9802427e+00
  2.0078354e+00
  2.2283442e+00
  2.8405194e+00
  1.1503432e+00
  4.1594696e+00
  1.3265336e+00
  1.0425065e+00
 -1.6377565e-01
 -1.6901517e+00
  6.9137675e-01
  2.0759928e+00
 -2.3277427e-01
 -5.3438193e-01
 -1.1956966e-02
  1.3715473e+00
  2.3640974e-01
 -3.0738472e-03
 -1.6902355e-02
  1.6728755e-03
 -7.3855139e-02
 -1.9636001e-01
 -1.0115923e-01
 -4.7024789e+00
 -2.7945404e+00
 -2.1751621e+00
 -1.2921318e+00
  1.4039396e-01
  5.2352554e-01
  1.1226243e+00
  2.2278495e+00
  7.1407175e-01
  6.5335184e-01
 -2.4078610e+00
 -6.4488810e-01
 -3.7253129e-01
 -5.0750303e-01
 -1.6993362e-01
  2.6845935e-01
  1.7900781e-01
 -1.4730487e-02
  1.5050082e-01
  3.3012670e-02
  2.8453240e-02
 -8.0820513e-01
 -6.1957026e-03
 -8.8902928e-02
 -6.3408703e-01
 -1.3429916e-01
 -5.4872304e-01
  2.7781585e-02
 -1.3565978e-01
 -1.4224890e-01
 -4.5187693e-02
  1.4058463e-01
 -4.7063762e-01
  2.6012608e-01
  2.0423193e-02
 -1.0813962e+00
 -5.3015091e-02
  2.0156635e-01
  1.7523280e-01
 -1.8863324e+00
 -1.1229652e+00
 -6.8396486e-02
  4.7011320e-03
  4.0342730e-02
  6.6698503e-01
 -4.4646946e-01
 -6.0306901e-01
  5.1505517e-02
  1.1746490e-02
 -4.5948595e-02
 -5.4352600e-02
  3.7013147e-02
 -4.6519212e-02
 -4.5409050e-02
 -3.5725471e-01
  1.6505897e-01
 -8.1160441e-02
  3.7182829e-01
  5.3310199e+00
  2.2411175e-01
  1.1246552e+00
  2.7286215e+00
  5.6586924e+00
  3.7654334e-01
  4.7261484e-02
 -4.8360057e+00
  1.8766158e+00
  6.4954925e-01
 -1.1155074e+00
  2.5782723e+00
  6.1642295e-01
 -2.6537428e-02
 -3.1834430e-01
  9.3321480e-02
  9.0296429e-01
 -2.2929034e+00
 -3.9410061e-01
 -1.7080735e-01
  1.3026096e-01
 -9.5552260e-01
 -1.0300626e+00
 -2.8800896e-01
  1.8501377e-02
  1.4794919e+00
  1.4478359e+00
 -8.8287550e-01
 -9.4585925e-02
  7.0831734e-01
  7.6375389e-01
 -6.6848487e-02
  1.4227585e-02
 -7.5299755e-02
 -3.2181871e-01
 -8.1995189e-02
  6.6100013e-01
  7.6004721e-02
  7.7456111e-01
  3.3454666e-01
 -2.7398188e-02
 -1.1573169e-01
 -2.4596925e-03
  1.8649454e+00
 -5.7031959e-03
  3.4310737e+00
 -1.9046052e-01
  4.5045912e-01
  4.6908083e+00
 -1.0833760e-01
  8.9179665e-02
 -2.4161108e-01
  3.6471090e-03
  1.0677408e-01
  2.3826756e-02
  7.9295494e-02
 -2.9827872e-02
 -1.3105990e-03
 -1.3702443e-01
 -2.2263071e-02
  1.9550614e-01
  1.9260918e+00
  3.9903635e-01
  3.2697737e-01
 -1.4279309e-01
  6.0622807e+00
 -2.8666804e+00
 -5.9995228e-01
  1.2625759e+00
 -1.2479748e+00
 -1.6480580e-01
 -8.0087543e-01
 -1.0255651e-02
 -1.0674008e-01
 -8.1091207e-01
 -9.1643162e-02
  8.4924921e-02
  1.6963126e-01
 -5.3530347e-02
 -1.1514592e-01
 -2.2641125e-03
 -1.6453530e-01
  6.4340986e-02
 -9.7622409e-02
 -8.6591768e-01
  2.4025568e-01
  2.6025197e-01
  1.1670884e-01
 -3.1507584e-01
  8.8313806e-01
 -1.9813579e-01
  4.0591621e-01
  3.7450438e+00
  1.1900078e+00
 -1.8558808e-02
  3.5184301e-02
  1.3615565e-01
 -7.0219901e-03
 -3.2124585e-01
 -4.8565637e-02
  1.7517556e-02
  4.2331493e-01
  1.4005196e+00
  2.3924078e-01
  1.9796635e-01
  1.4883773e+00
  7.5964326e-01
  2.1772197e-02
  3.8534242e-03
 -8.5235611e-02
 -9.7746515e-01
 -5.8581615e-03
 -5.9937306e-02
  1.0094407e-02
  1.1574244e-01
 -9.7615123e-03
 -7.9002589e-02
  1.0547128e-01
  1.4519952e-01
  3.5134995e+00
  4.0961053e-02
 -3.7674852e-02
 -2.1423004e+00
  4.2295867e-01
  3.5192322e-02
  1.3498344e-01
 -1.7783552e-01
  2.2347946e-02
 -9.6135490e-02
  8.8070840e-02
  8.7159947e-03
 -2.2400619e-02
  3.9806418e-04
  6.6009648e-02
  1.0466352e-01
  7.7028133e-02
  1.3119632e-01
 -3.5495926e-02
  2.3319768e-02
  3.6108783e-01
  1.1921121e-01
 -8.5542634e-02
  1.4711029e-03
 -2.3657015e-02
 -1.7613782e-02
 -8.7935284e-02
 -1.5169435e-02
  5.2752972e-02
  2.7587047e-01
  2.2086414e-02
  2.2675830e-01
  1.1874088e-02
 -6.3770801e-02
 -1.2559982e-02
  2.2714909e-02
  3.0784082e-02
  6.3102856e-02
 -2.1785024e-01
  1.3112095e-01
 -3.5505313e-01
 -2.0119525e-01
  1.2000302e-03
  4.7045585e-02
  4.6975423e-02
 -1.8161274e-01
 -4.4152293e-02
 -8.6966388e-02
 -1.5395336e-01
 -2.1548968e-02
  7.4631651e-03
  5.0342982e-03
  9.4693714e-01
  1.6545143e-02
 -4.9634617e-02
  4.7241810e-01
  1.1493373e+00
 -4.9772077e+00
  3.2715790e+00
 -2.2562716e+00
  2.6272950e+00
  1.3062189e+00
 -2.7471309e+00
 -5.5058569e-01
  2.5518653e+00
  1.5322584e+00
 -6.3220835e-01
  3.4725878e-01
 -2.2128987e+00
 -3.9628752e-02
 -1.1481125e+00
 -1.8538705e-01
 -1.4104728e+00
 -1.0081259e+00
 -3.4598589e-01
 -1.8682499e-01
 -1.7144596e-02
 -9.5336813e-01
 -6.2878913e-01
 -9.0810589e-02
  1.8490778e+00
  1.5323335e+00
  2.1870317e+00
  5.8613755e-02
  5.5584627e-01
  1.3011326e+00
  8.0643989e-02
 -7.3039407e-01
 -2.1635404e+00
  2.1008860e-01
  2.4477690e-02
  7.1389806e-03
 -1.7226528e-01
 -7.6897782e-01
  1.1655889e-01
 -2.8899691e-01
 -2.2567703e-01
 -1.5479958e+00
 -6.5639593e-02
 -7.9888582e-01
  4.3076336e-01
 -2.1376704e-01
 -9.9390727e-03
 -3.7576473e+00
  1.9111119e-01
 -1.5617763e-01
 -3.0895175e-02
  9.1364540e-02
 -3.7539799e-02
 -6.0010262e-02
  4.5867950e-02
 -1.4509268e-02
  6.8353832e-02
  9.9915462e-03
  5.5243943e-02
  4.8666182e-01
 -6.6175753e-01
 -5.2584945e-03
  6.9650002e-03
 -8.4583402e-02
  2.3520516e-02
  7.3805682e-02
  3.4107968e-02
  8.3006015e-03
 -2.2266726e-01
  3.8573746e-02
  1.3998048e-01
 -8.7358564e-02
 -6.9616199e-02
  2.8971719e-02
 -6.8483755e-02
 -3.6250219e-02
 -4.0659457e-01
  5.7174068e-02
 -9.7435988e-02
  1.0185082e-01
 -2.9638871e-03
  1.4016700e-03
  7.1537651e-02
  2.5111606e-02
  4.1923494e-04
  6.3319214e-02
  5.4894004e-02
  8.2462706e-02
 -1.4398264e-02
  1.0024660e-01
  1.8056247e-02
 -6.0271725e-02
  2.8687812e-02
 -4.3551870e-02
 -2.8712882e-02
 -5.3622490e-03
 -7.8270279e-02
  4.8212107e-02
  4.2705368e-02
 -5.0250921e-02
 -4.1181073e-02
  1.0369600e-01
  9.9474594e-02
 -6.4422004e-02
 -5.0236478e-02
 -9.7736105e-02
 -3.2013763e-02
  1.9309718e-02
  1.1425418e-01
 -6.0282383e-02
 -1.7280709e-02
 -3.2238524e-02
 -1.3281097e-01
  1.0003888e-02
 -3.1140948e-02
 -2.0201232e-02
 -6.5929569e-02
  2.4575450e-01
 -9.3069345e-01
 -1.1946317e-01
  1.8334723e-01
  9.4696857e-02
  4.5319715e-01
  1.2298443e+00
 -1.5871273e+00
  8.4663339e-02
  1.1436937e+00
  1.9860327e-01
 -9.7255241e-03
  1.1547185e-01
  1.1205955e-02
 -2.3615006e-02
  5.9690480e-03
  1.3415498e-01
 -9.8783737e-03
  9.2351036e-03
 -1.4617901e-01
  2.4161190e-01
 -5.2920554e-02
  1.1285047e-01
 -1.0226569e-02
  5.5532653e-02
 -1.5723851e-01
  2.0772284e-02
  9.5532453e-03
 -1.2216300e-02
 -5.8272576e-01
 -2.6230546e-02
  8.0404371e-02
  1.2746151e-01
  3.7261527e-02
  8.3265215e-01
  5.0899729e-02
 -5.1021658e-02
  2.4446142e-03
 -9.3018822e-02
  2.2175957e-02
  3.8291816e-02
  3.2525961e-03
  8.2801247e-01
  5.5682945e-01
 -3.5778273e-02
 -1.1933358e-01
 -8.4891938e-02
  1.1362135e-02
 -1.0385931e-01
  1.4451414e-01
  2.9014867e-02
 -9.4224513e-02
 -1.3284460e-02
 -2.3807216e-02
  1.6112868e-01
  8.2899980e-02
 -3.3598721e-02
 -9.1619473e-03
  1.5960913e-02
  3.3218942e+00
 -1.1205105e-01
 -5.6045495e-02
 -1.6127968e+00
  5.7833952e-01
 -3.4242790e-04
 -1.4237398e+00
 -4.9643226e-02
  4.1965012e-02
 -2.7905858e-01
  1.7371676e+00
  4.9768135e-01
 -6.6277198e-03
 -4.7132626e-02
 -3.6010537e-03
  2.3269828e-02
 -1.5469962e-01
 -6.2880471e-02
 -1.6733620e-01
 -3.4368080e-01
  5.7583964e-01
 -7.3692180e-02
 -4.2831060e-01
 -6.2866472e-02
  1.0458815e-01
 -9.6596092e-02
 -2.5318140e-02
  7.5601354e-02
 -1.0305077e+00
  3.1889863e+00
 -5.6564629e-01
 -1.0805725e-01
 -7.5002303e-03
  5.3133851e-01
 -1.7089136e-01
 -6.3448668e-01
  3.6785845e-02
  3.2365720e-03
 -9.6687120e-01
  2.3682740e-02
  8.5398495e-02
  5.8279764e-02
 -2.1626631e-02
  5.5504195e-02
  1.0553006e-01
  2.5455195e-01
  5.0228730e-02
 -2.3134968e-01
  6.4339511e-02
 -5.7657477e-02
  7.2611474e-02
  2.6317568e-02
  3.0266531e-03
  9.1395229e-02
  1.2651709e-02
  4.2072121e-02
  8.7758827e-01
  1.1412107e+00
 -7.9760730e-01
 -9.5024180e-01
  3.8538864e-01
 -1.4716918e+00
 -2.4323065e+00
 -2.5379932e-01
 -1.1028349e+00
 -2.5792437e+00
 -2.1166084e+00
  2.4002936e+00
 -8.8155054e-02
 -4.0188831e-01
 -1.1860961e-02
  1.7033708e-01
  1.1260333e-02
  1.8434969e+00
 -1.2499031e-01
 -1.8085766e-01
 -3.6797068e-01
 -1.2668665e-01
 -1.3770004e-01
 -8.3203256e-01
 -1.5203586e-01
  1.2460697e+00
 -7.9842210e-01
 -4.4422969e-01
 -4.3739304e-02
  9.5932186e-02
  5.3439703e+00
 -3.4124386e-02
 -7.8940070e-01
 -1.2293895e+00
 -6.3515887e-02
 -9.1142827e-01
 -9.2397377e-02
 -1.7657245e-02
 -3.5226300e-02
 -6.5485574e-02
 -1.7300200e-02
 -7.1519166e-02
  1.5513082e-01
 -6.1301446e-01
 -2.2609212e+00
 -1.2625170e-01
 -3.3314962e-02
  5.4176873e-01
 -2.3076192e-03
  2.1338303e-01
  4.6177544e-02
 -2.1916176e-01
  4.0130514e-01
 -1.9392563e-02
 -5.7604667e-02
  2.5850700e-02
  3.9639015e-02
 -3.3867750e-03
  6.3237768e-01
 -8.0285251e-01
  9.7169638e-02
 -3.7017187e-01
  1.6841182e+00
  9.4585407e-01
  1.5843460e-02
  3.8945723e-01
 -1.4653088e+00
  2.4473619e-01
  2.3456676e+00
  1.0845819e+00
 -4.7682351e-01
  1.6410803e-02
  1.4843366e+00
  1.0513826e-01
 -2.4740429e-01
  6.3779634e-01
  2.2365715e-01
 -5.6870526e-01
  3.3546060e-01
  7.6459193e-01
  2.2373636e-01
 -2.2830053e-01
  7.6020753e-01
  3.6930781e-02
  8.9699864e-01
  4.4636153e-02
 -1.0003845e-01
  1.2443205e+00
  7.9727128e-02
  3.6868882e-01
  4.0197635e-01
  6.7749782e-04
 -3.0281937e-01
  5.4439452e-02
  1.6341202e-02
 -1.4333127e-01
 -4.3138295e-01
 -1.0283418e-03
  2.0390343e-02
 -3.5564665e-02
  1.2541996e-01
  4.7514397e-01
  1.4936329e+00
 -3.0526971e-02
  2.6523158e-01
  3.3489665e-01
 -1.1022780e-01
 -6.8441522e-01
  2.6147079e-01
 -4.6221721e-01
 -3.9965846e-02
 -9.4931036e-02
 -9.4233572e-02
 -9.5477149e-02
 -8.2032278e-02
 -3.0012459e-01
  1.5729312e-02
  2.2991252e+00
  8.7387371e-01
 -1.7774709e-01
  2.9306254e-01
  7.0605403e-01
  6.4497113e-01
  8.9680243e-01
 -1.1304458e+00
  5.9306729e-01
 -6.5630770e-01
 -1.2196336e-01
  1.2189443e-01
 -2.2284459e-01
 -5.9634614e-01
 -1.0844884e-01
  1.6593000e-01
  3.8630310e-01
 -1.2503256e-03
 -9.4865486e-02
 -1.0305824e-02
  8.5254684e-02
  1.0163832e-02
 -8.4388345e-02
  2.3223791e-02
 -9.9225469e-02
  8.4494397e-02
  2.4416658e-01
 -8.4836245e-02
  4.4501685e-02
 -1.2168541e-02
  2.6298955e-01
  5.5391919e-02
  2.8025907e-02
 -4.9438708e-02
 -2.7006447e-02
  9.2744287e-03
 -2.2291210e-02
 -2.1264623e-01
 -2.1209311e-01
  4.4593044e-02
  1.2699090e-01
 -7.9014897e-02
  3.0422565e-01
 -5.3098813e-02
 -1.0741855e-01
 -2.0848766e-02
  3.4174666e-02
 -3.1701077e-02
  2.7235176e-02
  1.3303234e-01
 -4.9337614e-02
  8.5623555e-02
  1.1853445e-01
 -4.6220772e-02
  4.8741352e-02
 -1.9808030e-01
 -5.2217685e-02
 -1.5977615e+00
 -8.1758136e-01
 -2.2896383e-02
 -1.8477432e+00
 -1.7762236e-01
  1.3847103e+00
 -1.7152722e+00
 -7.7068388e-02
  9.5429623e-01
 -2.9186034e-01
  1.6653205e-01
  7.0025432e-01
 -1.9261701e-04
 -6.8232521e-02
 -9.5628400e-04
  4.7617264e-02
  1.6582675e-01
 -6.0591799e-01
 -5.4947045e-02
  2.9045475e-01
 -4.7573201e-02
  5.6236450e-02
 -3.5371453e-01
 -4.2298591e-01
 -3.1373680e-03
 -2.2094162e-01
 -6.3669793e-02
 -9.3945451e-02
 -6.9320485e-02
  5.0685190e-02
  7.2641973e-03
 -1.0530066e-01
 -1.3852070e-01
  3.8482687e-01
  7.3904902e-01
  9.9974912e-01
 -1.3369987e-02
  5.0542414e-01
  1.2207128e-01
  1.3196400e-01
  4.0251188e-02
 -3.4508459e-02
  9.6838214e-02
  7.8486800e-03
  4.0548939e-01
 -8.9119762e-02
  2.5164267e-01
  3.1294998e-02
 -1.4679431e-02
  1.4033105e-02
 -3.7821665e-02
  2.2671403e-02
 -3.7390103e+00
  1.1622702e-01
 -1.2501669e-02
 -1.8372747e-01
  1.0166039e-02
  6.6469967e-02
 -3.8188901e-02
  2.0829491e-02
 -9.7013509e-01
 -1.1735110e+00
  3.4256760e-02
  2.2091375e-01
 -1.1913274e-01
  3.0213468e-02
  8.0505185e-02
 -8.1932768e-03
  3.4232715e-01
  2.5166500e-01
  3.4919132e-02
 -7.2211134e-01
 -1.3259661e-02
 -2.1644680e-02
  5.6082886e-03
 -2.3720950e-02
  3.3797503e-02
 -6.0852583e-02
 -5.7600081e-02
 -1.7018208e-01
  3.0074272e+00
 -4.3533366e-02
 -1.6925371e-01
 -8.1081800e-02
  5.1678274e-02
 -2.2678740e-01
  5.8340818e-01
  9.5590070e-02
 -9.6191660e-02
  7.7274844e-02
  8.7399427e-03
  2.9908466e-01
  1.6489209e-01
  7.7069566e-02
 -4.8217572e-02
 -6.2293671e-02
 -1.5798421e-01
  1.4165191e-01
  4.9932209e-01
 -1.1910477e-02
  1.5843211e-01
 -4.7480103e-02
  8.6833961e-02
 -4.3731261e-02
 -2.6789162e-02
 -4.6223584e-03
 -5.8091778e-02
 -1.1550460e+00
  2.6514521e-02
 -4.1605625e-02
 -3.1941149e-02
 -7.5229846e-02
  8.8543899e-02
  7.6571174e-02
 -1.6615895e-03
  1.3269106e-01
  1.4912511e+00
  4.3801193e+00
  2.7756920e-01
  1.0625119e+00
 -1.8088402e+00
  2.1580565e+00
  6.8454629e-01
  4.2413430e+00
 -6.9476247e-01
  9.1365641e-01
  2.2502031e+00
 -1.8970582e+00
  6.8090892e-01
 -3.5236933e+00
 -2.0022027e+00
  5.3384244e-01
  1.3901327e+00
  6.6519226e-03
  2.0444515e+00
  2.0088525e-01
 -2.5310540e+00
 -6.8051052e-01
  2.0868170e+00
 -3.2714915e+00
 -6.4716738e-01
  1.0034834e+00
  2.3667139e-01
  6.7273021e-01
 -1.0835177e+00
  7.5056896e-02
 -3.0106506e+00
  2.4874574e-03
 -1.5220326e+00
 -8.6899787e-01
 -1.8082753e+00
 -3.9622775e-01
 -1.2167716e+00
  3.1019688e+00
 -1.4439857e+00
  1.6576432e+00
 -1.3812935e-02
  1.3288094e+00
 -2.1328175e-01
 -1.1263844e+00
 -1.9730521e+00
 -8.4651136e-01
 -2.8394725e+00
  1.5978032e-01
 -2.2059779e+00
 -6.5389253e-02
 -4.6168350e-02
 -3.0211580e-01
  3.5121647e-01
  3.2379669e-01
  2.1555962e-01
  1.5429404e+00
 -6.9245093e-02
  1.4821331e-02
  3.7643734e-01
  1.8034850e-01
  1.0192155e+00
  5.1247310e-03
  7.6983199e-02
  2.5962975e+00
 -3.0698841e+00
  1.0514175e+00
 -1.3659458e-01
 -2.0367932e-01
 -8.2203873e-02
  1.2869988e-01
  7.9189159e-02
 -3.3808199e-01
  9.5513649e-03
  2.1601146e-01
  3.4564205e-02
  6.0789156e-01
  6.5090787e-03
 -2.5494576e-01
  4.2080477e-01
 -4.7093698e-01
 -6.4498526e-01
 -3.2241795e-02
 -3.5796345e-03
  2.2111373e-02
  5.4484416e-02
 -1.9617911e-01
  9.4427541e-02
 -4.1080773e-02
 -9.4672525e-01
 -2.4368760e-01
 -2.8767982e-01
 -1.1893601e-01
 -4.2358678e-02
 -1.5660159e-01
 -4.3825281e-01
 -1.3098881e-01
 -3.5838269e-02
  1.4423653e-01
 -1.7911701e-01
 -6.1589307e-01
 -8.5904941e-02
 -4.5077002e-01
  2.3093812e-02
 -6.7657337e-02
 -3.3307695e-01
  1.0886659e-01
 -4.1706372e-02
  6.5270293e-01
 -1.5573022e-01
  1.5530796e-01
  8.3535045e-02
  1.1372658e-02
  2.2892895e-01
  2.1312439e+00
  3.0085629e-02
 -3.7708670e-02
  2.0988707e-01
  5.2537110e-02
  3.1988610e-02
  5.1573273e-02
 -1.3828568e-01
 -2.7684614e-01
 -1.2245239e-01
 -7.1955040e-02
  7.6379385e-03
 -1.1453876e-01
 -1.7756301e-01
 -3.3056267e-02
  2.7798962e-02
 -8.6619627e-01
  8.7634295e-02
  1.5832174e-01
  8.5904799e-02
  4.9375966e-02
  1.3976564e-01
  2.0185176e-01
  1.7401724e-01
 -2.2389756e-01
 -4.7349952e-02
  1.2977123e-01
 -4.2026260e-01
 -1.5763180e-02
  3.2218311e-02
 -1.7062223e-02
 -2.0352336e-02
 -4.7237337e-02
  3.1892356e-02
 -7.8022830e-02
 -1.2236669e-02
 -3.8198739e-01
  7.4569568e-02
 -1.2934470e-01
  1.3266687e-01
 -2.2399850e-02
  8.9036018e-02
 -1.4682755e-02
  5.0908115e-02
  1.5248717e+00
  5.3422101e-02
 -8.3810449e-02
 -1.2722161e-01
 -2.5968531e-02
  7.8602377e-03
 -2.2128546e-03
 -1.0231183e-02
 -7.4482936e-01
  3.2509502e-02
 -1.1927979e-02
 -1.2987882e-01
  2.8941967e-02
  2.2313145e-03
  2.9169247e-02
 -7.2742917e-02
  7.4190898e-03
 -1.1411387e-01
  9.1379225e-02
 -3.0789549e-02
 -7.5774752e-02
  1.1937790e-02
 -9.4625123e-02
 -3.9953493e-02
  2.5430419e-02
  2.8082902e+00
  7.6577826e-03
  4.0737845e-02
 -1.4778240e-01
  8.3384337e-03
 -5.5536004e-03
  2.8829178e-02
  2.6407732e-02
  2.1883899e-03
 -1.5349925e-02
 -8.2892925e-02
  4.3818507e-02
 -8.6145826e-02
  1.3043890e-02
  2.4248756e-02
  2.0397909e-01
 -2.2757491e-02
 -1.2567474e-02
 -7.7577688e-02
 -2.4556352e-03
  5.2695279e-03
 -2.6075153e-02
  3.2259901e-03
 -6.0519934e-02
  1.3212125e-01
  1.9346118e-02
  3.6163438e-02
 -5.9480383e-03
 -8.8121369e-02
  1.9027825e-02
  1.6975045e-01
 -1.4796853e-01
  6.3772150e-03
 -3.3291015e-03
  1.6084302e-02
  6.9589647e-03
  3.0068632e-02
 -8.1579551e-02
 -7.7348225e-02
 -2.1857128e-02
 -6.0860302e-02
 -3.6970086e-03
 -4.3697618e-02
  3.1566389e-02
 -2.7086839e-02
  2.0388592e-02
 -5.6750126e-02
  4.1699447e-02
  1.0603230e-02
 -4.9913302e-02
 -1.2499700e-01
  1.9650117e-02
  3.8967702e-01
  5.6218284e-01
 -2.6850276e-02
 -7.9175651e-02
  7.7249050e-02
 -6.9631165e-01
 -1.2343864e+00
  5.9863031e-02
  9.6471125e-01
 -2.6002053e-02
  2.1098761e-02
  2.5924987e-01
  3.1182444e-02
  1.4180616e-01
 -8.1682593e-02
 -1.6018417e-01
  7.2321579e-02
  1.0490086e-01
 -1.0908338e-01
 -4.2568304e-02
  2.2156894e+00
 -1.8930866e-01
 -1.8995194e-02
 -2.0346943e-02
 -1.6511893e-02
  9.4702587e-02
 -3.2031754e-01
  1.5915546e-01
  5.3941905e-01
  5.6084305e-01
  1.1533334e+00
 -2.8030755e-02
  1.5821663e-01
  1.7536010e-01
 -4.7584794e-02
 -1.6333723e-02
 -1.7815163e-02
  1.6403802e-01
  3.8645568e+00
  7.3061518e-02
  4.1001892e+00
 -9.4439156e-02
 -7.7948175e-02
 -2.7586786e-02
 -1.1160659e-01
 -6.8193145e-02
  3.2698910e-03
 -3.7593961e-02
  2.1286197e-02
 -1.9181674e+00
 -4.6372548e-02
 -5.6039542e-02
 -1.1724913e-02
 -3.6153086e-02
 -3.3248388e-03
 -8.4274806e-02
 -1.7236222e-01
  2.3564436e+00
 -2.2466767e+00
  7.4830905e-02
 -2.9547837e-02
  1.0296576e-01
  2.2615340e-01
  4.2497382e-02
  2.1570182e-01
  4.1626662e-02
  9.9865003e-03
  3.4840465e-02
 -1.4317375e-01
  1.5166110e+00
  8.4884679e-03
  1.3009854e-01
  2.6528191e-02
 -1.2131669e-01
 -1.6474575e-01
  6.5869248e-01
  6.3110371e-03
  2.6416919e-01
  2.2005999e+00
  2.4684000e-01
 -2.9010850e-01
  3.1455986e-02
 -5.6482624e-02
 -2.0486657e-01
  2.9253817e-01
  8.0069989e-02
  4.4603360e-01
  2.6280782e+00
 -3.2568052e-03
 -5.6574219e-03
  2.2005278e-01
 -6.4522378e-02
 -1.5206838e-01
  5.2916743e-02
  4.5244657e-02
  1.1618222e-01
  7.7960920e-01
 -5.5464869e-04
 -1.2625931e-02
  2.2738557e-02
  3.8890664e-02
  8.8985682e-02
 -9.0265445e-02
  1.5080795e-02
 -5.1051781e-02
  1.0816243e+00
 -8.5015096e-02
  3.7970554e-02
  2.3914645e-03
  1.7217739e-02
  7.3903337e-02
 -9.1351427e-02
 -4.9938671e-02
 -5.0203606e-02
 -3.2528708e+00
  2.6665602e+00
  9.0637755e-01
 -7.7114799e-03
  5.5225438e-01
  2.9704201e-01
 -2.0944548e+00
  2.5090995e-01
  7.6909557e-02
 -4.2505637e-03
 -1.0594519e-01
  1.1975943e-01
 -9.1221072e-02
 -5.6225307e-02
 -1.5383045e-01
 -5.0922979e-02
 -6.8538785e-02
 -2.8285035e-01
 -1.2150203e-01
  5.8298808e-01
  1.1796402e-04
  1.0309675e-01
  4.1561309e-01
 -5.4527915e-01
  2.8842279e-01
 -7.2946966e-01
  2.4042189e-01
 -2.9393527e-01
 -3.0724782e-01
 -3.2975483e-01
  2.7284546e-02
 -3.5052717e-01
  2.0573556e-02
  2.0838104e-01
 -6.6834696e-02
  6.3674115e-02
  2.7529427e-01
 -2.1379538e-02
  1.3615223e+00
  1.2044333e-01
 -1.0606515e-02
 -9.0091608e-02
  2.0113137e-02
  1.0042276e-01
  1.2184960e-01
  1.1618179e-01
 -5.4445160e-03
  1.1927480e-01
  2.3207013e-02
  6.0331758e-02
 -2.0983061e-01
  8.2075089e-02
  1.8694563e-01
 -6.0187336e-03
 -3.6284413e-02
  5.9266891e-02
  1.1995248e-01
  2.5630209e+00
 -2.9057413e-01
 -1.9828621e+00
 -1.2894025e+00
  3.5381629e+00
 -3.4835618e-02
  6.7250776e-01
 -2.8837905e+00
  2.5392408e+00
  3.0151424e+00
  1.7069890e-01
 -2.0496476e-01
 -1.0930582e-01
 -3.5833207e-01
  8.0126382e-02
  1.7667222e-01
  1.1428116e-01
  1.2103671e-02
 -1.7345653e-01
  3.4194373e-02
  3.6885511e-02
  4.5075929e-03
 -5.4401062e-02
 -1.0694318e-02
  2.0700659e-01
 -2.3521759e-01
 -1.1413001e-02
 -3.6197882e-02
 -8.3181721e-01
 -7.6621614e-02
  7.2155349e-02
 -1.5355219e-01
 -5.1506847e-02
  1.4368303e-02
  9.6511887e-03
 -3.9955530e-02
  1.2795407e+00
 -3.7967458e-02
 -3.7532430e-02
  1.2823002e-02
  2.5432913e-02
  2.1632793e-03
  9.0431329e-03
  1.4903698e-02
  3.7179264e-01
 -3.6125492e-02
 -9.2740767e-02
 -9.3399793e-02
  9.8438524e-02
 -1.2015767e-01
 -1.1804303e-01
 -3.5128206e-02
 -3.0455494e-02
 -2.6693294e-02
  3.0475699e-03
 -1.7893204e-02
 -1.3949186e-01
 -1.0835009e-01
  2.2264951e-01
  2.2940946e+00
  4.4773343e-01
 -1.7488918e+00
 -8.3918858e-01
 -1.8641639e+00
 -2.5619221e+00
 -8.1980079e-01
  1.4792641e+00
 -1.3454642e+00
 -1.8101823e-02
  3.5066035e+00
  1.2682781e+00
 -4.0241134e-01
 -3.5785031e-02
 -8.9835308e-02
 -9.2777950e-01
 -1.4980012e+00
  1.3875717e+00
 -1.2111611e-01
  1.4804297e-03
 -1.7417442e+00
 -2.1011849e-01
  7.0072971e-02
 -1.9543377e-01
 -1.0434226e+00
 -2.3144042e+00
 -6.9595855e-01
  6.2320292e-02
 -3.1941253e-01
 -1.7897325e+00
 -8.2832135e-02
 -3.2067858e-02
  1.9884333e-03
  2.4857815e-02
 -2.6568347e-01
 -3.7291843e-01
 -7.7240050e-02
 -7.8057423e-03
  2.4399987e-01
 -2.2226714e-02
 -2.2693522e-02
  4.3946765e-02
 -1.5445772e-02
  2.3096347e+00
  1.7215062e+00
  6.3990295e-02
  1.5543519e-01
  1.9772965e+00
 -2.4421695e-01
 -2.8103751e-01
 -1.4519440e-01
  3.3417329e-02
  1.2695644e-03
 -1.2875368e-02
 -5.6667918e-01
  5.5132646e-02
  1.9140137e-02
 -7.5884052e-02
  2.0936742e-02
 -1.1662163e-01
  1.9501406e+00
  2.7211356e-01
 -1.4167239e-02
  5.4604620e-01
 -3.5549387e-01
 -2.3935163e-01
  4.5537183e-01
 -9.7862519e-02
 -6.1399955e-01
  2.3304475e-02
  1.3808850e+00
  1.3983908e+00
 -2.9823536e-01
  2.2917341e-02
 -1.7320201e-01
  1.4066270e-01
 -8.9299016e-02
  6.0346264e-02
  1.7169555e-01
 -1.3483308e-01
  9.5120448e-01
  9.1144520e-01
  6.2900499e-02
  5.0020117e-02
  1.4914644e-01
  3.5124440e-02
  1.9099838e-01
  1.6418576e+00
  4.6691865e-02
  4.8074749e-01
 -4.3466366e-03
  9.0137973e-02
  7.8892300e-04
  3.8386291e-01
 -1.1253420e-02
  1.6553424e-01
  2.2156122e-01
  6.0320306e-03
 -1.8008445e-01
 -1.3668982e-02
  9.0565920e-02
  2.4284434e-02
 -5.7125151e-02
 -1.3787942e-01
  5.9133407e-02
  1.8956894e-01
  4.8422582e-02
  1.3661810e+00
  9.4470449e-02
  2.6714806e-02
  3.1519856e-02
 -1.4307052e-01
 -1.1475788e-03
  1.9268776e-01
  4.9882676e-03
  3.0755816e-02
 -4.2652559e-02
 -1.9615175e-01
 -1.7098302e-01
  1.0353884e-01
 -2.4242374e-01
 -1.0300778e-01
 -4.4545222e-02
  6.4878389e-03
 -9.0592988e-02
  8.1232101e-02
 -6.9997869e-02
 -1.9232044e-01
  5.4686978e-02
  7.6139152e-02
  3.8410597e-02
 -5.6671876e-02
 -8.5982643e-02
 -1.0516710e-01
 -2.1509175e-01
  9.8297924e-02
 -1.4588667e-01
 -1.2162708e-01
  2.4933416e-01
 -1.5084074e-02
  1.1998140e-02
 -7.7455188e-03
  7.0110120e-02
  7.5011142e-02
  1.8282022e-02
 -7.8440793e-02
 -4.1454636e-02
 -6.9841735e-02
  1.6318472e-01
 -3.2284182e-02
 -8.4035255e-02
  3.2116424e-02
 -8.8160723e-01
 -4.3814298e-02
  6.2800430e-02
  3.5356244e-03
 -3.0052461e-02
 -9.1967853e-03
  2.6263411e-03
  3.4692053e-02
  4.1085213e-02
 -6.7565307e-02
  9.0970859e-02
 -4.5565050e-02
  9.2255756e-02
 -4.2733453e-02
 -7.2618797e-02
 -1.7165260e-01
  4.0016085e-02
  3.7773956e-02
  3.4843158e-02
 -1.6601358e-02
 -1.0903448e-01
 -1.3722232e-01
 -1.7386477e-01
  4.4307910e-02
 -3.3029646e-01
  3.6770411e-02
 -2.6112258e-01
 -6.8286824e-01
  9.5298529e-02
  2.8197249e-02
 -7.9409197e-02
 -9.8662150e-01
  6.2200662e-02
 -5.0231721e-02
 -2.5329562e-02
 -7.2411060e-02
  1.8570168e-02
 -7.9355843e-02
  1.1652212e-01
 -4.0934227e-02
  2.0960538e-02
 -1.5425403e-01
 -3.5451964e-02
  1.6552682e-01
  2.5834418e-03
 -1.0435186e-01
  2.5533256e-01
  6.9176950e-02
  1.6542345e-01
  3.2467176e-03
 -1.1366753e-01
 -6.0568847e-02
  2.3095109e-02
 -4.0312508e-01
  9.1873482e-02
  8.3804792e-03
 -2.2791032e-02
  6.8370573e-02
 -1.7401865e-01
  7.9539388e-02
 -2.8848958e-01
  3.7431806e-02
 -9.0365343e-02
  1.9893931e-01
 -5.6215499e-02
  8.4615842e-02
  5.2134806e-01
  8.5395955e-02
  8.3239652e-02
  7.0080109e-02
 -1.8511649e-02
  1.2892978e-01
 -8.3569191e-02
  3.2747474e-02
 -1.9200746e-02
  1.5133807e-02
  3.7369560e-02
 -3.1152925e+00
  1.1123467e-01
  8.4187418e-01
 -6.5268934e-01
 -9.7354698e-01
  3.4423337e+00
  6.2610497e+00
  1.5739924e+00
  4.0935316e+00
 -6.6784479e-02
  6.8281308e-02
  9.9552965e-01
 -2.2189304e-01
 -7.9183960e-01
  1.5301009e+00
  3.9902953e-03
  1.1857445e+00
 -4.8015285e-01
  1.3261330e-01
 -5.3817803e-01
  3.8490012e-01
  1.5407261e-01
 -2.4373978e-02
 -4.6485412e-01
 -1.8115950e-01
  1.2829435e+00
  2.1248937e+00
  8.9747053e-01
  1.2932626e+00
 -5.7274896e-01
 -1.0575863e+00
 -1.8153226e-02
  1.0728811e+00
  1.2366772e+00
  1.0005225e+00
  2.0784433e+00
  8.4919989e-02
  3.8462304e-02
 -1.0701962e+00
  2.9731160e-02
  2.5160223e-01
 -3.9892931e-02
 -6.0977972e-01
  5.0472456e-01
 -9.4446717e-03
 -3.3388369e-02
 -9.5888841e-01
 -6.6576254e-01
  8.5141264e-02
  6.0068727e-03
 -1.3357401e-01
  6.5769739e-03
 -9.0937394e-01
  5.4566735e-01
  4.3732692e-02
 -4.1838702e-02
  9.8451506e-03
 -1.3862818e-01
  1.8005038e-02
  2.5828538e-02
  4.1997068e-02
 -4.6956252e-02
  3.4403171e-02
  2.6041364e-02
 -8.8044675e-04
  1.0351630e-01
  1.2231952e-01
 -3.6732596e-01
 -1.0705467e-01
 -4.0693611e-02
 -1.8445201e-01
  4.4237494e-01
  1.2255984e-01
  3.1490383e-01
 -2.3882136e-01
 -8.4666334e-02
  3.9390691e-02
 -3.7938964e-02
 -6.5081251e-01
 -1.2638971e-02
 -9.7594666e-04
 -4.4103712e-02
  1.7217026e-03
 -2.3637425e-02
  1.0824277e-01
  1.6871470e+00
  5.3196080e-02
  4.2532578e-02
  2.5284415e-02
  7.1663265e-03
 -1.8669933e-01
 -6.9788985e-02
 -2.6848778e-01
 -1.0245586e-01
 -4.4189375e-02
 -6.2555172e-03
  1.8894050e-02
 -2.2257696e-01
 -4.0214520e-02
 -2.0824631e-01
 -1.9216968e-01
 -1.1532326e-02
 -3.4263041e-03
 -2.8554196e-02
 -4.1007217e-02
 -9.3537336e-03
 -2.6112857e-01
  6.9958173e-02
  4.5397345e-02
  4.7392253e-02
  8.1638403e-02
 -2.2880396e-01
  2.5617657e-02
  2.6125235e-02
  9.6502878e-02
 -1.6352445e-02
 -8.2356654e-02
 -1.9393505e-01
 -9.6164923e-03
  3.1041603e+00
 -5.1025927e-01
  2.9751828e+00
 -3.4079852e+00
 -2.1607211e+00
  2.5570700e+00
 -1.9733758e+00
  3.7236757e+00
 -1.3527076e-02
 -7.1964997e-01
  8.9571172e-01
  1.8791298e+00
  3.5181746e-01
 -1.8311406e+00
 -8.5972749e-02
  1.8878268e-01
  1.4987006e+00
  7.8637534e-01
  7.7277046e-01
 -2.0715764e+00
  2.9151497e+00
  8.8330877e-01
 -1.1247836e+00
 -6.6487515e-01
 -1.9314389e+00
 -4.2541805e-01
 -1.4728937e+00
  1.2725700e+00
 -6.1290640e-01
  2.2483747e-01
 -5.8052605e-01
 -3.1138271e-01
 -2.4727077e+00
 -1.7327657e+00
  7.6238923e-02
 -2.4448817e+00
 -7.1003109e-01
 -6.4844936e-01
 -3.9279857e+00
  1.0046995e+00
  7.9435867e-01
 -4.8350215e-02
 -5.9105322e-02
 -2.5272340e-01
 -1.2261616e+00
  8.4323817e-01
 -1.9044986e+00
 -1.2419901e+00
  4.1765091e-03
 -3.4355170e-01
 -5.8339242e-02
  3.3628610e-01
  1.1445545e-01
  5.5613969e-02
  1.6900202e-02
  1.0423841e+00
 -4.1261569e-02
 -3.3956587e-02
  1.7474405e-01
 -4.9028311e-02
  3.5626844e-02
 -4.8195788e-01
  1.9026427e+00
  4.6367127e-01
 -4.5086870e-01
  3.7081623e-01
 -1.8185235e+00
  2.8089041e-01
 -3.7600753e-01
  2.6473349e-01
  2.0057169e-01
  7.9957567e-02
  3.4827572e-01
  4.1520208e-02
  2.1241151e-01
 -2.4993360e-01
  4.6622895e-02
 -9.7730700e-03
 -1.5033525e-03
  2.1762727e-01
 -1.1599487e+00
 -2.3426096e-01
 -3.5170596e-02
  6.4770091e-01
  9.2629567e-03
 -8.1401847e-02
  6.9170731e-01
  7.0688957e-01
 -4.9413827e-01
  4.4911337e-01
 -1.9107774e-02
  3.7176952e-01
  6.0589498e-01
  1.0625420e-01
 -6.2012129e-02
  1.8423331e-01
 -7.6038843e-01
 -4.8374510e-01
  6.7832112e-02
  4.3523163e-02
  6.4422220e-01
 -2.0281972e-02
 -1.7837645e-02
  1.4360200e-01
 -2.0174928e-01
  3.9237523e-01
  1.0708527e-01
 -3.9907045e+00
  1.8202932e-01
  5.2995984e-02
  2.1218849e-02
 -1.2425704e-02
 -1.8226318e-02
  4.7895636e-02
 -1.5929383e-01
  2.8112924e-01
  5.9646338e-02
  1.0013148e+00
  4.7907919e-01
  1.5965971e-01
 -5.0672919e-01
  8.5695803e-01
  9.7603081e-03
  1.8007955e-01
  6.0045320e-01
  2.6236074e-02
  5.5542690e-01
  3.7253258e-01
 -8.7205648e-01
  1.0659260e+00
  9.3966013e-01
 -1.3898784e-01
 -3.5538487e-02
  3.3383433e-02
  1.1132950e+00
  6.1414135e-01
  2.6162064e-02
  8.1410462e-01
 -1.0780868e-02
 -2.8391349e-01
 -2.3650445e-01
 -2.9259229e-01
 -1.6745457e-02
 -1.4353793e-03
 -4.8876628e-02
  8.4021732e-02
  9.9074878e-02
  4.7931531e-01
  2.8719720e-01
 -4.8378515e-01
  3.5615802e-02
 -1.8208232e-02
 -9.0148801e-04
  1.4113208e-02
 -6.2845223e-02
  1.7121314e-01
  2.3422575e-01
  1.1657784e-01
 -2.7904135e-01
  7.8100955e-01
  3.0398640e-01
  7.9449582e-01
 -5.9502427e-02
  7.4706770e-02
 -1.0555507e-01
  1.5304428e-02
  2.2329403e-01
  5.8035351e-02
 -1.7109616e-01
  3.9765675e-02
  2.3761105e-02
 -1.0146026e-01
 -5.0288159e-01
  5.1863566e-02
  1.0957614e-01
  1.2616335e-01
 -1.4492582e+00
  7.5878426e-02
 -6.2520587e-01
 -1.5875059e-01
 -3.1630507e+00
 -5.3180154e-02
 -6.7317180e-02
  1.5739614e-01
  6.5335774e-01
  1.1189513e+00
  3.9977729e-01
 -3.0500677e+00
  6.2061810e-01
  8.9324141e-01
 -1.6844254e-02
 -2.0547307e-01
  2.7679476e-01
  3.8644102e-01
  8.6852342e-01
  4.4707012e-01
  8.7255520e-01
  5.9611309e-01
  6.2591946e-01
  2.1116935e-01
 -6.4612456e-02
  7.5514339e-02
  1.0188609e-01
 -2.6657948e-01
 -7.5606364e-01
  6.9466400e-01
  1.0568605e-01
  1.7061114e-01
 -2.3209650e-02
 -4.6684223e-01
  2.2707485e-01
  8.0679578e-01
  3.8694489e-01
  1.5329607e+00
 -5.3327495e-01
 -1.4747001e-01
  1.6678320e-01
  3.8283367e-02
 -6.5849936e-01
 -6.2700027e-01
 -8.8361114e-02
 -1.4999665e-01
  7.7989534e-02
 -2.7129189e-03
 -4.1818243e-02
  1.6499915e+00
  7.4464090e-02
  5.8291603e-02
  1.6019382e-02
  6.1879985e-02
  3.0497711e-02
  2.6924896e-01
  1.3295741e-01
  1.8494340e-02
  1.3508418e-01
 -4.5982976e-02
 -7.9055782e-03
  1.2933530e+00
 -3.5145926e-01
  1.0816544e-01
 -5.3582925e-01
  1.3727024e+00
 -1.3637032e-02
 -4.9843326e-01
  2.1385723e-01
 -5.8945373e-02
 -4.7321893e-02
  6.7215361e-02
  6.2855202e-01
  1.1305348e-01
 -2.3749417e-01
  3.3810327e+00
 -1.0089087e-01
 -6.6764742e-02
  9.5858745e-02
 -2.5229400e-02
 -6.4769782e-02
 -2.3404608e-02
  1.9578488e-01
  2.1027014e-01
  1.5110116e-02
 -9.4008729e-02
  5.4453369e-02
 -2.9168814e-02
 -1.4568166e-01
  3.4988690e-02
 -4.5854118e-02
 -6.9747329e-02
  3.6212061e-02
  1.8509062e-02
 -6.6044502e-02
  5.0640233e-02
  1.3325944e-03
 -3.8674903e-01
  6.1531607e-03
 -3.7052877e-02
  2.6620101e-02
 -6.1342835e-02
  1.3254987e-02
 -4.2576075e-02
 -9.2025250e-03
  2.3629425e-02
  4.3041881e-02
 -2.3998879e-01
  2.0908988e+00
  3.9710309e-02
 -2.6076743e-01
  8.8433661e-02
  3.2460168e-02
 -8.5196018e-01
 -1.7481571e+00
  2.7223902e+00
  1.4906676e+00
 -2.6364069e+00
  2.2422781e+00
 -4.2671847e-01
  1.0604210e+00
 -2.6210408e+00
  3.0760570e+00
 -1.3165826e+00
  9.3787625e-02
  4.2828898e+00
 -8.3693153e-01
 -3.2653820e-02
 -1.9028498e+00
  5.4778475e-01
  8.4012860e-01
  4.5074186e-01
 -1.1835521e+00
  5.6364614e-01
  1.4616014e+00
  2.2132483e+00
 -6.2606937e-01
 -4.5328781e-02
 -1.4633102e+00
 -5.9787470e-01
  4.0426409e-01
 -2.1945428e-02
  1.6877097e-01
  1.2530504e+00
 -1.0141984e+00
 -1.4366828e+00
 -1.3582978e+00
  3.7575662e-01
 -3.2026014e-01
 -1.8872550e+00
 -2.7085989e+00
 -2.2759104e+00
 -3.6127682e+00
 -7.4303642e-02
 -1.5259110e+00
 -7.1445769e-01
  7.2536908e-02
 -3.5511713e-02
  6.3122533e-02
 -3.6334869e-01
  5.5363995e-01
 -2.1049237e+00
 -1.2620742e-02
 -1.7657571e-01
 -8.1837904e-01
  8.4369618e-05
 -1.2336229e-01
  4.9271639e-02
  1.1606917e-01
 -1.4227765e+00
 -2.6195127e-01
 -7.2314382e-02
 -1.4234859e-02
 -2.8948893e-03
 -9.0730809e-02
 -6.6650756e-02
 -2.9999116e-01
  6.7989245e-02
 -3.1869930e-01
  9.6325025e-02
 -1.0901599e+00
 -1.6193952e-01
 -3.2080421e-01
 -3.3627003e-01
  4.2831156e-02
  1.2860203e-01
  2.1469891e-02
 -5.2063625e-02
  1.1104162e-01
  2.6370490e-01
 -7.3695414e-02
 -1.9624311e-01
 -2.1023996e-02
  5.2723769e-02
  9.3318120e-02
  2.1276187e-02
 -4.0478515e-03
 -3.9456090e-01
 -1.2705891e-01
 -6.0704577e-04
 -1.2965225e-01
 -1.8937419e-01
 -3.0906847e-01
  2.0318246e-02
 -1.4535791e-02
 -1.2436739e-01
  1.2673943e-01
  4.9373806e-03
  4.4038463e-02
 -7.7684678e-02
 -2.6693320e-02
  1.8700874e-01
  9.8218121e-02
  2.0326453e-03
 -1.4736081e-02
 -1.9843921e-02
 -3.4781545e-02
  1.7702764e-01
 -2.9576474e-03
 -1.8582538e-01
 -8.7786093e-02
 -1.5749091e-01
  7.8907497e-02
 -2.9369614e-03
  2.2047348e-02
 -1.3972681e-03
 -8.8248858e-03
 -7.0718914e-02
  7.0867916e-03
  1.2609543e-01
 -1.0160532e-01
  1.2205812e-01
 -1.1635332e+00
 -2.7349617e-02
 -2.7115712e-02
 -1.0475117e+00
 -7.2682065e-01
  2.2136036e-02
 -6.1002191e-02
  1.4178629e-01
  2.2996707e-01
  1.4411665e-01
  4.3501724e-02
  6.1542984e-02
 -3.8844258e-02
  1.0349867e-01
  3.9146390e-02
  8.1084818e-03
 -1.1067961e-02
  8.5026003e-02
  4.0410269e-02
 -7.8924723e-02
  3.3501141e-02
  4.4714279e-02
  2.1771792e-02
 -6.8304479e-02
  2.6685733e-02
 -8.7228119e-02
 -3.4127258e-02
  1.3081760e-02
  4.5292884e-02
 -2.3882394e+00
 -1.0639522e-01
 -3.7220191e-02
 -7.9691350e-02
  1.0325062e-01
  4.5276448e-02
  3.8038310e-02
 -1.3641018e-02
  7.1469722e-03
  1.4810254e-01
 -6.0450017e-02
  4.3392787e-03
  1.2502836e-02
  7.1611032e-02
 -2.6177181e-02
  2.7146855e-01
  2.1641852e-01
 -1.3094275e-01
  1.7832677e-01
  4.0465761e-02
 -3.7568692e-02
  3.7219472e-02
  1.3118541e-01
  2.4034081e-02
 -4.4381931e-02
 -2.7222428e-02
  1.0170999e-01
 -5.6867862e-01
  3.2577336e-01
 -2.2670133e+00
 -1.5127882e-01
  7.9762682e-02
  3.2416359e-01
 -1.4577578e+00
  3.9227922e+00
  2.3450410e+00
 -1.7909700e-02
  9.6957302e-01
 -1.6554834e+00
  9.9843919e-02
 -3.0699369e-01
 -3.3449468e-01
  1.6121665e-01
 -5.9978990e-03
  1.1683214e-02
  6.8639670e-03
  6.2515564e-02
  4.1712159e-01
 -2.3215316e-01
 -2.6208373e-02
 -2.7467501e-01
  1.5358961e-02
 -8.4344417e-01
 -1.1305014e-01
 -5.6642767e-02
 -6.9802515e-02
  1.1567777e-01
 -7.0892297e-02
 -1.0464446e-01
 -6.6715896e-02
  1.1025307e-01
 -2.1628449e+00
  1.5431814e-02
 -9.5333368e-02
 -1.2914011e-02
 -1.1858334e-01
 -1.4028673e-01
 -4.5096599e-03
  4.8373707e-02
  1.4975555e-01
 -1.3162609e+00
 -1.7868350e-01
 -2.5682382e-03
  9.4567344e-02
 -1.5976282e+00
  4.1435733e-02
 -7.1400635e-02
 -1.0558686e-01
 -7.3531577e-03
 -1.7446288e-01
  2.0076041e-01
  1.9886728e-01
  1.3946480e-01
  8.8258786e-03
  8.0923915e-02
 -5.8395967e-02
  9.8073334e-02
 -3.0484384e-02
 -8.9297727e-02
  4.7723785e-02
  2.0119231e-03
 -3.0542681e-01
 -3.1139874e-03
 -3.1895518e-02
  5.4386184e-02
  5.3444963e-02
  1.4016321e-01
 -1.3934995e-01
 -3.5028324e-01
 -1.4770006e-01
 -5.8479505e-03
  3.7479547e-03
 -2.2354016e-02
  1.5840809e-01
  6.5130077e-02
 -3.3827312e-02
  1.8547492e-03
 -5.8859892e-02
 -1.0282161e-02
  1.7438363e-01
 -1.1102483e-01
 -1.9569643e-02
  5.8345143e-03
  6.4473033e-02
 -4.1688677e-02
  2.6360029e-02
 -3.2161486e-01
 -1.0087048e-01
 -5.4283891e-02
  3.5738780e-03
 -2.1900147e-01
 -2.6462939e-01
 -1.1026875e-01
 -2.2156279e-01
  4.4152778e-02
 -1.4397363e-01
 -3.3552456e-03
 -1.2034789e-01
 -5.2284367e-02
 -2.7535219e-02
  5.0960043e-03
 -1.6890632e-02
  3.6527949e-06
  8.0884501e-02
  4.0883083e-02
 -9.5459141e-02
 -7.5110540e-02
  2.5735095e-01
 -4.2591624e-02
 -7.0525356e-02
 -1.3952988e-01
 -8.3488628e-02
  7.5224257e-01
 -1.6265343e+00
 -3.0722328e-02
 -1.4167936e+00
  5.1945815e+00
 -4.1158748e+00
  4.3291159e+00
  2.4848790e+00
 -3.5404255e+00
  4.6384287e-01
 -5.9185915e+00
 -3.2489941e+00
  1.1589426e+00
  3.1295067e-01
  3.8705764e+00
 -1.2723461e-01
 -2.2769437e+00
 -1.7495309e+00
 -1.4527831e+00
  1.9854456e-02
  1.4556113e-01
 -3.6037529e+00
 -1.0190261e-01
 -2.2638118e+00
 -1.5909061e-01
 -2.9724711e-01
 -1.8658721e-01
 -3.3555439e-01
 -6.5080267e-03
 -2.5677711e-02
 -1.2844905e+00
 -2.1610048e-01
 -2.0735490e+00
 -1.4479393e+00
 -1.5208892e+00
  2.9723179e+00
  2.8353057e+00
  1.1406839e-01
 -3.1785915e+00
  1.9753863e+00
 -4.5764068e-01
 -4.7616220e-01
 -2.0433029e-02
 -2.8763484e-02
  1.4130689e+00
 -1.9568262e+00
 -8.1193477e-01
 -1.1839996e-01
 -2.4683483e+00
 -3.2933027e-01
  5.6403470e-01
 -7.3127687e-02
  9.0001613e-01
 -1.1172029e+00
 -1.0891093e+00
  1.0746003e-01
 -1.3239698e+00
 -1.2529626e-01
 -2.7047741e+00
 -2.5362084e+00
  3.8749692e+00
 -8.8289404e-01
  3.7271330e-01
 -5.4005402e-01
 -1.7108117e+00
  2.8115835e-02
 -1.1362157e+00
  3.3801196e+00
 -4.1991827e-01
 -3.0671933e-01
 -1.4655695e+00
 -9.7128022e-01
  5.1427650e-01
 -2.7292266e+00
  1.2311002e-01
 -1.7142842e+00
 -3.7839371e-01
  1.8499770e+00
  6.8506533e-01
 -9.2245811e-01
 -8.0912793e-01
 -1.3168613e+00
 -2.7568908e+00
 -2.4778442e+00
  1.1016587e-02
 -6.2056988e-01
  1.0720733e+00
 -2.3302697e-01
 -1.6051748e+00
 -1.3534956e+00
 -2.5695717e-02
  1.1448862e-01
 -1.1438705e+00
  6.0344309e-01
  1.1997405e+00
 -1.8791918e+00
  8.1168449e-01
  2.2180102e+00
 -1.9184215e+00
 -3.2892728e-01
 -1.3097682e+00
  5.8058903e-02
  1.4228402e+00
  3.4087517e+00
 -1.7790277e-01
  6.7923331e-01
  4.6730945e-01
  3.6079880e-02
  6.3593060e-01
 -6.4985514e-01
 -2.3968506e-01
  2.2289474e-02
 -3.4700014e-02
  1.1414185e-01
  3.3578716e-02
  8.7609731e-02
 -6.2292171e-01
 -1.2395126e+00
 -3.8333211e+00
 -5.4546428e-01
  2.1168351e+00
 -1.9927676e+00
 -2.0897620e+00
 -1.9974047e+00
 -3.0128241e-01
 -1.3331487e+00
 -3.1232095e-01
  2.1495040e-01
  4.2628267e-01
 -1.8944049e-01
  1.0448020e+00
  8.6794740e-01
 -5.3563543e-02
  1.3474862e-01
  1.4952625e-01
 -1.0517255e-01
  9.2701936e-01
 -8.3411229e-01
  6.6852307e-01
 -1.2821922e-01
 -3.8811751e-02
 -8.4135336e-01
  1.3469002e+00
  4.5918745e-01
  9.6569015e-03
 -2.5609905e-01
  9.4614148e-01
  2.3877797e+00
  7.6708063e-02
  2.1023302e-01
  2.0491767e+00
  1.1241034e+00
  1.4269843e+00
  8.5909143e-02
  1.4520174e+00
 -5.5530488e-01
 -4.3619058e-01
  2.0162703e-01
  2.7699202e-02
 -5.5830408e-02
  2.1600986e+00
 -4.5214143e-02
  1.9585634e-02
 -3.9352453e-01
  1.0458501e-01
  6.9947012e-02
  1.6207756e-01
 -1.0191882e-01
 -1.5669942e-02
  6.2065754e-02
 -1.1161213e-01
  3.9278150e-02
  3.1150234e-01
 -1.3592277e-01
 -2.3892391e+00
  6.0735327e-01
  1.5245669e+00
  9.7138479e-02
 -1.3046162e+00
 -1.8553717e-01
  1.7285230e+00
  2.7353301e+00
 -1.3577096e+00
  6.1519365e+00
  7.3180014e-01
 -3.0577178e+00
  1.4844924e+00
 -1.2346926e+00
 -1.4871428e+00
  2.4377418e+00
 -3.0899982e+00
 -2.7056046e+00
 -2.7021255e+00
  8.5054785e-02
  9.6595928e-02
  1.7397411e-01
  1.4531447e+00
  1.7504159e+00
  6.7254446e-02
 -1.7376431e+00
 -9.6556509e-01
 -1.3317708e+00
  9.4668932e-02
 -9.2211837e-01
 -4.4325441e-03
 -1.3109583e-01
  6.6867739e-01
 -8.3232574e-02
 -2.4380002e+00
  7.0996696e-01
 -2.6433311e+00
 -7.9946019e-02
  4.8870611e-01
  1.5857756e-01
  1.0284723e-01
  5.7240333e-03
  3.7230540e-02
  1.7130170e+00
 -4.5483770e+00
  1.1225329e-01
 -1.6256312e-02
  1.2746115e-01
 -1.7164781e+00
  7.2638340e-02
 -8.1278093e-02
 -5.3129286e-02
 -3.1513292e-02
 -3.9857224e-01
 -5.2034549e-02
  2.5219133e-02
  1.6877186e-02
 -4.0590954e+00
  8.9993846e-01
 -2.2030549e+00
 -1.4599158e+00
 -1.1917638e+00
  3.9325914e+00
 -1.6493388e+00
 -1.1174320e+00
 -3.9122355e-01
  2.0529273e+00
 -1.9395785e+00
 -3.2183251e-01
 -6.2638301e-01
 -1.4875045e+00
 -1.1058599e+00
 -2.2901430e+00
  8.8161868e-01
  3.2581505e-01
 -9.1867715e-01
 -9.4951704e-02
  3.0533898e-01
 -2.6857333e+00
  3.4850843e+00
  2.1838977e+00
 -2.3902957e-01
 -3.3070362e+00
  1.4300659e-01
 -2.1108674e-01
 -2.3113000e-01
  1.9997334e-01
  3.0505762e-03
 -5.7015594e-02
 -6.8642236e-02
 -2.2915452e+00
 -1.2739825e+00
 -2.1725050e-01
  1.2697506e+00
  3.3608556e-02
 -5.8027631e-01
 -2.0485006e-01
  3.2154739e+00
  6.0808879e-01
  3.2314634e-01
 -2.3400404e-02
 -3.7092182e-01
 -1.4851552e+00
  6.4901328e-01
  6.1381191e-02
 -2.6214856e-01
  2.1552925e+00
  6.3329101e-01
  7.8746662e-02
  7.4309629e-01
 -1.7068823e-01
  6.0150545e-02
 -3.2025331e-01
  1.9333269e-01
  1.6474645e-01
  2.9717628e-02
 -4.4183373e-01
 -1.7611926e+00
  2.1718282e-01
 -3.3223028e+00
 -7.0632529e-01
 -1.5471059e+00
  4.1613426e-02
  9.4818777e-01
  2.0914969e+00
  1.6091685e+00
 -6.0002553e-01
 -1.0353011e-01
 -5.2415073e-01
 -7.1005005e-01
  3.8373075e-02
  1.0892130e-02
  1.1591071e+00
 -2.7963692e-01
 -8.7042499e-01
 -1.9776478e-02
 -9.0036392e-01
 -4.7273791e-01
 -3.5517454e-01
  1.4117667e-01
  6.2767856e-02
  5.3893596e-01
  2.6827225e-01
  7.6409918e-01
  6.6507465e-01
 -8.5840762e-01
 -8.4686056e-02
  6.9129717e-01
  9.9668783e-01
 -5.3550220e-01
 -7.5239003e-01
  2.0652301e+00
  1.5158130e+00
  6.1465133e-02
  9.4401382e-02
  2.0804520e+00
 -5.8868462e-01
 -9.1450755e-03
 -1.2250251e-01
  4.0992460e-01
 -2.1157859e-01
 -1.1792220e+00
  1.5907798e-02
  1.4718193e+00
  1.3277329e+00
  3.2512113e-01
 -7.6430691e-03
 -3.2453969e-02
 -1.4508039e-02
  5.7579175e-02
  9.9084371e-01
  9.3462646e-02
  1.9978766e+00
  3.2652372e-01
 -5.5495632e-01
 -2.0704615e+00
 -1.3274609e+00
 -1.3657178e+00
 -2.2231548e+00
  4.7106051e-01
  8.1101596e-01
 -6.1228406e-01
  2.4486229e+00
  9.5936596e-01
 -2.6833841e-01
  1.6222265e-01
 -3.1154952e+00
 -3.7135509e-01
  2.5676537e-02
  8.2905668e-01
 -5.4204762e-01
  4.9091375e-01
  1.0908979e+00
 -2.5915742e-01
 -1.3119011e+00
 -9.1465354e-02
  1.9445548e+00
  3.0890580e-02
  8.8044304e-01
 -1.6826996e-01
 -1.7602507e+00
 -6.1809707e-01
  2.9445964e-01
  3.0274084e-01
  1.0788786e-01
  1.0017644e+00
 -2.0508702e-01
  1.7120270e-02
 -4.7908235e+00
 -1.9665625e+00
 -1.7177282e-01
 -9.9041149e-02
  5.5420518e-01
 -1.7719282e+00
 -1.7852410e+00
  1.0112366e-02
  2.7820662e-01
 -9.9364698e-01
 -1.3325784e+00
 -1.1621524e+00
  1.8228985e-01
  1.1464040e+00
 -3.3637577e-01
 -4.5554508e-02
  1.2684025e-01
  3.3014629e-02
 -1.2826186e+00
  2.1525887e-01
  3.2695457e-01
 -1.1422266e-03
  1.8999428e-01
 -1.0607224e-01
  1.7528415e+00
  7.3948783e-01
  3.6065400e-02
 -1.9894563e+00
  2.4666478e-01
 -5.7129604e-01
 -4.4863448e+00
 -5.6884152e-01
 -6.7274046e-01
 -2.5742948e+00
  1.6497654e+00
  1.6769780e-02
  6.1426824e-01
 -3.2545276e-02
 -2.6829895e-02
 -1.5177917e-01
  1.0864814e-02
 -2.1438453e-01
 -2.2734559e-01
 -2.0754799e-01
 -5.5678457e-01
 -7.9653060e-01
  1.2412112e-01
  1.0412462e-01
  1.4321801e-01
  6.7198712e-01
  7.4911493e-01
  1.1334437e-01
  2.9641703e-01
  1.0146474e+00
  4.0024942e-01
  2.9044113e-01
 -7.2340220e-02
  2.0570892e-01
  2.4671046e-01
  7.3506671e-01
  1.1544617e-02
 -1.5792146e-02
  1.2859471e+00
  1.2530190e+00
 -2.4603275e-04
  3.4431085e-02
 -2.1925484e-01
 -2.9175884e-01
 -2.9956055e-01
 -3.5465834e-01
 -2.9711536e-01
  5.5085160e-02
  5.2942008e-02
 -1.4050984e-01
  2.1822644e-02
  2.4252278e-01
 -1.4693563e-02
 -2.3863222e-02
 -4.4071233e-01
 -1.5213466e-01
  5.9739992e-02
 -6.8569288e-02
 -2.1414527e-01
  9.8808177e-02
  1.3151262e-02
  1.0585431e+00
 -7.3308550e-02
  3.2897994e-01
 -2.4932451e+00
 -1.4462060e+00
  3.1106785e-01
 -1.3446589e+00
 -1.5927099e-01
 -9.7482455e-01
 -3.5285449e-01
 -9.3322873e-02
 -6.8629242e-02
  3.1751958e-01
  6.4686984e-02
 -1.5974025e-01
 -2.6236267e+00
  3.0316186e-01
  1.9866867e-01
 -4.5515314e-02
 -4.8318800e-02
 -1.6462807e-02
  4.9416849e-01
  8.8451281e-02
  6.2994257e-02
  3.0397069e-02
  4.5105708e-01
 -5.7302326e-01
 -1.3859893e-01
  1.0478088e+00
  4.9016313e-03
  5.8175720e-02
 -5.6507701e-01
  1.7486721e+00
  2.0613560e-01
  2.4837576e-02
 -3.2487831e-01
  1.8005748e+00
  8.8420898e-01
  3.7687269e-01
  5.1842611e-02
  1.2229817e+01
 -4.7497806e-01
 -1.0840436e-01
  6.6165018e-01
 -6.3113429e-02
 -1.5126213e-01
 -4.0185459e-02
  2.1416472e-01
  6.8157621e-02
  2.5572570e-03
 -5.5131335e-03
 -6.6848479e-02
  8.4225284e-03
  4.5955878e-02
 -4.5309621e-03
 -1.6698861e-01
 -7.3785909e-02
 -1.0920850e+00
 -1.1383167e-01
  3.9884489e+00
 -1.0792180e-01
 -1.3265984e-01
  1.0355575e+00
  5.1107228e-01
 -5.3804476e-02
  2.2376180e+00
  2.7633938e-03
  1.3921540e+00
 -9.9191204e-02
 -4.1188687e-02
 -5.3654637e-02
 -8.9774072e-02
  3.8380641e-01
  6.8379003e-01
 -5.3833555e-02
 -4.6173404e-03
  3.7608236e-02
  5.4895036e-02
  1.0335065e-01
 -8.9342040e-01
 -5.9793860e-01
  4.9144306e+00
 -6.0993594e-01
 -7.3742727e-03
 -7.5734848e-01
 -3.9410478e-01
 -1.7155267e-03
  5.9938148e-02
  2.1563222e-01
  1.2110888e-01
 -1.2772515e+00
 -2.8296685e-01
  6.8995007e-03
 -5.4396784e-01
 -1.0215051e+00
  7.3047079e-02
  3.8094781e-02
  6.1510954e-02
  2.3191936e-02
 -4.0567639e-01
  9.4567627e-01
  2.8227212e-02
 -1.4945072e-01
  1.4454271e-01
 -1.9856945e-01
 -2.2381924e-02
 -6.3364513e-02
 -4.6301056e-02
 -3.5059039e-02
  2.9731957e-02
  6.6222943e-02
 -3.5137329e-02
 -8.3056733e-02
 -1.7006851e+00
 -2.1606133e+00
  8.4917706e-01
  2.8249912e+00
  6.8616719e+00
  1.6487351e-01
 -1.5440445e+00
 -1.5401119e+00
  1.9600328e+00
 -1.0767708e+00
 -1.0090671e+00
  1.8180950e-01
 -2.4023561e+00
  1.3760994e-01
 -2.6682234e-01
  3.1693953e-01
 -1.4409580e+00
 -1.2768753e-01
  1.4006890e+00
  1.2239705e+00
  2.5374180e-01
 -3.7159414e+00
  3.6501694e-01
 -1.1101135e+00
 -1.5105566e+00
  1.5121393e+00
 -8.8284269e-02
  1.8024427e+00
 -2.7818942e+00
  2.0220958e-01
 -2.7627022e+00
  7.9995239e-01
 -2.8591558e-01
 -4.8138657e+00
 -4.7571507e-01
  5.3127761e+00
  1.2291112e+00
 -1.5739860e-01
 -8.1173646e-01
  4.2108283e+00
 -2.3692100e+00
 -4.3503337e-02
 -2.7150393e-02
  9.4826603e-01
 -2.0422323e+00
  3.9756813e+00
  1.4833990e+00
  6.7302608e-01
 -8.9391783e-02
  6.5481784e-03
  1.3448380e-01
 -3.3658888e-02
 -2.3370042e-02
  1.5868315e+00
 -2.2884329e-01
  2.2755885e-04
  1.8522765e-02
  1.5520518e+00
  1.7209470e-01
 -1.6148119e-01
  3.2797503e+00
  3.2049372e+00
  5.8357257e-01
  1.1686427e-01
  2.3630159e+00
 -1.2840021e+00
  3.9215958e+00
  6.0871493e-02
  4.1949239e+00
  2.3472035e+00
 -3.6696582e+00
  2.3771726e-01
 -1.0562307e+00
 -6.9705850e-01
 -3.0466957e-02
 -1.7364937e+00
  2.3377292e-02
 -1.6138402e-01
 -4.8632222e-01
  1.6287332e-02
 -1.6880213e+00
  7.0668280e-02
 -1.7871372e+00
  8.2056135e-01
  6.7949012e-02
  2.0043335e+00
 -1.0355423e-01
 -9.5488542e-01
  6.4006299e-01
  1.2944244e-01
 -2.0822090e-01
 -1.5128937e+00
 -2.7034302e+00
 -2.3855859e-01
 -1.7805208e+00
 -4.1366968e-01
 -1.1872919e-01
 -1.8718706e+00
 -7.5455761e-01
 -3.3500627e-01
 -4.3548721e-01
 -1.0405650e+00
  7.3489416e-01
 -1.3890371e-01
 -3.7482405e-01
 -1.9023995e-03
  2.3174388e+00
  1.3988524e-02
  4.1907046e-02
  2.1811699e-02
 -8.7480452e-03
  9.7641014e-02
 -2.5366036e-02
 -2.3572001e-01
  1.8963791e-01
 -9.0710437e-03
 -2.3222728e+00
 -1.9099085e-01
  1.5715735e-02
  5.3422624e-01
 -9.0327956e-02
  9.0358429e-02
  1.8925722e+00
 -7.2932862e-02
  1.5910926e-01
  7.8738995e-02
 -4.2951781e-02
 -1.1748125e-02
 -1.2490574e-01
 -3.4109347e-02
  1.4261292e-01
  1.3747170e-02
 -3.3743659e-01
  3.2264128e-02
  8.9942396e-02
 -7.3703840e-02
 -2.2714186e-01
 -1.5978512e-01
 -3.8564798e-01
 -1.0180959e-01
  8.4679928e-03
 -1.6298032e-01
 -1.2040454e-02
  4.4271067e-02
  2.6832718e-02
  7.3646759e-03
 -9.6251585e-02
 -2.7428189e-02
 -7.0688932e-04
 -1.2257870e-02
 -1.2137073e-01
 -1.0473270e-02
 -8.9511581e-02
  1.2362057e-01
 -9.0472333e-02
  3.1599823e-01
 -3.3272542e-02
  3.3726159e-02
  1.3983771e-01
 -5.9875131e-02
 -8.7592237e-02
 -6.6430308e-02
 -2.3957025e-02
 -1.2782057e-01
 -7.2849847e-02
  1.0293117e-01
 -3.0545004e-02
 -6.1888024e-02
 -3.0624336e-02
  2.5937479e-02
 -5.3974833e-02
 -3.7063312e-02
  2.2098370e-02
 -5.3116649e-02
  9.9442297e-01
 -1.4443456e+00
 -6.4681453e-01
  9.3400121e-01
 -1.4676569e+00
 -7.2584641e-01
  1.2768999e+00
  2.6397965e+00
 -1.8596729e+00
  3.7640408e-01
  1.9892191e+00
 -1.8388633e+00
  5.2947736e-01
 -7.7162445e-01
  5.7245098e-02
  1.0049536e-01
  2.0407279e+00
 -1.3581910e-03
 -7.3637491e-01
  3.6812158e+00
  1.3351607e+00
 -1.2060318e+00
  4.5241743e-01
  2.4790768e-01
  1.6620097e+00
 -1.0625772e-01
  1.0440544e+00
 -1.1711726e+00
  2.9335400e-01
 -1.3171598e+00
  1.2122660e+00
 -1.6445084e+00
  1.2543886e+00
  8.7571514e-01
  1.9178444e+00
  3.4755621e+00
  1.2111377e+00
  2.6058605e+00
 -4.2116380e-01
 -4.1227174e+00
 -9.1941470e-01
  4.3002901e+00
 -1.0111656e-01
  4.4010382e-02
 -3.0593181e-01
  2.5051100e+00
 -1.7707972e-01
  1.4181640e+00
 -1.7787578e+00
 -2.7904542e-02
  4.2539518e-02
  1.8041618e+00
  2.4485633e-02
 -1.5110252e+00
 -7.5218129e-01
 -4.9369177e-01
 -6.5190159e-02
 -1.1467518e+00
 -1.7778853e+00
  8.5680276e-01
 -1.0956319e-01
  2.6212647e+00
 -5.2571732e-01
  2.2553609e-01
  1.3420892e+00
 -2.1105416e+00
 -1.7994190e-02
 -3.6999264e-01
 -4.4651285e-01
  2.1621742e+00
  1.1656491e-01
 -7.6066208e-01
  8.6307746e-01
  3.0179827e-02
  1.0532339e-01
 -1.0585740e+00
  4.6331665e-01
  3.4260905e-01
 -5.0364119e-01
  3.5030209e-02
 -3.1327729e+00
 -2.4331303e+00
  5.7055980e-01
  1.9737197e-01
  7.6405120e-01
  5.2978826e-01
 -1.7006650e+00
  6.1107868e-01
  7.2562128e-01
  2.5245352e-02
 -7.0003092e-01
 -2.3965700e+00
  5.0050183e-04
  2.6552402e-03
 -8.6741883e-01
 -1.0742457e-01
  2.8600078e-02
  8.6945072e-02
 -7.4149847e-02
 -6.3181573e-01
 -1.2931815e-01
  4.5798519e-01
  1.0454206e-01
 -2.6526973e-01
  1.0059443e+00
 -6.6944681e-02
  6.8717200e-01
  1.7391951e-01
 -1.1940994e+00
 -1.1607128e-01
 -6.5339074e-02
 -1.5448132e-01
 -1.5397128e-01
  4.8905712e-02
  1.0232209e-01
  3.3131883e-02
 -7.8816965e-02
 -7.7494577e-02
  3.8111247e-02
 -1.3770892e-01
  1.2460721e-01
  6.1397523e-02
 -1.0842241e-01
  1.6942045e-01
 -3.3048432e-02
  1.2160989e-02
 -1.1644307e-02
 -3.8953178e-02
  9.2812382e-02
  3.6679458e-02
 -8.6187318e-02
  7.4278459e-02
 -1.9842567e-01
  1.7462441e-01
 -7.6028220e-02
 -1.4055038e-03
 -5.8466677e-02
 -2.8066527e-02
  4.0832203e-02
 -1.8857716e-01
  2.0578641e-01
  6.5782204e-02
 -1.4138715e-01
  6.6532637e-03
  5.0719090e-02
 -4.3690833e-03
  1.6266932e-01
 -1.0255232e-01
 -1.3896227e-01
  6.3150031e-03
 -1.5996498e-01
  8.6248694e-03
  2.0385403e-02
  8.0791794e-02
  2.5239628e-02
  7.2021328e-02
  2.3147782e-02
 -1.4721851e-01
 -1.6431872e+00
  1.0162548e-01
  7.6999329e-02
  2.9246973e-02
 -8.5497886e-02
  1.0797051e-01
  1.2916066e-01
  1.4511535e-01
  2.0712435e-01
  4.8682723e-02
 -8.3199620e-02
 -1.2399556e-01
 -2.6646659e-01
 -8.2377777e-02
  2.1576595e-01
  3.2367434e-02
  1.1038611e-01
 -2.6670334e-01
 -3.1003282e+00
 -9.2863572e-01
  3.2423573e+00
 -3.2071948e+00
  1.5510668e-01
 -1.6838213e+00
 -2.2198783e-01
  5.5258483e-01
  2.9398603e+00
 -2.5510507e+00
  3.1437376e-01
  1.5902904e-01
 -2.9987764e-01
 -1.5443378e-02
  3.7799433e-02
  9.2658147e-02
 -4.2797659e-02
  3.9613120e-02
  4.2948176e-04
 -3.0207327e-02
  1.5983734e-01
 -1.3768557e-01
  3.1932567e-03
  2.7521858e-01
  1.7769396e-02
  1.3744094e-02
 -9.0808362e-02
  1.5968550e-02
  2.2859324e-02
  5.4132533e-01
 -5.2439195e-01
  4.3369599e-02
 -2.4773133e+00
  4.5575109e-01
 -2.5138667e+00
 -1.5884438e-01
  9.0864277e-01
 -4.0670103e-01
 -2.4715340e-02
 -4.6365116e-02
 -3.9585200e-04
  9.3271089e-01
 -5.2107614e-01
  2.7834922e-01
 -3.8061619e-02
 -5.0876069e-01
  7.0568222e-01
  2.0581475e-02
 -1.3965297e-01
 -4.4161614e-02
 -2.1994707e-01
  8.8986762e-02
 -1.4638254e-01
 -3.5988819e-02
  9.6562773e-02
  1.9187643e-01
 -1.0734085e+00
  1.6740210e+00
  1.7531465e+00
 -1.7777499e+00
 -5.7377834e-02
  1.5546365e+00
  2.9091299e+00
  5.1862669e+00
 -2.5142078e+00
  5.6213159e-02
 -2.6822536e+00
 -2.0289881e+00
 -1.4896986e+00
 -2.9757124e-01
  3.5026982e-01
  3.2426617e-01
  8.1314277e-03
  1.1198808e+00
 -2.6951993e-02
  2.3172440e-01
 -5.4560310e-01
 -3.1785825e-01
  2.2920656e-01
  1.6135490e+00
  1.8688842e+00
 -2.2859836e-01
  9.7903627e-01
 -2.3873191e-01
  3.9191654e-01
 -1.1590910e-02
 -4.0301915e-02
 -5.1776092e-02
  1.2821673e+00
  2.9057238e+00
  9.2085510e-01
  6.3722152e-01
  2.3000205e+00
 -1.4061725e-01
 -2.0398554e-01
 -1.0252854e+00
  2.4538310e-01
  2.7400357e-01
  7.7483302e-01
  2.8069186e+00
 -1.0750065e+00
  1.0186571e+00
 -2.8258860e-01
 -9.7088724e-02
 -1.0078126e-01
  7.7088660e-01
  3.4201987e-02
  1.7744097e-01
  6.1073419e-02
 -3.3926018e-02
 -2.6646230e-01
  4.0119935e-02
  4.9508348e-02
  4.4392761e-02
  1.6476199e-02
  1.9708490e-03
  2.0430440e-01
 -2.3812121e-01
  1.2363205e-02
 -6.9829777e-02
  7.0981830e-01
 -9.5308173e-01
  2.5126275e-02
 -2.2602344e-02
 -8.5976160e-01
 -4.0912267e-02
  3.6785614e-01
  1.4547920e-02
  1.2567888e-01
  1.8005106e-01
  5.1467752e-01
 -7.4537799e-02
  9.8673350e-01
  6.6310629e-02
  7.3755309e-02
  1.3249688e-01
 -9.4985247e-02
  3.4123054e+00
  2.2384807e-01
 -1.0696892e-01
 -2.7309269e-01
  5.4912798e-02
 -1.4312808e-01
 -6.3564740e-02
 -4.3943848e-02
 -2.0632704e-01
 -2.9440602e-02
  2.7269451e-03
 -1.9549589e-01
 -4.1187726e-02
 -1.9439943e-01
 -8.4482962e-03
  1.9962198e-01
  8.2438070e-01
  1.2509672e-01
 -1.4591041e-01
  1.8887674e-02
 -1.3903004e-01
  4.0215082e-02
 -1.5691694e+00
  1.8140922e-01
 -1.6100609e-01
  4.9921390e-02
  7.3735006e-03
  9.4932866e-01
  6.3038200e-02
 -2.5829902e-02
 -9.3692653e-02
 -1.0973338e-01
  2.9706031e-02
 -8.3483614e-02
  1.2472694e-01
  1.1568144e-01
  2.1601872e-01
  2.0700695e-01
 -1.7716724e-01
 -4.5247859e-01
  4.7372270e-02
 -6.2532616e-01
  2.4540818e-01
  1.0081603e-01
 -6.6262448e-01
  1.7116902e-02
 -1.6410834e-01
  1.2739532e-01
  1.0437849e-02
 -2.4901731e-01
 -1.5960503e-01
 -6.1144739e-02
 -2.9321907e-03
 -8.5579365e-02
  1.7529558e-02
  2.0595971e-02
 -3.1047266e-02
  3.4258686e-02
 -1.0988643e+00
 -5.8079381e-02
  1.4879865e-02
 -2.2294757e-01
 -1.3396011e-02
 -1.0721591e-01
 -7.7441454e-02
 -1.2869854e-01
 -3.4032181e-01
 -6.9001921e-02
  2.1203041e-02
 -3.4858909e-02
  7.1406253e-02
 -2.3122424e-02
  3.4343187e-02
 -5.4083001e-03
 -2.2057537e-02
 -2.6227163e-02
 -4.4881886e-01
  1.1802918e-01
  6.7970924e-02
 -1.6555067e-02
  1.4284878e-02
 -4.3108948e-02
  3.8272984e-02
  2.7965426e-01
 -4.3058664e-02
  1.9342873e+00
 -2.2118349e-02
  7.9059765e-02
  7.9022020e-02
 -1.4484749e-02
  1.6295360e-02
 -7.8591622e-02
 -6.6366196e-02
  9.0506798e-01
  9.1988057e-01
 -1.1631116e+00
 -2.5534246e+00
 -2.3657281e+00
  3.7408924e+00
  8.9801311e-01
  3.0986276e+00
 -3.1265123e+00
  2.1887551e-01
  1.2516247e+00
  9.3702242e-02
 -9.5289928e-01
  1.7257354e-01
 -2.5592713e-02
  5.0035922e-04
  2.1625175e+00
 -8.2561582e-01
 -3.4974165e-02
 -2.7534455e-02
 -9.6399106e-02
 -4.3422171e-01
 -2.7250991e+00
  3.5632718e-02
 -1.0791625e-01
 -5.8180797e-01
 -1.3562212e+00
 -1.2754403e-01
  1.3222370e-02
 -2.2516376e-01
 -5.2386773e-01
  5.7907408e-01
  7.9282159e-01
  3.0081910e-01
  1.4104624e-01
 -6.6115350e-02
  2.0314267e+00
 -3.7560374e-02
  2.3957382e-01
  1.1035125e+00
  6.7680545e-02
  4.6962979e-01
  3.5997249e-02
 -9.8114157e-01
  2.5513492e+00
 -6.9717462e-03
 -5.2380774e-02
  2.8487578e-01
 -3.3770945e+00
 -2.1502085e-02
  8.5072741e-02
  4.9988899e-02
  1.2894247e-01
  2.3015477e-02
  6.4710014e-02
  5.5237603e-04
 -6.2926181e-02
  7.4270859e-02
 -3.6228991e-01
  1.6365392e+00
  3.8739281e+00
  1.8389316e+00
 -5.7781106e-01
 -2.4548993e+00
  6.9945538e-01
 -1.0284946e-01
  2.4373071e-02
  7.0008677e-01
  2.7770987e-01
  1.3833820e+00
 -3.3439094e-01
  2.0138824e+00
  3.0256405e+00
 -2.9726365e+00
 -7.5571871e-01
 -2.0504882e+00
 -3.4061682e-01
  2.2227077e+00
  4.8008904e+00
  1.0386668e+00
  2.9754543e+00
 -8.4375359e-02
  1.6692092e+00
 -2.2327569e+00
 -1.8789814e+00
  1.8903254e+00
 -1.7090212e-01
 -3.4606521e+00
  1.0691153e+00
  1.7181379e+00
 -2.7844569e-01
  5.2415550e-02
  6.3724548e-01
 -2.3030736e+00
  5.2769011e-01
  2.2607911e+00
 -1.4565240e+00
  7.5165337e-01
 -2.6694846e-01
  3.3857112e+00
 -3.4324583e-01
 -6.5885556e-01
  4.4818532e-02
 -1.3356905e+00
 -2.0295980e+00
 -1.5362931e+00
  2.5393021e+00
 -6.0055280e-01
 -5.3262055e-01
  1.0878563e-01
 -1.9385162e-01
 -1.9202075e+00
 -6.9224447e-02
  2.0687613e+00
  4.3330821e-01
  1.4340713e+00
 -2.9043946e+00
  3.7571868e-01
 -7.0034152e-01
  9.4915158e-01
 -5.8895844e-01
 -4.3579301e-01
  1.4417464e+00
  1.1910439e-01
 -4.0996638e-01
 -4.5557618e-02
  1.6488577e-01
  1.8551284e+00
 -2.0665839e-01
  1.7961284e+00
  3.2489201e-01
 -2.1576643e-01
  1.2808173e+00
 -1.0167798e+00
 -1.1251614e+00
  1.3853693e+00
 -4.9095329e-02
  6.5667963e-01
  2.3149557e+00
 -4.6323279e-01
  1.4653379e-01
  2.3276874e-01
  2.1835294e+00
 -1.6582388e-01
 -1.8610454e+00
  4.9295262e-01
 -1.1700846e-01
 -3.2475755e+00
  1.0656545e+00
  2.1450987e+00
 -3.0628581e+00
 -1.2065714e-01
 -2.4239783e+00
  1.6155481e+00
 -8.5974567e-02
 -1.8982024e-01
 -4.8820236e-01
 -9.2627221e-01
 -1.1769899e+00
 -1.7382413e+00
  7.0894521e-01
 -1.5563363e+00
  3.0750005e+00
  1.5283748e+00
  3.1799001e-01
  2.3072182e-01
  1.3589287e+00
 -6.0644758e-01
  7.7080375e-01
  8.0563188e-02
  1.0085783e+00
 -1.1742749e+00
 -1.8675308e-01
 -1.6837621e-01
  6.8106389e-01
  4.3499118e-01
 -1.5845128e+00
  5.4435682e-01
  1.9691207e-01
  7.0586181e-01
 -2.0269911e-01
  3.0960441e+00
 -1.5442883e+00
  2.5281265e+00
 -8.3684608e-02
 -1.2046312e+00
 -1.2396436e+00
  1.1225635e+00
 -1.2932317e-01
  1.4353020e+00
 -1.5296173e-01
  1.4570506e-01
 -3.2721865e-01
  4.1497082e-01
 -2.0838186e-02
  2.7076274e-01
 -2.6132485e-01
  8.1324041e-01
  5.4415470e-01
  1.2396606e-01
 -1.0791102e-01
  2.5648713e-01
 -4.6399182e-01
  2.6702246e-01
  1.3155779e-01
  6.1312217e-01
  2.1553220e-01
  2.3703817e-02
 -5.7745829e-02
  1.5540649e-01
 -4.2548217e-02
  8.5223305e-01
  1.5411806e-01
  5.0629765e-02
 -1.3970994e-02
 -1.2738164e-01
 -2.0916322e-03
  2.2845250e-02
  6.4531779e-01
 -4.7144435e-02
  4.9801263e-01
  1.7008547e-02
 -3.7352130e-02
  1.6827673e-02
  9.3690172e-04
 -3.1394660e-01
 -1.8508479e-01
 -1.0548158e-01
  1.2760629e-01
  3.2709848e-02
 -9.4661780e-02
  3.4214117e-02
 -1.6224019e-01
 -1.8683439e-02
  6.6105346e-03
  2.5455941e-02
 -1.1033724e-01
  4.4029409e-01
  4.2766090e-02
 -3.5220048e-01
 -1.3795234e-01
 -1.1002459e-02
  3.1193839e-02
 -5.6981736e-01
 -7.5216120e-01
 -1.4721355e-01
  1.2766026e-01
  1.8685911e-02
 -5.3396529e-01
  1.5152182e-02
 -8.9872457e-02
  6.0287349e-02
 -7.4052792e-03
  5.0763149e-02
 -2.1705912e-01
  1.0463274e-01
 -9.8113656e-02
  6.3051052e-02
 -1.0027558e-01
 -1.4695183e-02
 -3.5564744e-01
  8.4372860e-01
 -9.7527467e-02
  1.6723008e-01
 -2.0520553e-02
 -3.3176590e-02
 -3.6573592e-01
  4.5707803e-02
 -3.8744554e-02
  3.0750884e-02
 -4.3637443e-02
 -6.3771896e-02
 -3.2322925e-02
  1.2947405e-02
  1.7272079e-02
  5.3442698e-02
 -1.1179199e-02
 -2.5327574e-02
  7.5423536e-03
  3.1455129e-01
  5.3290343e-03
  9.0237662e-02
 -2.1332176e+00
 -2.5184530e-01
 -2.5189466e+00
  5.1130529e-02
 -6.7566805e-02
 -7.9187028e-02
 -3.6348972e-02
 -7.8728944e-02
  4.4928517e-02
  3.8568195e-02
  1.2874490e-01
 -6.6014029e-02
  2.3253000e-01
 -1.8390180e-01
  1.1358846e-01
  7.6966298e-01
  1.2474933e+00
  7.1397555e-01
  2.2104163e+00
 -6.6355723e-01
 -2.1658087e+00
  1.3577125e+00
  8.9264703e-01
 -1.2624896e-02
 -6.3044417e-01
 -2.1226031e-01
  7.5381875e-01
  2.7830479e+00
  1.7677085e+00
  1.7448525e+00
 -3.0656016e-01
  9.4839185e-01
 -1.3517369e-01
 -2.8602004e+00
  2.0826402e+00
  1.1440202e+00
  1.1735988e+00
 -4.5767838e-01
 -1.3840313e+00
 -3.6186800e+00
  2.8536659e-01
 -9.6262014e-01
  2.3309960e+00
  1.0937085e+00
 -1.2218333e-01
 -3.8830334e-01
  7.4954683e-01
 -5.6850708e-01
 -8.9426947e-01
  2.2028503e-01
  6.9472462e-01
  1.9125178e-01
 -1.7514652e+00
  1.2361501e+00
  1.3618182e+00
  1.7202641e+00
 -7.7898568e-01
 -7.1072310e-01
 -5.3473455e-01
  2.9046538e+00
 -9.8160344e-01
 -7.2694290e-01
  8.0567472e-02
  3.6073223e-04
 -1.0718712e+00
  2.2367236e-01
 -1.2757392e+00
  1.3229144e-01
  5.2607358e-01
 -4.0531883e-01
 -1.2120828e-01
  1.1016955e+00
  5.7804513e-01
  9.3153939e-02
 -6.7429793e-01
 -2.6655775e-01
  3.0951932e-01
 -1.1729316e+00
  8.6972527e-02
  7.9049081e-01
  2.8641155e+00
  1.2791117e-01
  4.0239143e-01
  5.4042697e-01
 -5.4518092e-01
  1.6998877e-01
  3.0776569e-01
  7.1073395e-01
 -1.1067057e-01
  1.2658596e-01
  2.1116232e-02
  6.8858176e-01
 -3.0002946e-01
  1.4140385e+00
 -1.2359573e+00
  1.0465822e-01
 -3.3670905e-01
 -5.6688350e-02
  4.7267891e-02
 -1.2570307e+00
 -1.5272647e-02
 -7.6609278e-01
  2.0569374e-01
 -1.2444123e-01
 -2.3096749e-01
 -2.1273790e-01
  1.0727729e+00
  6.6233969e-01
  6.3731559e-02
 -5.8524334e-01
 -3.8700858e-01
  4.7061583e-01
  2.4289947e+00
 -7.6695807e-02
  1.5330842e-01
 -2.4659414e-02
 -1.4940545e-01
 -2.6842338e-01
 -6.4738214e-01
 -1.0183637e-01
  4.2063242e-01
  7.3182458e-01
  4.0970612e-01
  8.8215292e-02
 -2.4755053e-01
 -5.3554696e-01
 -1.1877245e-03
  4.0941072e-01
  6.2981081e-01
 -7.6858908e-01
  2.5816104e-01
  1.4005834e+00
 -1.1230245e-01
 -2.5855172e-02
  5.1085538e-01
  1.6435502e+00
 -2.8738415e+00
 -3.4005061e-02
 -7.4074134e-02
 -9.4129491e-01
 -2.8735134e-01
  1.1649436e+00
  2.2947778e-01
 -1.7184953e-01
  1.6131341e-01
  5.7544565e-01
 -2.7112149e-02
  5.7912353e-02
 -6.7280717e-02
 -2.1700624e-01
 -1.8322083e-01
  4.4738874e-01
 -2.2899213e-03
 -6.4962286e-01
  9.6587229e-01
 -1.3434301e-01
  7.0104063e-01
  2.3327692e+00
 -1.4235301e-01
 -1.0852071e+00
  1.0228399e+00
  1.1081493e-01
 -1.3329512e-01
  8.7057808e-03
 -8.5483104e-02
 -2.3758116e-01
  2.3619032e+00
 -3.2198310e-01
  2.6921473e-02
  7.5798623e-02
 -8.6619461e-01
  1.0900451e-01
  1.0058060e-02
  3.7752832e-03
  9.0305515e-02
 -2.8598668e-02
  6.6327423e-01
  7.0764190e-01
 -3.5312030e-02
  4.2702816e-02
 -1.3399449e-01
 -7.7542377e-01
  4.9977805e-02
  7.9525128e-02
  9.7241886e-03
  6.5730691e-01
  3.5756671e-01
  2.1151681e+00
 -8.8421555e+00
  3.2412520e-01
 -4.9677315e+00
 -7.4858212e-01
 -3.4446952e-01
 -1.0022652e+00
  7.0846266e-01
 -1.3452592e-01
  5.5648005e-01
  1.3229987e-01
 -4.4358081e-01
 -8.2293707e-01
 -7.7073157e-02
 -2.8047373e+00
 -3.6213824e-01
 -2.9715273e-01
 -9.5625532e-01
 -8.9050770e-01
 -2.5059837e-01
  6.7133874e-02
  6.5844789e-02
  1.3887774e+00
 -8.3213151e-01
 -5.4611719e-01
 -1.2996832e+00
 -2.0599971e+00
  8.7278262e-03
 -5.4770429e-02
 -1.0169719e+00
  1.0484626e+00
 -1.9688375e+00
 -5.8698153e-01
 -1.0151137e+00
  1.7384191e-01
  1.3226174e-01
  6.5325636e-01
  2.6271126e-01
 -2.4235871e+00
 -5.3431988e-01
  1.1593661e-01
 -1.3708248e+00
 -9.2054820e-01
  1.4102465e+00
  9.4628000e-01
 -7.7514671e-02
 -2.0222457e-01
  1.0628194e+00
 -3.1777818e-02
 -1.0201241e-01
 -3.0248998e-02
  3.0780894e-01
  5.6457269e-01
 -3.7739567e-02
  2.8081937e-02
  3.9422926e-03
  1.6925608e+00
  2.4114011e-01
 -1.7209020e+00
 -1.1084077e-02
  5.2943206e-01
 -5.8568563e-02
  1.5450786e+00
 -2.6803816e-02
  2.1386123e+00
 -6.4357483e-01
  1.7328556e-01
  1.4080077e-01
  1.5200451e-01
 -4.3455750e-01
  2.0724015e-02
  5.4681163e-02
  5.0745014e-04
 -1.3377282e-01
 -1.7209569e-02
  8.7972403e-02
 -1.8197840e-01
 -7.5953482e-03
 -1.9807631e-02
 -6.1013520e-02
  1.9540946e-01
 -6.8558939e-03
 -4.1852091e-02
 -1.6836657e-01
  1.4396418e-02
 -9.2611060e-02
  1.9434461e-01
  1.9900820e-01
 -1.7701709e-01
  1.9306101e-01
  6.9278004e-03
  7.1562439e-02
 -2.8554118e-01
  8.2428895e-02
 -1.4117238e-02
  1.2357941e-01
  1.5772458e-03
 -8.3390839e-02
  7.9693962e-03
  1.1463992e-01
 -3.3144139e-02
  1.4519569e-02
 -2.9207548e-02
  2.5316316e-03
 -4.9489200e-02
 -1.0084844e-01
  5.7780914e-02
 -9.9422008e-01
  7.6274127e-02
  4.2550955e-02
 -5.4034095e-02
  1.1491342e-02
 -1.5215883e-01
  5.8001131e-02
 -7.0696110e-03
  4.8434686e-02
 -9.4419375e-02
  3.5020784e-02
 -1.2667257e+00
  1.3590354e-02
  2.4036122e-02
 -4.7625564e-02
  1.2342795e-02
 -7.8275740e-01
 -2.9955184e-01
 -6.5394096e-02
 -2.1553576e-01
 -1.5960659e-01
  2.8085385e-02
 -4.7141105e-02
  6.4910069e-02
  1.4303735e-02
  3.8583028e-01
  1.5579762e-02
  4.5658860e-02
  6.7296542e-02
  1.4309427e-02
 -1.8875059e-02
  1.8274650e-02
 -9.4006017e-02
 -5.2111171e-02
  1.0899469e-01
 -8.8629909e-02
 -1.7899080e-01
  9.0429209e-02
  1.7873423e-02
 -3.3292398e-01
  1.0065356e-03
 -1.1818923e-01
 -6.4588130e-02
  2.4337925e-02
 -1.8556403e-02
  5.7134628e-02
 -3.5339143e-02
 -4.8083633e-02
  1.7890286e-02
 -8.1670202e-02
 -2.6428463e-02
 -4.1965690e-02
 -1.0750121e-01
 -1.0210493e-01
  2.4575282e-02
 -4.9162850e-02
  9.7699948e-03
 -1.0747497e-02
 -4.0791761e-02
 -8.1940494e-02
  5.1170867e-02
  8.6766481e-03
  1.0091279e-01
  6.0811862e-02
 -2.4089563e-01
 -3.8422090e-01
  1.8416735e+00
 -4.5868149e-01
  1.7640612e+00
 -7.3422992e-01
  4.7974847e-02
  1.8775586e+00
 -5.8527184e-03
  2.5297379e-01
  3.9106781e+00
 -1.3136492e+00
 -4.4134939e-01
  1.9564378e+00
 -1.1785183e+00
 -1.7842883e+00
  3.0942044e-01
 -1.5235485e-02
  6.2318814e-01
 -2.4468601e-01
  1.6098462e-01
 -2.8689019e-02
 -1.9121172e+00
  3.6160849e-02
 -8.3446991e-01
  4.0222298e-02
  1.1198364e+00
  3.8313213e-01
 -1.5522397e-01
 -6.7277141e-02
 -8.6729467e-02
  1.9124659e-02
 -8.6464316e-02
 -2.8530508e-01
 -2.7316907e-01
 -1.2887500e-01
 -8.2248217e-01
 -3.9370990e-01
  1.9781645e-03
 -7.6840213e-03
 -1.1036380e-01
  5.7746100e-01
  1.9752711e-01
  1.6974525e-01
  3.7939405e-01
 -8.9567108e-03
  1.0414642e-01
  1.3356918e-01
 -6.3593979e-03
  5.6440198e-01
 -4.7789626e-02
 -1.7105151e-02
 -4.6075381e-02
 -1.5705274e-02
 -2.4545741e-01
  2.3120210e+00
 -1.0473774e-01
 -6.4342089e-02
 -7.7731274e-02
  2.7539209e-02
 -2.7907255e-01
  5.3544694e-01
  8.5617565e-02
 -6.3500166e-02
 -1.7818508e-01
 -1.4160010e-02
  9.2858154e-01
  5.1715653e-02
 -5.8281821e-01
  9.0621309e-03
 -2.4869058e-02
  3.5135910e-02
 -8.5426597e-03
 -3.9425708e-02
  1.0930927e-01
  1.2120789e-01
 -5.3181622e-02
  7.9375684e-02
  9.2189178e-02
  7.2238021e-02
  1.5388851e-01
  1.1811527e-01
 -7.4633164e-03
  7.9216376e-02
 -2.1066526e-01
 -2.7458496e-02
  2.2378955e-02
 -4.2494409e-02
 -1.7909547e-02
  7.8454927e-02
 -1.0185296e-02
  6.5834962e-02
  2.3184169e-02
 -1.9278842e-04
  1.4646109e-02
 -1.1940047e-01
  2.2551173e-02
 -2.4550391e-02
 -2.0691512e-02
  4.1920859e-02
 -2.4832705e-02
  6.6618994e-02
 -2.8158370e-02
 -2.6572822e-02
 -1.3570650e-01
 -1.0233767e-01
 -1.1213930e-01
  4.0618520e-02
  5.1035896e-02
  2.0379473e-02
 -1.3883953e-01
  1.9109762e-01
 -1.5750667e-02
 -1.1243749e-01
 -3.0853488e-02
 -5.3092450e-02
  1.1107764e-01
 -9.6876927e-02
  1.1972536e+00
 -3.9308029e-01
 -1.4731890e+00
 -2.6547651e+00
  1.6866291e+00
 -2.1671443e+00
 -1.1489027e+00
  3.6107475e-01
  9.4605136e-01
  8.1084710e-01
 -5.5589832e-02
  2.3423882e-01
  1.9036281e+00
  1.5079250e+00
 -5.3090984e-03
 -2.1694838e-01
 -2.9007372e-01
 -1.5247110e-01
 -1.9250065e-02
 -6.1342782e-01
 -4.8526688e-03
 -3.9629951e-01
 -8.9366084e-01
  2.5070557e-01
  4.6458177e-02
 -4.4269979e-01
  7.5818765e-01
 -1.2319168e+00
  1.7528349e-01
  5.6382823e-01
  4.9622911e-01
  4.4432420e-01
  2.1240434e-01
  3.1800326e-03
  7.6659691e-01
 -1.4229530e-02
 -2.2708257e-03
  3.9152619e-01
  1.2026480e+00
 -3.6582065e-01
 -1.1885352e-02
 -4.0572133e-02
  1.6135347e-01
 -1.5934254e-01
  1.0504150e+00
  4.9017051e-01
  5.8512088e-02
  1.2634510e-01
  5.7567805e-01
  1.5268996e-01
 -9.8108631e-01
  1.8032838e-01
  1.9393387e-01
 -3.0794358e-01
  2.5613651e-01
  6.0032192e-03
  5.1217675e-03
  1.1225930e-01
  4.8565345e+00
 -3.2601926e+00
 -8.6471789e-02
 -1.9742174e+00
  2.2096978e-01
 -1.5997850e+00
  3.8512523e+00
 -8.1924759e-03
 -3.1089917e-01
  2.3505208e+00
 -8.7854564e-02
 -9.3219393e-01
 -7.9868704e-01
 -2.4717031e+00
 -9.2888497e-02
 -2.0286230e-02
  6.5759979e-02
 -7.2197705e-03
 -7.6503599e-01
 -1.7609742e-01
 -5.0906107e-02
 -8.3141190e-01
  8.4140696e-02
 -2.5758974e-02
  5.4854810e-01
  9.7261268e-01
  6.2659538e-01
  5.3558290e-02
  1.6735271e-02
 -3.7812680e-02
 -4.8380890e-01
  3.8815111e-01
  1.7954217e-02
  6.2137842e-01
  1.5136619e-02
  7.2027504e-02
  4.1925009e-02
  1.6787190e-02
  8.6858682e-03
 -2.9435974e-01
  1.0938731e+00
  1.6701740e+00
  5.0482791e-02
  8.2205504e-02
  1.8676630e-01
  2.3389235e+00
  8.9440584e-02
  1.1728754e-01
  3.7380114e-01
  3.3917415e-01
  1.2241569e-02
 -4.4082358e-02
 -1.1079695e-02
 -3.3381907e-03
  4.0117958e-01
  3.8765233e-03
 -4.8645429e-02
 -2.1145448e-01
 -3.4614363e-01
  8.6000735e-01
  1.0958053e-01
 -1.0093012e+00
 -4.6827126e-01
 -4.1407621e-03
 -1.3662845e+00
  1.7485080e+00
  3.0995208e-01
  1.4841442e+00
  5.4853070e-01
 -3.1864163e-01
  8.0438083e-01
 -1.5343378e-01
  6.8916969e-02
 -4.7705731e-01
  3.1585547e-01
 -5.8313769e-01
 -8.2680285e-02
  8.0094296e-01
 -2.1812199e-01
  2.8151077e-01
 -7.8062797e-01
 -1.0272503e+00
  6.2285282e-02
  4.4519982e-01
  9.8051047e-01
 -1.0702300e-01
  5.6338131e-01
  8.4419012e-02
 -2.7060801e-01
 -1.7297317e-01
  5.6616917e-02
  1.5530134e-02
  3.0846915e-01
  4.7618881e-02
  5.1019918e-02
  7.7669191e-01
  3.4205326e-01
  3.3472177e-01
 -7.5949025e-01
  3.4099135e-01
 -1.0348595e-01
  8.3084432e-03
 -2.9073274e-01
 -4.5479946e-02
  3.9125848e-01
 -5.2076489e-01
  9.2244858e-01
  2.5911001e-02
  4.5752607e-02
  3.9787203e-02
  1.0845739e-01
 -4.5014781e-01
  2.6447581e-02
  5.4804659e-01
  3.9263271e-02
  2.5885575e-02
  1.0179311e-01
 -5.5726864e-03
  1.3037813e-01
  8.5321581e-01
 -6.6933716e-03
 -9.6699826e-02
  1.1914095e-01
 -9.4916262e-03
  1.0464662e+00
  3.2388056e-03
  2.5232524e-02
  8.1855148e-02
 -7.3763579e-02
 -9.6584551e-02
 -3.4939334e-02
 -1.3413529e-02
  1.8045463e-01
 -1.1930292e-01
  3.5135102e-02
  1.6451968e-02
  1.7283347e-01
  4.9016859e-02
  3.0275387e-01
 -2.7238092e-01
  7.4822381e-02
  4.4738300e-02
 -4.4398196e-02
  7.9759426e-02
  6.2792778e-02
 -5.6630939e-02
  8.1521377e-02
 -7.0478290e-04
 -1.0531108e-02
  4.5019023e-02
 -5.8817659e-02
  3.3742402e-02
 -5.5976985e-03
  1.0721283e-02
 -4.2490415e-02
 -1.5064892e-02
  4.5650333e-02
 -1.9617017e-02
 -2.6129531e-03
  3.2309990e-02
 -4.4420186e-02
  9.5305108e-02
  1.2398675e-01
 -5.8309756e-02
 -1.6834855e-01
 -6.7604384e-03
  9.8251641e-02
  1.0607433e+00
 -8.0235332e-02
  1.4098590e-02
 -5.8173001e-02
 -6.2710904e-02
 -1.7664449e-01
 -4.0985450e-02
  1.0516622e-01
 -2.5253814e-01
  4.6955235e-03
 -4.0243888e-01
 -7.9685733e-02
  2.6020888e-02
 -5.4247502e-02
 -1.9453603e-01
  4.6388263e-01
  4.0723095e-03
  6.3600525e-02
 -9.5680386e-01
 -2.0010431e-01
 -6.6368890e-01
 -4.1663621e-02
 -7.4594200e-02
 -1.9873353e-02
 -1.2448146e-01
  1.9412564e-02
 -4.9146526e-02
  4.1088457e-03
 -8.3542719e-02
  7.1753837e-02
 -6.2586583e-02
 -8.8228919e-02
  6.3128419e-02
 -2.3075196e-01
 -6.0235742e-02
  2.2416886e-02
  7.5424291e-02
 -1.7564748e-01
 -2.5264269e-02
  8.3011098e-02
  2.8154351e-02
 -4.8346736e-02
  1.5824541e-01
 -4.3961070e-03
 -4.0954221e-03
 -1.2736939e-01
 -8.8043757e-02
 -5.8883935e-02
  2.1801734e-02
 -1.8171920e-02
 -3.3440127e-03
 -2.0352900e-01
  5.8970201e-01
  2.6704671e-03
  1.6352677e-01
  1.4219083e-02
 -8.5293263e-02
  7.9466989e-03
 -4.6126414e-03
  1.2979413e-02
 -8.7697640e-02
  2.8522061e-02
 -1.1330264e-01
 -6.0348921e-02
 -3.8650818e-02
  1.8095995e-01
  2.0275023e+00
 -9.8234582e-01
 -3.4439557e+00
 -1.0402721e+00
  3.1461081e-01
 -6.2078160e-01
  1.4988948e-02
  6.1979876e+00
  1.6782148e-01
  3.3387634e-01
 -1.8799953e-02
 -5.0425697e-02
 -2.3115933e+00
  3.3824831e-02
 -1.0192244e-01
  3.0325005e-02
 -5.2854735e-01
  1.0557023e-01
  2.2841074e-02
  1.5850972e-01
  6.1192220e-01
  3.9897434e-02
 -9.6367020e-03
  6.9955669e-02
  6.7426145e-02
 -3.9790627e-02
 -1.7992674e-01
 -9.5309541e-02
 -2.4820088e-01
 -3.5579252e-01
 -9.1708630e-01
 -1.4464742e-01
 -4.8780394e-01
 -3.2266524e-02
 -1.2524106e-01
  1.8929860e-02
 -1.4523080e-01
  8.4274717e-02
  1.9584566e-01
 -8.1106430e-01
 -9.6981358e-03
  1.7766704e-01
 -1.4008877e-01
 -5.2634470e-02
  1.6872549e-02
  5.1305838e-02
 -4.5704167e-02
  5.4093963e-01
  1.2032242e-01
  4.4351410e-02
 -1.4885233e-01
 -1.0019662e-01
 -5.2920129e-02
  9.9928248e-01
 -2.6633035e-02
  1.9588722e-01
 -2.8888870e-02
  1.0505795e+00
 -2.7192595e+00
 -1.0244098e+00
 -3.5338659e+00
  1.7719908e+00
 -9.5905119e-01
 -8.1120455e-01
  3.8018994e+00
  6.0526009e+00
  2.4637146e+00
  1.5839654e-01
 -4.3693323e+00
 -1.6959916e+00
 -1.0999953e-01
  1.7209442e-01
 -6.1732006e-01
 -1.1693864e-01
  1.1215875e+00
  1.8012898e-02
  7.9406774e-01
  3.7837467e-01
  2.1410619e-01
 -4.7516873e-01
 -2.1736540e-01
  7.0430376e-03
  6.6902894e-01
  1.1736590e-01
 -1.7904751e-01
  6.8246245e-01
 -8.3909832e-02
  6.5772164e-01
  1.9493134e-01
 -1.5039928e+00
  7.1507657e-01
  1.0199587e+00
 -6.9284424e-02
 -7.1090847e-01
 -4.7379602e-02
  1.2983821e-01
 -1.5046786e-02
  1.0512842e+00
 -2.9785094e-01
 -6.8695712e-01
  1.1864796e+00
  1.6208943e+00
 -8.8382477e-01
  7.7871665e-02
  4.2007735e-01
 -1.1858600e+00
  3.0867308e-02
 -7.4953847e-02
 -4.6905903e-03
  1.8455448e-02
 -6.7638755e-02
 -9.4483331e-02
 -5.0858647e-04
  6.5787546e-02
 -9.3922928e-02
  1.1343065e-01
  2.5605638e-02
 -7.8893825e-02
 -8.0403358e-01
  3.0384099e-02
  3.6998086e-03
 -2.7905902e-02
  5.2568022e-02
 -8.5136330e-01
  1.0685543e-01
 -1.7191630e-02
  1.6870144e-01
 -1.2229172e-01
  9.5177120e-01
 -8.7546267e-02
 -1.1175529e-02
 -7.5201049e-02
  1.1332487e-01
  2.8371846e-02
 -1.0483964e-02
 -2.7747782e-02
 -6.6953890e-02
  3.4623139e-02
 -4.5022868e-02
  3.2542016e-02
  2.4497841e-02
  4.6913158e-02
 -1.3902778e-03
  2.8277203e-02
 -5.1984489e-02
 -1.1180665e-01
 -4.0259724e-03
  1.9371109e-02
 -7.2386771e-02
 -5.3993575e-02
 -6.7879252e-02
 -9.1353577e-01
 -8.5014321e-02
  7.2739415e-02
 -1.6403890e-01
 -7.9226539e-02
  1.0535495e-02
  2.0313188e-02
 -1.8833805e-02
  1.5341786e-01
 -4.5981627e-02
 -3.5995763e-02
  4.0998869e-02
 -2.6065627e-02
 -1.0992206e-02
  1.4368428e-01
 -1.1435102e-01
 -6.5003954e-02
 -5.2181661e-02
 -1.7947428e-02
 -9.9944556e-03
  6.3794091e-02
 -1.2674211e-01
  1.6826844e+00
 -1.2471275e+00
  5.1650567e+00
  3.1958640e-01
  1.0263042e+00
  2.0623045e+00
 -1.3770757e+00
 -1.8711871e-01
  1.7425076e+00
 -9.5440328e-01
 -2.7050951e+00
  5.9337193e-01
 -1.0374930e+00
  3.4753320e-01
 -2.9221386e-02
  8.3689785e-01
  1.4206774e+00
  2.7352482e-01
  4.7946149e-01
 -5.4824977e+00
 -3.7135470e-03
  6.3039355e-02
 -7.9857516e-01
 -1.8904032e-02
  3.6808649e-01
 -2.3000884e-01
 -3.0531538e+00
  4.9137656e-02
 -1.3509701e+00
  1.2392207e-01
  2.7039483e+00
  1.1327375e+00
 -6.9074035e-01
  3.4457707e-01
 -1.8172441e+00
 -5.6359950e-02
  6.7580575e-01
 -2.1503259e-01
 -8.3404168e-02
 -8.7104177e-01
 -2.6393292e+00
  9.1216099e-01
  3.0798204e+00
 -1.4991610e+00
  3.2771056e+00
 -6.0645926e-01
 -3.0331600e-01
  3.8323441e-01
  3.3664145e-02
  1.0222682e-01
  2.0491862e-01
  3.0581042e-01
  9.6328840e-02
  6.5870401e-03
 -9.8988833e-03
  4.8146132e-02
  2.0222917e-01
 -6.3265242e-02
 -2.5652318e+00
  3.9577315e+00
  1.1759740e+00
 -3.9867117e+00
  1.2583332e-02
 -3.2620528e+00
 -2.5715110e+00
  2.7151775e-02
  1.4486880e+00
  8.9207381e-01
 -8.1042933e-01
  2.8309085e+00
  1.1136638e+00
  7.2341375e-02
 -9.6561390e-01
 -1.1469542e-01
  2.9384911e-02
 -1.7641607e-03
 -3.6326534e-01
 -2.9791036e-01
 -1.1862005e+00
  2.7479695e-03
 -3.4267042e-02
 -9.9580716e-03
 -5.2753333e-02
 -1.0040113e-01
 -5.1390652e-02
 -3.0169692e+00
 -5.1859486e-01
 -6.0238741e-02
  2.8329432e-01
 -5.1888216e-02
  2.8528416e-01
 -6.2605965e-01
  1.6650088e-02
 -5.0281055e-02
 -7.1822578e-01
 -1.7721686e-01
 -3.6831681e-02
  3.9643410e-01
 -3.6077404e-01
 -7.6482177e-02
 -9.4830728e-01
 -7.4380219e-02
 -7.5010586e-01
 -1.2492505e+00
 -5.9779726e-02
  7.4120201e-02
  2.4522278e+00
 -3.1587330e-01
  3.7145260e-01
  3.0436916e-02
  3.3995566e-01
  1.2704405e-01
 -4.1054916e-02
 -3.7821522e-01
 -4.5303442e-02
  4.9442795e-01
 -9.5093101e-01
  3.2612557e+00
 -1.0442486e+00
  2.4431662e-01
  1.1867601e-02
  2.2904314e-01
  2.5838664e+00
  2.1898575e+00
 -6.9504851e-01
 -1.8443316e+00
 -1.9047768e+00
 -9.4400114e-01
  5.7493478e-01
  6.4844477e-01
 -6.7661536e-01
 -7.2427976e-01
 -5.1033860e-01
  2.8533193e-01
 -2.8917065e-01
 -8.9264847e-02
  3.5277848e+00
  1.7439157e+00
  1.1800257e+00
 -6.3631904e-01
  7.5022596e-01
  5.2734029e-01
 -5.0096947e-01
  3.2686043e-01
  1.2669272e+00
  6.2129110e-02
  2.0026241e-01
  1.0192186e+00
 -2.2910662e-04
  2.2512364e-01
 -2.6812828e-01
 -1.6324353e-01
 -7.5373948e-02
 -9.0299524e-02
  2.0699435e-01
  2.2792880e-01
 -5.3872508e-01
  1.7169278e+00
  2.1107790e+00
  2.8407211e+00
 -4.6454102e-01
  2.9144961e-01
  6.6720491e-04
 -1.2064283e-01
 -3.1321570e-01
 -1.5991570e-01
 -6.5766948e-01
  3.0150962e-01
 -2.6704529e-01
  5.0361138e-02
  1.8179287e-01
  4.6076655e-02
 -8.4848665e-02
  5.5973113e-01
  2.9660264e-01
 -1.3851760e-01
 -2.1335371e-02
 -1.2602460e+00
  3.3352200e-02
 -3.9853834e-02
  1.5832724e-02
 -6.6322364e-02
 -2.3962379e-01
  1.4161035e-02
  6.9056693e-03
 -1.2297568e-01
  1.2130497e-01
  9.9104112e-01
 -3.6487140e-02
 -3.5130105e-03
  2.9919680e-02
 -8.3518222e-02
  7.8445241e-02
 -1.1198201e-02
 -1.1752231e-01
 -8.0520357e-04
  2.7230301e-01
 -1.1136576e-01
 -6.2040117e-02
 -7.6236054e-02
 -3.5502377e-01
 -9.1494918e-03
 -1.3284650e-01
  7.9164095e-02
 -5.1863626e-02
  1.7220119e-01
 -1.4924924e-01
  1.0038535e-01
 -1.2605879e-02
  1.2936902e-01
 -3.6934141e-02
  4.4872634e-02
  8.8651411e-02
 -3.1721935e-02
 -1.8210556e-01
 -5.4027084e-02
  1.3857479e-02
 -2.4134438e-02
 -3.8340729e-02
 -1.0068128e-02
 -2.1650560e-02
  1.7322229e-02
  1.5596855e-03
  5.8887759e-04
 -3.0487696e-02
 -4.1592017e-02
 -2.4561448e-01
 -7.4937634e-02
 -1.1370351e-01
  4.9975403e-03
 -7.0072055e-01
  3.5919636e-02
 -1.0695959e+00
  1.2554445e+00
 -3.0397711e-02
 -9.2703146e-01
 -1.7170242e+00
  1.0430419e-01
 -9.5222789e-01
 -1.5235021e+00
  4.6004680e-01
  1.5882608e+00
 -5.6052840e-01
 -1.7965126e+00
  1.4205620e+00
 -4.9730527e-01
  6.3354671e-01
 -3.6897308e-01
 -8.6208779e-01
 -1.1813699e-01
 -7.3975980e-02
  5.6990746e-02
  6.6383237e-01
  2.3689590e-01
  3.9362844e-02
 -7.1970654e-01
  9.9406868e-02
  1.1626989e-01
  3.3330965e-01
 -3.4452215e-01
 -4.0538736e-02
  1.8349060e+00
  3.3040524e-01
 -1.9294962e-01
 -9.9903023e-01
 -1.0854473e+00
 -2.6868254e-02
  3.0027366e-01
 -9.4584507e-01
  3.6819765e-01
 -2.0890865e-02
  9.6958154e-01
  1.3171480e+00
 -9.5339566e-02
 -2.8033054e-01
  3.4759289e-01
  2.7167061e-01
  6.1224347e-01
  1.3929352e-01
  3.3194935e-01
  1.6857934e-01
 -4.0942824e-01
 -7.2091436e-01
  3.1054340e-02
  2.0674179e-01
 -3.7987027e-01
  1.5946569e-02
 -1.2892429e-03
 -3.9758444e-01
  2.4428558e-02
  1.0140066e-01
 -1.1110178e-02
 -7.4617579e-03
 -8.4307427e-03
  7.9796715e-03
 -5.5568691e-02
  2.4398059e-01
 -5.1045816e-02
  2.4896154e-01
 -4.7537062e-02
  1.2246202e-02
 -1.1656296e-02
 -1.9215206e-02
  8.2585000e-02
 -2.0239996e-02
  7.8447066e-02
  2.2354896e-01
 -5.2286550e-02
  3.1683195e-02
 -1.1411182e-02
  1.1987791e-01
  3.8210373e-02
 -3.8376600e-02
 -5.7986733e-02
  7.8251493e-01
 -4.4297084e-02
  2.5722107e-02
  4.8922583e-02
 -6.1386283e-02
 -7.9568960e-02
  1.3890997e-01
 -8.2293414e-02
 -1.1068366e-01
  4.6841733e-02
 -7.8766614e-02
 -3.4272231e-02
 -4.8201187e-03
 -2.0012973e-02
 -8.5485131e-03
 -1.0010069e-01
 -2.5823649e-02
 -1.8866827e+00
  4.2997696e-02
  6.7731902e-02
 -3.5678232e-03
  3.9648086e-02
  1.0313301e-01
  9.7050950e-02
 -9.5967866e-02
  3.7612621e-02
  1.2589853e-01
 -1.1721507e-01
 -2.8694468e-03
 -1.3890969e-02
  1.2966193e-03
 -5.6446072e-02
 -2.8475143e-03
 -1.8555848e-01
 -5.6251202e-02
 -1.4099839e-02
 -4.5042600e-02
 -8.8579434e-01
 -1.8319715e+00
  3.1475043e-01
  2.1060683e-02
  9.1256939e-02
 -2.5625570e+00
  2.5484972e-02
 -1.1243940e-01
  8.3419293e-02
  3.8680021e-02
  7.5880187e-03
  6.1857417e-02
  1.9801955e-01
 -6.1373677e-02
  4.1167028e-02
 -8.3137758e-02
  2.8961722e-02
  1.3479227e-03
  5.1132407e-02
  7.6495059e-02
 -2.2062749e-01
  5.7540028e-03
  7.5836383e-02
  7.7532224e-02
 -1.3152163e-01
 -1.1760928e-01
 -6.1236531e-02
 -9.3435846e-02
  1.9638309e-02
  7.3901792e-03
 -2.2139113e-01
  7.7383798e-03
 -6.3928671e-02
 -3.0183628e-02
  7.6729812e-02
  5.9861500e-02
  1.2406585e-02
 -2.4676493e-01
  5.8059869e-03
 -7.0901632e-02
 -7.1848412e-03
  1.6568147e-01
 -1.2779665e-01
 -2.0781692e-02
  7.8082368e-02
  5.4730445e-02
 -6.6911355e-02
  9.1607377e-02
  4.2204808e-02
  3.9626735e-01
 -9.7476937e-02
 -4.2737506e-02
 -1.8219870e-02
  1.1693663e-01
  1.5812928e-02
  8.4937280e-01
  5.2738361e+00
 -2.7454817e+00
 -2.9557261e+00
 -2.4699316e+00
 -1.3048978e-01
 -9.9965912e-01
  1.6117810e-01
  3.1135769e+00
 -2.4546850e-01
 -4.2330065e-01
 -1.5127078e+00
  8.5439909e-01
 -7.3993832e-01
 -1.5249342e-01
 -8.2757585e-02
 -3.5344724e-02
 -1.0518112e-01
  2.2759943e+00
 -7.1578532e-01
  4.2483452e-01
  1.8051258e+00
 -3.5693482e-01
  3.5338420e-01
  1.8720949e+00
 -5.4897034e-01
  1.4314136e-01
  4.5952237e-01
 -1.2799799e+00
 -1.4580892e+00
 -5.2586544e-01
 -6.8461132e-01
 -4.1327611e-02
  9.5975751e-01
 -1.4478482e+00
  7.3927915e-01
  2.6254085e-01
 -1.8542233e+00
 -8.0641657e-01
  8.6232245e-01
 -1.2535194e-01
  1.8009845e-02
  3.7073663e-01
 -2.6402220e-01
  3.2983750e-01
 -3.5006890e-01
 -2.4028928e+00
  4.6003617e-02
  6.5784317e-01
  3.0947134e-01
 -1.3904278e-01
  9.3044437e-02
 -3.1626660e-02
  2.1764322e-03
 -2.0519152e-02
  7.2256681e-03
 -2.5653252e-01
  1.9665584e-01
 -8.9688605e-01
 -3.0407536e-01
 -1.3283621e+00
 -1.5733186e+00
  1.1360219e+00
 -1.2485260e+00
  4.4434590e+00
 -2.6810670e+00
  3.3171690e-01
  8.0483288e-02
 -3.7132511e-01
  2.8145328e+00
  1.2099670e-01
  8.4670967e-01
 -1.5939056e+00
  3.0509359e-01
  1.4115381e-01
  7.4651212e-02
  3.3080208e-01
  1.7082505e+00
 -5.3357717e-02
  8.8671394e-02
  1.6402243e+00
  6.0916658e-02
  1.0525267e+00
  5.0181681e-01
  3.4502149e-01
  1.0499222e-02
  9.9756390e-01
 -5.7867140e-01
 -7.2788298e-02
  1.6106400e-01
 -1.1474984e-01
  2.9704860e-01
  3.8022158e-01
 -1.2201644e-01
 -1.9346851e-01
  8.2017535e-01
  1.6516341e-02
  6.4765010e-03
  9.3016371e-02
 -7.0775294e-01
 -1.7540295e-01
  1.0536380e+00
  4.6150348e-01
 -6.8785393e-01
  5.7830685e-01
  1.7450239e-01
  1.2557319e+00
 -4.4759948e-02
 -4.5602608e-02
  1.5549877e-01
  1.1985542e+00
 -9.6437559e-02
  3.2745533e-02
  6.2833786e-02
  7.0720166e-02
  6.9612578e-02
  9.5720954e-02
  3.9015633e-01
 -5.4112382e+00
  1.0265501e+00
  3.2701526e-02
 -2.0204855e-02
 -1.7161599e+00
  9.1772534e-02
  4.2987373e-02
 -4.6589631e-03
  5.0810326e-02
 -8.7774001e-02
  4.5096824e-01
 -7.7463336e-02
 -2.3222494e+00
 -1.4339969e-02
  1.0545149e-01
 -6.8141162e-02
  1.1620999e-01
 -7.8685572e-03
 -6.6380352e-02
  2.9957911e-03
 -2.3070861e-02
  2.4783038e-01
  5.6169350e-02
  1.5373868e-02
  1.5359148e-02
  8.9163512e-02
  1.6167106e-01
 -2.4891140e-02
 -8.9041386e-03
  1.4849713e-01
 -2.6807246e-01
  3.1191304e-03
 -4.5254048e-02
  1.8879156e-01
  7.0946343e-02
  5.0303794e-02
 -1.3428763e-01
 -8.1287086e-02
 -1.1297012e-02
  1.3287279e-02
 -7.6846734e-02
  8.4367350e-02
 -3.8091529e-02
  2.9314321e-01
 -2.9174936e-01
  4.7556084e-02
 -9.8768428e-02
  6.6145107e-02
 -1.2113615e-01
 -1.7853478e-01
  9.6330583e-02
  1.2239951e-02
  5.2836075e+00
  1.7864544e-02
  2.7571904e-02
  3.6473784e+00
 -2.4658704e+00
  6.1214906e-01
  3.9025970e-02
 -2.1612711e+00
 -4.0237406e-01
 -9.0623713e-01
  3.3445399e+00
  1.0168005e+00
 -2.9359317e-01
  9.9308677e-02
  1.4902946e+00
 -1.9977063e+00
 -7.4112964e-01
 -1.1751363e+00
 -1.6017222e-01
 -6.6445029e-01
 -1.1617676e+00
  2.8507111e+00
  3.0321000e-02
  2.0877516e-01
 -1.1989629e-01
  2.0699298e-01
  9.6188277e-02
 -5.1271939e-01
  1.7690423e+00
 -1.7087824e+00
 -4.7950611e-02
  6.2513983e-01
 -2.5963375e-01
  1.2170655e-01
 -2.3714800e-01
 -2.2253284e+00
 -6.6354893e-02
  1.5028001e-01
 -5.1002819e-03
  2.3331146e-01
 -3.2158229e-01
 -7.9211332e-02
  2.3370546e-01
  6.8745300e-02
 -1.8302807e+00
 -2.8243864e-02
  1.8520239e-01
  8.7211460e-02
 -5.3007778e-04
  2.9534516e-01
 -2.9473385e-02
 -2.1892239e-01
  1.2037927e-02
  2.0262240e-01
 -1.8255037e-01
 -4.5352957e-01
 -1.0786442e-01
  8.6613148e-03
 -4.6329737e-02
 -1.7877135e-02
  1.8176053e-02
  1.0743083e-01
 -2.2263692e-01
 -1.3461828e+00
  3.5303144e+00
 -9.7423828e-01
 -3.6642081e-01
 -1.1886382e+00
  2.6273212e-01
  9.6694732e-01
 -7.9987633e-01
 -3.2457265e-03
 -1.7920967e+00
 -1.1517932e+00
 -8.4990412e-01
  2.8203005e-02
 -2.4229960e-01
  3.7774250e-02
  6.9161123e-03
 -9.5957047e-01
 -4.5515269e-02
  3.5954055e-01
 -3.7071589e-02
 -3.8336053e-01
  5.0824493e-01
  5.5265105e-01
  7.3759798e-03
  2.3756972e-01
  4.6240705e-01
  6.3667580e-02
  4.4966966e-01
 -9.6483827e-03
  3.8543835e-01
  3.4193540e-01
  2.2776912e-01
 -1.4606859e-01
  6.4240086e-01
  1.3742994e-01
 -4.3032187e-01
  4.2618118e-02
 -1.2559071e-02
  1.5936960e-01
 -8.7480164e-01
  6.6179708e-02
 -1.8448336e+00
 -1.2226444e-01
  1.3825914e-01
 -6.1470743e-02
 -3.7629130e-01
 -6.1430696e-02
 -1.9227247e-01
  6.5255404e-04
  1.8627340e-02
  5.6840181e-02
  2.6211772e-02
  1.1076115e-02
 -4.9522799e-02
  2.9634500e-03
  2.3903439e-02
 -4.1547962e-02
 -1.4942203e+00
 -2.4260585e+00
 -2.8894424e+00
 -3.3393157e+00
 -1.8715928e+00
  6.7512512e-01
 -8.9494997e-01
  4.7251198e-01
  1.1241564e+00
 -1.6219778e+00
  8.7352276e+00
 -9.5397389e-01
 -2.0048862e+00
  1.4980896e-01
 -1.5610839e-01
  1.4631358e-01
 -1.4077148e+00
  1.0341977e-01
  7.5098194e-02
  5.3361952e-01
 -1.4446355e-02
 -1.1915970e-02
 -1.2450865e-03
 -3.3250684e-01
 -1.5251325e-01
 -5.4026902e-01
 -4.3688318e-01
  1.4904495e-02
 -5.4231530e-01
 -1.7817112e+00
 -4.5174661e-01
  8.3576389e-02
 -6.8461078e-01
 -4.7152758e-01
 -4.0987946e-02
  9.0578371e-01
  2.3835624e-02
 -4.6035994e-02
 -3.4663507e-03
 -4.3820078e-03
 -1.7479220e-01
 -1.1518665e-01
  1.9862162e-01
  1.9629376e-02
  3.4107644e-02
  6.5613228e-01
  1.2149293e-01
  3.6220055e-02
 -3.8816880e-02
 -5.6117110e-02
  4.2798924e-01
 -7.0983030e-02
 -8.4505798e-03
  3.0791836e-03
 -9.2063829e-02
 -3.2204953e-01
  1.2764911e-01
  2.7776703e-01
  7.7392626e-01
  2.1986344e-01
  1.9514923e+00
 -1.6976096e-01
 -2.0741622e+00
  1.0097215e+00
  8.4833848e-01
  1.0695501e-01
  9.8335236e-01
 -1.2042607e+00
  7.9573649e-01
 -2.9645376e+00
  4.0319195e-01
 -3.5941640e-01
  7.5680099e-02
  1.4643610e-01
 -8.0480896e-02
 -6.8043351e-01
  1.5858406e-02
  3.4604883e+00
  3.1391334e-02
  1.2742642e+00
  2.8592148e-01
 -2.2872111e-01
 -5.0147456e-01
  1.4757723e+00
 -5.8096910e-01
 -9.5099732e-02
  3.1669483e+00
  2.5800727e-02
  7.9455003e-03
 -9.3086863e-01
  2.9387975e-02
  4.7454140e-01
  1.3134317e+00
 -5.7563296e-04
  4.5599809e-01
  3.9805412e-01
 -3.6649369e-02
 -6.4035678e-01
  4.0975520e-01
  2.0954335e-01
  5.6910521e-01
  8.5781312e-01
 -3.2589024e-01
  4.0725169e-01
  4.9822889e-02
  1.4747522e+00
 -4.9506316e-01
 -5.2253890e-01
 -1.1625583e-01
 -3.1999230e-02
  9.5753334e-02
  4.8471484e-02
 -3.8744211e-02
  8.1340653e-01
 -1.6849764e-02
 -6.9638163e-01
  1.2064781e-01
 -6.1148429e-01
 -1.0618822e-01
  1.1375219e+00
 -5.4905182e-01
  3.7935990e-01
  1.0975056e-01
  3.4877124e-01
  4.2413613e-01
  2.8629017e-03
 -1.7650896e-01
  4.0649137e-01
 -6.8302888e-01
  4.2268082e-02
 -1.0335126e-01
  3.8812704e-02
 -2.7014527e-01
  4.0528320e-02
 -1.1196673e-01
 -1.2336504e-02
 -1.4548762e-01
 -1.1177002e-02
  5.4504175e-02
 -1.4330059e-01
 -9.4777368e-02
  1.5630805e-01
 -4.8861329e-02
  7.9120018e-02
  2.4465732e-02
 -2.2814233e-02
  7.0432876e-03
  1.6123759e-02
 -6.7984396e-01
 -6.0304791e-02
  1.9536117e-01
  2.8071435e-02
 -2.4887522e-01
  1.9936381e-01
 -2.0464733e-02
 -1.1600085e-01
  4.8522048e-02
 -1.5196955e-01
  8.3186142e-02
  7.4150100e-02
  1.0389634e-01
 -3.4050584e-01
 -3.2299390e-01
 -2.1001680e-02
 -1.3061439e-01
  1.1664270e-01
  7.4079474e-03
 -4.6583112e-02
 -5.3154156e-02
  2.6672959e-02
  2.0781329e-02
  1.4661375e-01
 -9.6020758e-02
 -2.0737706e-01
 -6.5004188e-03
  6.4786357e-01
  3.1939188e-01
 -3.1435611e+00
 -5.9176099e-02
 -1.2907844e+00
  2.6580226e-01
 -9.9052310e-01
  3.6787598e+00
 -8.1550404e-02
  1.1807895e-01
 -7.7460133e-02
  7.2737229e-01
  9.4129518e-02
  7.4097514e-02
 -2.1835342e-01
  7.2158173e-02
 -9.9658914e-02
  4.1645490e-02
 -8.9810595e-02
 -4.2804509e-01
  1.5905210e-01
  2.1274848e-02
 -9.6189104e-02
 -2.5661148e-02
 -6.3452579e-02
  1.1631840e-01
  1.4100344e-02
 -1.4529290e-02
  4.1503642e-02
 -6.2190123e-02
 -2.7058668e-02
  7.7116229e-02
 -2.3618531e-01
 -2.2784986e-02
  9.0829045e-02
 -6.2399760e-02
 -1.6128510e-02
  1.3401771e-01
  7.4776255e-02
  1.2573238e-02
  1.5595139e-02
 -8.3781034e-02
 -2.1536069e-01
 -7.3959403e-02
  1.5126258e-01
 -2.2538032e-01
 -9.6410532e-03
 -2.6866862e-01
 -2.9420054e-02
 -1.2914740e-02
 -2.3136990e-01
 -6.5606385e-02
 -2.3673373e-01
  7.2615996e-02
  7.0056692e-02
  7.8446910e-02
  1.8123035e-01
  1.1300959e-01
 -2.7708443e-02
  5.8332566e-02
 -9.9125081e-01
 -1.7721151e-01
  2.7526587e-01
  1.2649663e-02
 -1.9644207e+00
 -8.2840115e-02
  8.3723500e-02
 -3.7305143e-02
 -1.2000910e-01
 -4.0225048e-02
  4.7914807e-02
  3.0606648e-02
  1.5562225e-02
  3.1788592e-04
 -4.1564628e-02
  5.4973684e-02
 -2.4046753e-02
 -1.3045497e-01
  9.1437094e-02
  3.5457682e-02
  5.6377571e-02
 -9.4188526e-02
 -3.4211207e-02
 -3.2274257e-02
 -2.2772858e-02
 -1.6242529e-01
  1.7066212e-01
 -4.3470185e-02
 -3.5161349e-01
 -2.6394639e-02
 -6.0027704e-02
  4.7449570e-02
  9.9046543e-02
 -1.4538629e-01
  6.5939806e-02
  1.0197402e-01
 -1.2684041e-01
 -1.1402632e-01
  1.3485536e-01
  7.1990076e-03
  5.1237252e-02
 -2.9664796e-02
 -7.5614698e-02
 -1.7837214e-03
  6.7040481e-02
  4.2700138e-02
 -3.7726019e-02
  1.1603703e-02
  1.3079552e-01
 -9.2604518e-02
 -2.8999511e-02
 -1.2416854e-02
 -4.1783173e-02
 -7.4719094e-02
 -4.9692191e-02
  1.8464214e-01
  2.5853338e+00
  2.8534633e-01
  5.0351243e-03
  6.3177067e-01
 -4.5092499e-01
 -2.2123005e-02
  3.4703672e-02
  1.1849947e-01
 -2.8378609e-01
  2.2388625e-01
 -2.3154746e-01
  1.6651042e-01
  3.7111532e-02
 -5.7983887e-01
 -1.0008734e-01
 -4.4173187e-01
 -8.1658885e-02
  3.0586025e-01
 -2.1885464e-02
 -5.6312668e-01
 -1.5626445e-01
  8.5207480e-01
  1.0493790e+00
  3.7526891e-02
  3.6930558e-04
  1.6807260e-01
 -7.0103087e-02
  3.0479131e-03
  2.4735154e-01
 -2.1578936e-02
  3.5983257e-02
 -5.4165381e-01
  1.3505186e-01
  1.9270175e-03
  8.8937208e-02
 -1.2091633e-02
 -5.9907269e-02
  2.7013373e-01
 -2.4953356e-02
 -7.1855523e-02
  1.6502644e-01
  7.6891020e-02
  5.2060354e-01
  1.0478486e-02
  8.8954940e-02
 -2.6911783e-01
 -2.2855397e-01
 -3.1771415e-01
 -1.4624858e+00
  4.0379904e-02
 -6.1312988e-02
 -3.7291747e-01
  1.3241385e-01
  1.0660265e-01
 -2.7860086e-02
  3.6764216e-02
  2.1174677e-02
  1.2689975e-01
 -4.3399417e-04
  9.5887266e-02
  1.6110569e+00
  1.3978340e-01
 -7.5554602e-02
  1.4309637e-02
 -5.4548979e-02
  3.0706922e-02
  8.4890433e-02
  3.7990008e-02
 -1.0862309e-01
 -1.5809445e-02
  5.0278360e-01
 -6.1324035e-04
 -1.8916495e-02
  6.6768952e-02
 -1.0780133e-01
 -8.2707584e-02
 -4.8273089e-03
 -5.1773019e-02
 -1.9495541e-02
  1.1719710e-02
  1.2892163e-02
  1.0342599e-02
  1.1563478e-02
 -3.5770464e-01
  4.8236010e-04
  3.0685481e-02
 -2.0674033e-02
 -2.4703245e-03
  2.5756280e-03
  1.4549247e-02
 -2.4486773e-02
  1.8934263e-01
  5.0046142e-02
 -2.0300496e+00
  6.0946010e-02
 -1.9600147e-02
  1.0050442e-02
  8.9208044e-02
  1.9076990e-02
 -7.9175815e-02
 -9.5932260e-03
  7.5381622e-03
 -4.6057310e-02
  1.1988237e-02
 -3.5772454e-02
 -6.6749223e-02
  3.6210906e-02
  2.0036345e-02
 -5.9795577e-02
  2.4570152e-02
 -1.4116655e-02
  5.3526857e-03
 -1.2710852e-02
 -9.2942808e-03
  3.4614585e-02
 -4.1475415e+00
  2.0224871e-02
 -6.3716415e-03
 -3.0362687e-01
 -4.9406070e-01
 -2.6205647e-01
 -1.0154688e+00
  4.7204196e-01
  3.7204173e-01
 -1.6014378e+00
 -1.4308578e-01
 -1.0363008e-01
  1.1163979e+00
  7.6055028e-03
 -6.1413860e-01
 -6.8569534e-02
 -8.2108200e-02
 -3.1830427e-01
  6.3437819e-01
  2.3001957e-01
 -3.3716720e-01
 -4.4780654e-01
 -1.0963603e+00
  1.0812347e+00
 -1.8019773e-01
 -6.0012820e-03
 -8.3293244e-02
 -1.8092255e-01
  3.5471939e-02
 -3.3029863e-01
  1.0101672e+00
 -5.8456463e-01
 -8.0539487e-02
 -8.4027106e-01
 -2.3273331e-01
 -1.3962506e+00
  8.4570783e-01
 -1.8687664e-01
 -1.4773512e-01
 -8.2870312e-02
  1.2177840e-02
 -7.9182930e-02
 -6.5115660e-01
 -8.8461518e-01
 -4.2880037e-01
 -2.2672758e-01
 -4.4350588e-01
  1.4077867e-03
  8.9826274e-01
 -1.0145792e-01
 -7.6371180e-03
  1.2865796e-02
  4.9913374e-01
  3.9365469e-03
 -3.2613907e-02
 -2.7653759e-02
  1.3638997e-01
  7.7899985e-02
  1.7495437e-01
  1.4390091e-02
  7.8428209e-02
 -2.1735439e+00
 -2.6038658e-02
  8.6676896e-02
 -1.0043903e-02
  4.8178539e-02
  2.4392068e-02
 -2.6502004e-02
 -3.2308012e-02
 -9.0499818e-02
 -1.3932006e-01
  9.0534382e-02
 -6.3495018e-02
  1.6360314e-01
 -2.2062925e-01
 -7.3955968e-02
  4.4041391e-02
  2.3880063e-02
 -9.4044954e-03
  2.6548335e-02
 -1.0661888e-01
 -3.2299146e-02
  4.3492321e-02
 -3.8367629e-02
 -2.3609204e-02
  2.9307220e-02
  1.3576385e-02
  3.3605758e-02
  5.3134873e-03
  7.4922845e-02
  7.1644112e-02
  6.5275215e-02
 -1.0270488e-02
  4.5430943e-02
  9.7618699e-02
  4.2094436e-02
 -1.5118515e-01
 -9.6835561e-02
 -3.5221674e-02
 -5.8158051e-02
  2.0229110e-01
  2.7243068e-02
  8.8081852e-02
 -6.4912409e-02
  1.1923223e-02
 -1.3583928e-01
 -3.4649231e-02
 -1.1080338e-01
  9.5591627e-02
 -7.9353966e-02
  1.9089278e-03
  2.0423643e-02
  3.3001661e-02
 -1.3786113e-02
 -2.4250451e-01
  1.9350608e-01
  1.4744717e+00
  1.7468418e+00
  1.2747767e+00
 -1.9181337e+00
  1.0276527e+00
 -4.1756339e-02
 -5.0588530e-01
 -1.1239237e+00
  1.0176996e+00
  5.3004390e-01
 -9.7291911e-01
 -2.7850249e+00
  2.3933940e-01
  7.1995507e-04
  3.8575422e-02
 -4.2977341e-02
  2.2175008e-01
  6.0619479e-01
 -6.9559455e-01
 -1.1091361e-01
  2.8558654e-01
  7.3076349e-01
  3.2820325e-02
  1.7929891e+00
  4.5200968e-03
  9.9746641e-03
  6.2892723e-01
  1.3694400e+00
  7.7862471e-01
 -1.8483298e-02
 -1.3521529e+00
  1.7427510e-01
 -8.8602012e-01
 -1.1171408e-02
  1.0510272e+00
 -1.5772337e-01
  4.1707686e-01
  6.3566196e-01
  6.8112367e-01
  1.6723617e+00
  1.8849952e+00
  1.8989265e+00
  1.1167368e-01
  1.6048526e+00
 -5.2080479e+00
 -4.8517209e-01
  1.8144484e+00
  1.3110293e-01
 -1.6516272e+00
 -2.5677937e-03
  1.1968687e-01
  3.1982487e-01
 -1.5535630e-01
 -2.6055944e-01
 -1.8021905e-01
 -1.6849453e-02
  5.4431558e-02
 -1.0946979e-01
 -1.2817346e+00
  3.4369820e-01
  3.8661158e-01
 -5.9721600e-02
 -1.2906492e-01
  1.8104915e-01
 -1.7837206e-01
  2.2816792e-02
 -8.5845873e-02
  3.6163476e-01
  5.2586868e-02
  1.8933595e+00
  3.9827859e-01
 -2.3393264e-01
 -7.1414411e-02
 -1.1165592e-02
 -5.7137888e-02
 -2.1254253e-01
  8.8711724e-02
  2.1105558e-02
 -8.0352584e-03
 -1.3629127e-01
  5.4587256e-02
  6.3414983e-02
  1.6108340e-01
  2.9983598e-01
  7.3893583e-01
 -5.3713858e-02
  5.5868912e-02
  1.2237361e-01
  1.7469708e-02
 -6.6013068e-01
 -1.1176416e-01
 -3.6089918e-01
 -1.0993579e-02
 -5.8478069e-01
 -4.1751006e-01
  1.4705017e-01
 -1.3248086e-02
  1.4468129e-01
 -5.7222968e-01
 -1.2500302e-01
 -3.7300727e-01
 -1.2343533e-01
 -2.1624142e-02
 -4.2092424e-02
  4.5817563e-01
 -1.6055887e+00
  8.5305411e-01
 -1.0830573e-01
 -5.1317532e-02
  2.8998345e-01
  6.5154061e-02
  6.7584597e-02
  6.8614319e-02
 -1.3015926e-01
  1.7137393e-02
  9.1406342e-04
  1.9541224e-02
  4.9245819e-01
 -2.6377629e-02
  3.3991987e-01
  1.4849655e-01
  3.7160891e-01
  1.3329172e-02
 -2.6332226e-02
  3.4768748e-01
  1.1506686e-01
 -7.4579738e-02
  1.2481588e-01
 -3.2136500e-02
  1.1561880e-01
  3.4256641e-02
  1.0271581e+00
  3.4524046e-03
  1.1004949e+00
  2.0137903e-01
 -2.1101460e-01
  2.5180429e-01
 -3.5772264e-02
  4.0258467e-01
  3.4813523e-02
  3.6759657e-01
 -3.5055873e-03
  5.2586190e-02
  1.8523339e-02
 -2.0005845e-01
  1.7908059e-01
  6.9428429e-02
  1.4821841e-01
  8.4499391e-03
 -8.5750148e-02
  1.2644017e-01
 -2.3933796e-02
  6.1558709e-02
 -2.0141955e-01
  5.0434332e-02
 -8.0131248e-02
  7.4998185e-02
 -5.3409908e-02
 -9.3244784e-02
  2.1921001e-01
 -3.2581559e-01
  2.0070559e-01
 -3.8701613e-02
  8.5653804e-02
 -4.9067408e-02
 -1.8113331e-01
  3.7552550e-02
  1.7588990e-02
  2.7050138e-02
 -1.0431246e-01
 -3.1766582e-03
  2.5488488e-02
  3.2113850e-02
  1.8910544e-01
 -1.2331796e+00
  1.7442408e+00
 -3.2522407e+00
 -7.5938737e-01
  4.4474858e-01
  3.1622281e+00
  4.6770474e-01
  1.2529391e+00
  1.0280041e+00
 -1.3298954e+00
 -1.4365206e+00
  6.1269903e-01
  4.1333735e-01
  6.3930351e-01
 -3.3639437e-01
  3.3380851e-04
  4.6589300e-02
  1.4904479e+00
 -1.3071536e-01
 -4.2984036e-01
 -1.8005776e+00
 -1.4096934e+00
 -5.4306958e-02
 -7.3321116e-01
 -1.9014044e-02
  9.7210670e-01
  3.8556758e-01
 -1.1903089e+00
  8.2275666e-02
  6.1488223e-01
 -1.5885958e-01
  1.8012132e-01
 -8.7116307e-01
  1.6684033e+00
 -1.0825237e-01
  9.8950756e-01
  5.3183281e-01
 -1.7541495e-01
 -7.3881561e-01
 -4.1603234e-01
  1.3574734e-01
 -1.0005961e-01
  3.1370227e+00
  1.8221834e+00
  1.1099154e+00
 -1.2132311e+00
 -1.4556971e-01
  5.0809878e-01
 -1.0576046e-01
  3.8310015e-01
 -2.2172907e-01
 -6.6870701e-01
 -7.4189971e-03
  2.4020819e-02
 -3.8566530e-02
  1.8209650e-01
  1.8223135e-02
  5.2716598e-02
 -8.6279666e-01
  4.4997973e+00
  6.7162185e+00
 -2.5870361e+00
  1.9595464e+00
  2.3673155e+00
 -1.5618740e+00
 -1.0270550e+00
 -3.4088092e+00
 -8.4911239e-01
 -2.5499815e-01
 -5.4595196e-01
  3.6809616e+00
 -2.3104058e-01
  2.0596668e-02
  3.6211625e-01
 -1.2123162e-01
  1.1886537e+00
  2.0988243e+00
  1.4944074e-02
 -3.6287558e-01
  7.2658223e-01
  2.1085415e-02
  8.5043305e-01
 -1.0474779e-02
  8.6230868e-03
 -6.4059711e-01
  2.4722795e+00
  7.3549546e-02
  2.3624258e-01
  2.3846158e-01
  2.5538735e+00
  8.9228171e-01
  9.9312663e-01
 -2.2782847e-02
  9.6310472e-01
 -2.4464290e+00
  1.2045600e-02
  2.4943531e-02
 -8.8108236e-01
  1.8860181e-01
  5.6578320e-01
 -1.4386280e+00
  2.0918918e+00
 -2.0296317e-01
  2.7870890e-01
  2.0674166e-01
 -1.9248901e-02
 -7.5065440e-01
 -5.8595929e-02
 -7.9787880e-02
 -3.6880234e-01
  1.0090935e-02
 -2.3704432e-02
 -1.0582517e+00
 -5.3342843e-01
 -4.8678767e-02
 -3.9565408e-01
 -1.0724566e+00
  3.7090726e-02
 -6.5876395e-01
 -1.0154853e+00
 -7.7506512e-02
 -1.9333285e-01
  2.3076993e-01
  1.7303845e-02
 -4.5790619e-01
 -7.0539452e-02
 -2.3992366e-01
  3.7536871e-02
 -2.7336617e+00
  4.1813679e-02
  4.5289737e-01
 -1.8095671e-01
 -2.3453228e-02
 -5.1443785e-01
  5.3841799e-02
  4.7208372e-01
 -1.5988517e-01
 -5.6461018e-01
  1.4719346e-01
  6.1031359e-01
 -3.1989180e-02
  1.9570315e-01
  1.0222618e-01
 -1.0028995e+00
  2.1471670e+00
  8.6186145e-04
  6.0843265e-01
  7.2759092e-01
 -1.5098272e-01
  8.2344663e-01
 -3.9200451e-02
 -2.9314265e-01
 -7.5961009e-02
  2.0186026e+00
 -6.5853375e-01
  1.1791095e-02
 -2.0060772e-02
  3.7131697e-02
 -4.3648803e-01
 -3.0907452e-01
  8.2208492e-02
 -9.4695127e-01
  1.1643304e+00
 -1.1741557e-02
 -4.9114749e-02
 -8.5245669e-02
  1.6595533e-02
 -1.9042207e-02
  8.9938708e-02
 -1.1783256e-02
 -2.6610922e-02
  1.8114686e-01
 -9.6839994e-02
 -3.0669281e-01
 -1.0644411e+00
  1.6276669e-02
  2.5757033e-02
 -1.1392015e+00
  1.5074053e-02
 -3.9108258e-01
 -7.5836509e-01
  1.4387695e-01
 -8.5269684e-01
  1.4105819e+00
  2.7139106e-01
  4.2057022e-01
 -6.1861500e-03
  1.0924349e+00
 -1.6572858e-01
  2.0207769e-01
  5.6571978e-01
  5.7849383e-01
  3.9744592e-01
  3.1089580e-01
 -1.0039406e+00
  5.9676528e-02
 -7.4228545e-04
  1.8953940e-02
  9.8438039e-02
 -3.6135471e-01
  1.7790883e+00
  3.9603829e-01
  1.2829520e-01
  3.0717382e-01
  1.0543327e+00
  5.5054337e-02
  4.7619444e-01
  1.0558523e-02
  1.1861308e-02
