nep4 2 Si Ti 
cutoff 8 4 161 24
n_max 6 6
basis_size 6 6
l_max 4 2 0 
ANN 30 0
 -9.3260151e-01
  3.3381841e-01
 -1.1671081e+00
 -1.1578660e+00
  3.4666124e-01
  1.7691876e-01
  4.2028457e-01
  4.8394850e-01
  5.0841238e-02
  1.1332425e+00
  6.1216271e-01
 -1.4850076e-01
  6.9320254e-02
  2.1327693e-02
 -7.1841285e-02
 -9.2445098e-02
  1.1126932e+00
  1.7762494e+00
  1.5239964e-02
  7.2469980e-01
  3.1285369e-01
  3.2346037e-01
 -6.1644826e-02
 -1.7035234e-01
  1.7418897e+00
 -2.9158583e+00
  1.2224806e-01
 -1.9963288e-01
 -8.5090697e-01
  5.2397609e-02
  1.2541560e+00
  1.7009720e+00
 -1.2427299e+00
 -1.8602356e-01
 -3.6911350e-02
  2.4844438e-02
  2.3843291e-01
  1.1178550e-02
 -2.8158255e-02
  3.7397856e-01
 -1.6433747e-01
 -1.1243890e-01
  3.0680194e-01
 -8.6796127e-02
 -1.9059401e+00
 -4.2825895e-03
  2.6182306e-01
  1.1217992e+00
  4.8059497e-02
 -1.1704335e-02
 -3.9953399e-02
  8.9895177e-01
  2.8901007e+00
  5.5435741e-01
 -1.6486195e-01
 -3.0346066e-01
 -3.2342959e-02
  6.2615648e-02
  9.8420256e-01
  2.0411282e+00
  6.0598064e-02
  1.3207210e-02
  6.3085998e-03
 -7.4939564e-02
 -8.1222939e-01
 -1.5233658e-01
 -8.1078470e-02
 -3.7822330e-01
 -1.4317204e-01
  2.6145691e-01
  1.0097221e-02
 -3.5058916e-02
  1.2014136e-01
 -1.2494084e+00
  1.2777078e+00
 -2.1284338e-02
  4.7377935e-01
  1.4342691e-02
 -3.3533096e-02
 -1.0816515e-01
  1.3473867e+00
 -1.8110201e-01
  2.3514695e-02
 -3.9008774e-02
 -9.9069428e-01
  2.4704039e-01
 -5.6909996e-01
  1.1765260e+00
 -1.8909173e+00
 -5.2633393e-01
  7.3414385e-01
 -1.1772463e-01
  2.0350829e-02
 -5.1809418e-01
  7.2397977e-01
  1.7260078e+00
 -1.5223611e-03
  2.2954981e+00
 -4.6893579e-01
 -9.3473744e-01
 -8.7832832e-01
 -2.0964410e+00
  5.9782493e-01
  1.8485015e-02
  8.9392856e-02
 -3.6742550e-01
  2.7026778e-02
 -2.4359353e+00
 -9.6840793e-01
  8.0168154e-03
 -1.5830916e+00
  2.1896360e-02
 -3.0426607e-02
  1.6789882e+00
 -7.3353827e-02
 -9.9519235e-01
 -1.0289552e-01
  5.4095781e-01
 -1.9383436e-02
  7.8159899e-02
 -1.2059598e-01
 -7.0979968e-02
 -3.9837104e-01
 -8.9250463e-01
 -4.3187134e-02
  5.9299693e-02
 -1.3250703e+00
 -9.0939635e-01
  1.4982663e+00
  1.9370925e-01
 -8.0045319e-01
 -1.7357396e+00
 -2.1810439e+00
  5.0726593e-02
 -3.3052783e-02
  1.2917138e-03
  4.5188177e-01
  2.1731205e+00
  2.4581490e-01
  4.1939477e-03
  4.2176291e-01
 -5.4989201e-01
 -2.5243118e-01
 -5.1337905e-02
 -6.5589219e-01
 -3.0145006e-02
  1.2993325e+00
  4.8964065e-01
 -2.4019204e-01
  1.9822839e-01
  1.7734662e+00
 -8.0726248e-01
 -1.1127107e+00
 -2.5415645e+00
 -1.1488334e+00
  1.7258719e-02
  4.0941421e-02
  1.1813173e+00
  6.6336298e-01
 -8.7169641e-01
 -1.5486548e+00
 -6.2914021e-02
  2.9379267e-01
  7.9471037e-02
  1.9373365e-02
  1.1993400e-03
  4.2338902e-01
 -1.2862922e-01
 -9.3150532e-01
 -2.4790254e+00
  2.9367459e-01
 -2.4648894e-02
  4.7486237e-01
 -1.3993607e+00
 -7.5402921e-01
 -3.3491245e-01
 -2.1161577e-01
 -9.9834907e-01
  1.7191532e+00
  1.0793561e+00
 -1.0616715e+00
 -9.7472988e-02
  8.4686212e-02
 -1.2542830e-01
 -2.3812024e-01
  8.8717508e-01
 -7.1799332e-01
 -7.8188956e-02
 -1.4359990e-01
  8.9718056e-01
  6.4693099e-01
  6.9886595e-01
  1.1357055e+00
  3.9154489e+00
  6.5960026e-01
  4.0229458e-02
  6.8036056e-01
 -5.4185802e-01
  1.0130110e+00
  2.1155235e-01
  1.3461212e+00
 -9.5204994e-02
  3.3945799e-01
  1.8653604e-01
  6.0109884e-02
 -1.0192226e-01
  7.1394993e-03
  1.1204658e-02
  1.8557496e-01
 -2.2140415e-02
 -2.7248090e-02
 -6.9129467e-01
 -6.4104092e-03
  3.3018672e-01
 -7.2310257e-01
 -7.1571565e-01
  3.0700126e-01
 -2.8229142e-02
 -3.2728449e-02
  7.9461686e-02
 -4.3099406e-01
 -2.8199837e-02
 -1.4864585e-01
  6.5184690e-02
 -1.0726962e-01
  4.8711605e-02
 -5.5308819e-02
 -8.7563908e-01
  7.6593615e-02
  8.7417014e-02
 -6.6872753e-02
 -2.7842166e-02
  2.5993171e-03
 -8.4889736e-03
 -8.5533416e-01
 -6.5045458e-01
 -1.1998376e-01
 -6.6473251e-03
 -1.4152017e-02
 -6.8545115e-01
 -1.7816633e-02
  2.7721150e-02
 -2.4862920e-03
 -8.1558801e-02
 -1.7389156e-02
 -4.4985980e-02
  4.3364331e-02
 -1.6829531e-03
  3.1354316e-03
  1.3787067e-01
 -1.6455133e-02
  6.4855613e-02
 -1.6500523e+00
 -3.8767478e-01
  1.2320814e+00
  2.5948968e+00
 -1.9106641e+00
  5.5842876e-01
 -1.3203427e-01
  1.9198321e-02
 -3.1368148e-01
  9.9870807e-01
 -1.8264843e+00
 -1.8956544e+00
  1.4120872e-01
  9.0009713e-01
 -8.3401643e-02
  2.2900756e-02
 -3.3788875e-01
 -1.0312743e+00
  1.9898430e-01
  8.3750296e-01
 -2.5535459e-02
  7.0721075e-02
  4.3105040e-02
  6.3636458e-01
 -1.7351359e+00
 -1.1082416e+00
 -3.5281050e-01
  1.2363384e+00
 -8.8673574e-01
 -1.5033587e+00
  1.7691405e+00
 -1.2246608e-01
 -1.7388722e+00
  3.6337275e-02
 -3.2141429e-01
 -1.0612074e-02
 -7.1620710e-02
  5.8658745e-02
 -1.5280426e-01
 -2.5385094e-01
 -5.9937075e-02
  6.1250871e-01
  5.0552160e-01
 -1.6271565e+00
 -2.0727906e-02
  1.3260670e-01
 -1.8865986e+00
  1.0724267e+00
  1.9485126e+00
  8.8303244e-01
 -2.9267281e-01
  1.2055033e+00
  1.1779548e-02
 -3.6796722e-01
 -1.7962126e-01
 -2.9708898e-01
  7.0482743e-01
 -5.5057955e-01
  2.1425211e+00
 -6.3346714e-01
  3.4392527e-01
  1.9523439e-01
 -6.3456759e-02
 -9.8786938e-01
  1.9634867e-03
  1.1307099e+00
  6.5610418e-03
 -1.8028980e-01
 -1.0286009e-01
 -1.4349063e-01
  8.5195251e-02
  6.9476622e-03
 -2.1161349e+00
 -2.4309590e-02
 -8.6848539e-01
  1.7997210e-01
  8.3852166e-01
 -6.2346265e-02
 -3.3339167e-01
  4.7382793e-01
  9.7905493e-01
  4.9455106e-01
  3.4716517e-02
 -2.0318178e-02
 -1.6938999e+00
  1.4755851e+00
  3.3283281e-01
  4.5113951e-01
  9.1411448e-01
 -9.7723150e-01
  1.7086174e+00
 -4.2437166e-02
 -6.7232805e-01
  1.1958617e-01
 -6.0298747e-01
 -1.7690053e+00
  2.6593688e-01
  5.4259831e-01
 -5.2099186e-01
 -1.3624029e+00
  9.1741163e-01
 -1.6716918e-01
 -9.3608433e-01
 -1.6866127e-01
 -1.0647414e-01
 -2.0999739e-01
  1.0320423e+00
 -8.4323609e-01
 -8.7345409e-01
  1.1853833e+00
  7.4383622e-01
 -1.3829647e+00
  2.6222607e-01
 -4.4260446e-02
 -1.5031286e+00
 -1.0233274e-01
  1.7887037e+00
  6.4935511e-01
  4.4583678e-01
 -2.9258645e-01
 -9.1539487e-02
  4.7828957e-01
  4.6182204e-02
  7.7341849e-01
 -1.2928717e-02
  2.9606173e-02
  2.4859709e-01
 -9.2381251e-01
 -9.6677929e-01
  6.2500343e-02
  4.3014684e-01
  8.3147690e-02
 -2.9655304e+00
  1.1915572e-01
  7.5066812e-02
 -1.9877393e+00
 -8.2421236e-02
 -9.0071559e-01
 -1.6320810e-01
 -3.3376136e-01
 -5.1521796e-01
 -4.9256814e-01
  3.1871509e-02
  9.5262879e-01
  1.2036281e+00
 -1.5677768e+00
 -8.4872358e-02
  5.2791613e-01
  3.0203158e-01
  1.1629084e+00
  3.2748586e-01
  4.9488118e-01
  4.6348192e-02
  1.2059338e-02
  1.8567626e-01
  1.5570243e-02
  1.8552378e-01
  5.4293513e-02
 -5.7900459e-01
 -4.2476454e-01
  3.0291375e-02
 -1.2730078e-01
  6.6906773e-02
  1.3402772e-01
 -8.1639820e-01
  1.7144807e-01
 -9.5034525e-04
 -1.6752444e-03
  3.7322029e-01
 -2.1015909e-01
  1.2562827e+00
  2.9392183e+00
 -3.1113023e-02
 -2.3249210e-01
 -6.8852723e-02
 -5.1000804e-01
 -2.9838340e-02
 -3.6856407e-01
 -2.1780284e-02
  2.0331638e-01
 -5.3898007e-01
  1.6266476e-02
  7.9144768e-02
  4.5505233e-02
 -1.2652099e+00
 -1.2507839e+00
  1.3485476e+00
 -2.6679632e-01
 -2.5656943e+00
 -1.1302675e+00
  4.2421338e-01
  2.2025170e+00
 -3.5685799e-01
  2.0730422e-01
  4.9344641e-01
  1.3153363e+00
 -2.5617486e-01
 -1.9244941e-02
  5.0539929e-01
 -3.9056227e-01
  2.3923202e+00
 -1.3280850e-02
  1.5008724e+00
 -6.5815233e-02
 -2.0966817e-01
 -1.8928738e-03
  9.0087302e-02
 -4.3300512e-01
  3.2935552e-02
  3.8655755e-01
 -1.5010378e-01
  3.4292743e-02
  1.9986548e-02
 -7.3810533e-02
  3.9371073e-01
 -1.5237939e-01
 -3.3952805e-01
 -4.6703227e-02
 -4.7508129e-01
  1.4505665e-01
  5.6045800e-01
 -1.4764193e-01
 -1.8076546e-02
 -6.3707903e-02
 -1.3832090e-02
 -3.5039589e-02
  3.8757522e-02
  2.4380478e-01
 -1.6784638e-02
 -1.6145553e-02
 -1.9356268e-02
  1.6975980e-01
 -1.1784294e-01
  3.1508375e-02
  3.3236612e-02
  1.3878118e-03
 -1.3125747e-02
  1.6940530e-02
 -6.4779394e-03
 -1.8742243e-02
  1.4736581e-03
  5.8490023e-02
  1.7797517e-02
  7.3382802e-02
 -4.7538388e-03
  2.5111418e-02
 -5.8050513e-02
  1.7297825e-02
 -9.8873889e-03
  3.8546849e-02
 -6.6771396e-02
 -2.9738557e-02
  4.4318484e-03
  9.6731758e-01
  1.8646705e+00
 -1.3477541e+00
 -2.3420958e-02
  3.5881343e+00
 -1.3022856e+00
  1.0877386e-01
  1.9650342e-02
 -9.2058526e-03
  4.7235018e-01
 -1.1815939e-03
  2.6143629e-02
  8.8577785e-02
  3.3266280e-02
 -4.7049868e-01
  5.3776968e-02
  1.2259776e-01
 -3.5120392e+00
  1.5493317e-01
 -1.9595139e-02
 -1.3892339e-04
 -3.9545366e-01
  1.0204756e-01
  8.9772540e-01
  5.4784292e-01
 -6.1608016e-01
  1.4614804e-01
  1.5898412e-02
  1.2102310e-01
 -3.5181814e-01
 -4.1120827e-02
  3.0919707e+00
  1.5666739e+00
  9.8446351e-01
  2.2940643e-01
 -1.7880058e-01
  3.3481643e-02
 -6.4750719e-01
  5.3024596e-01
  2.0582937e-01
 -3.9852196e-01
  7.2688416e-02
  2.4746377e-02
 -5.6964658e-02
  3.0365264e-01
  4.1737892e-03
 -1.2014568e+00
 -8.2128569e-02
 -6.8749217e-03
  5.4183356e-02
 -6.9264725e-02
  1.5886710e-03
 -2.3068625e-02
 -3.2999523e-02
 -5.0769053e-02
 -5.9595715e-02
  1.9974956e-02
  1.1435549e-01
 -1.0828002e-02
 -6.6124931e-02
 -1.5197300e-03
 -1.3535747e-02
  4.7168773e-04
  3.0446645e-02
 -1.5316689e-02
 -1.9686759e-02
  5.7945069e-02
  9.1086127e-02
 -6.4078555e-02
 -3.8918760e-02
 -2.4489924e-02
  1.9292244e-01
  4.6496741e-02
 -5.1706906e-02
 -1.4833222e-02
 -2.4715010e-02
  4.1418631e-02
 -3.3973515e-02
  1.7612064e-03
  3.6072344e-02
  3.8016632e-02
 -1.8773921e-02
 -1.4915384e-02
  1.9142242e-02
 -2.5679153e-01
 -5.4739851e-01
 -2.2789722e-02
 -1.3768251e-01
 -1.7464275e-02
 -3.3573669e-03
 -7.1194530e-02
 -5.6499794e-02
  3.2016139e-03
 -2.0943254e-01
  1.6016763e-04
 -3.5041165e-02
  1.4989355e-01
 -1.1225645e-01
  2.3100305e-02
 -1.0805502e-01
 -7.2897612e-03
  2.2537079e-02
 -9.9273920e-02
 -6.6760532e-03
 -8.2353741e-02
 -2.1336125e-03
 -2.6034578e-03
  1.3127879e-02
 -1.9872747e-03
 -4.0946370e-03
  6.6784263e-02
  3.8588092e-02
  1.3042133e-01
  3.4244910e-02
  2.8914656e-02
  1.6889682e-02
 -5.2281946e-02
  9.3528879e-01
  2.8654711e-02
  4.6043277e-02
 -1.9378014e-02
  5.7789933e-02
  1.0697500e-02
  1.5103406e-01
 -1.3114913e-01
  9.8152608e-01
 -7.8149714e-02
  7.0784348e-01
  7.0117348e-01
  1.0682431e+00
  2.4826612e+00
  2.6384645e+00
 -2.8023034e-01
  9.7558039e-01
  9.0947759e-01
 -4.5066443e-01
 -1.5605769e-01
  3.7406978e-01
  1.4012924e-01
  1.3021333e+00
  3.6410025e-01
  9.0122408e-01
  4.1151577e-01
  2.2189021e-01
 -1.7484788e+00
  9.7295582e-01
  1.8634794e+00
 -1.3195649e+00
  1.3655180e-01
  1.0939232e+00
  2.4242346e+00
  3.7276514e+00
  7.1128672e-01
 -1.6525979e-01
  1.2623764e+00
 -7.2989428e-01
  1.0337511e+00
  2.5092416e+00
  1.0402526e+00
 -2.4986675e+00
  8.2391012e-01
  4.3261665e-01
 -2.2410735e-01
 -4.5891419e-02
  2.6268339e-01
 -8.4821457e-01
 -2.0845666e+00
  2.1617240e-01
 -1.0373112e-01
  4.3703482e-01
  7.9992354e-02
 -1.8464502e-02
  3.0329911e-02
  1.8169083e-02
  1.8075320e-01
  2.9017819e-02
 -1.5985839e-01
  5.7007591e-03
  8.6686656e-02
  5.5991102e-02
 -8.7595969e-02
  2.3934366e-02
  7.8190573e-02
  5.2044019e-02
  3.2831449e-02
 -3.5719238e-02
 -1.7152369e-01
  1.1637463e-01
  6.0416397e-02
 -2.5448853e-02
 -2.1353323e-02
 -2.4154699e-01
 -1.9494073e-03
 -4.1714203e-02
 -7.1219005e-02
  4.4730809e-02
  1.4902662e-03
  4.3393072e-02
 -4.3413252e-02
  6.6016547e-02
  3.5898943e-02
  1.3347534e-03
  2.1093670e-02
 -4.0389009e-02
  5.0801724e-02
 -1.1664284e-01
  3.6846053e-02
  2.3648640e-02
 -6.7466207e-02
  2.3221185e-02
 -2.1017373e-02
 -1.7007295e-03
 -2.4441952e-01
 -2.4898030e-02
 -5.6642588e-02
 -1.2028121e-01
 -3.2507677e-03
 -9.8440554e-03
  9.9682078e-02
  1.3632698e-02
 -1.2987606e-03
  3.4779057e-02
  1.1941792e-02
  7.6424122e-02
  7.0545316e-02
 -4.0079867e-03
  7.3867470e-01
 -1.4068750e-01
  4.6969064e-02
 -1.0115405e-01
  2.0127075e-02
  3.2587390e-02
 -6.3254528e-02
  1.6779959e-01
  4.8208993e-02
 -1.2376459e-02
  6.3776478e-02
  1.0468152e-02
  8.4920026e-02
 -9.3503468e-02
  4.0455338e-02
 -3.4036756e-02
  7.2261944e-02
 -6.4193611e-03
 -7.3908985e-02
  1.5190556e-02
 -2.9885406e-02
 -3.1497505e-01
  6.3842186e-03
  1.5876453e-02
  1.4127465e-01
 -1.4989020e+00
  9.4104171e-01
  2.0693207e+00
  1.3599579e-01
 -3.7741214e-01
  1.2213593e+00
 -6.4843392e-01
  2.5123540e-02
  4.7016027e-03
 -2.2582169e+00
  4.0277932e-02
  2.4921654e-02
 -1.7075940e+00
  6.7773670e-02
 -4.5837434e-03
  1.3371782e-01
 -1.8622664e+00
  2.6605639e-01
  1.0469704e+00
 -9.0811394e-02
  2.2458474e-01
  1.6559468e-01
 -4.0033990e-01
  8.8228357e-01
 -5.7741672e-01
  3.1297848e+00
  1.2875866e+00
  5.0815048e+00
 -3.9919922e-01
  6.4445180e-01
 -3.3832030e+00
 -5.0203640e-02
  6.5100986e-01
  1.4268097e+00
  1.9528490e+00
 -1.2907523e-01
 -9.5887616e-02
 -3.0908653e-01
 -5.0419950e-01
  9.3042523e-01
 -1.2063005e-01
  1.4333525e-01
 -8.9217998e-02
  5.6932207e-02
  1.7430539e-01
  1.9646849e-02
  1.2624228e-02
 -3.4923345e-01
 -5.3755507e-02
 -9.4646871e-02
 -1.3825284e-01
  3.2195437e-01
 -1.0351765e+00
  2.7064620e-02
  2.0297469e-01
  5.6821734e-02
 -8.5155249e-02
 -8.8439789e-03
 -8.2090676e-02
 -9.3248814e-01
  1.4191081e-02
 -2.1848956e-02
 -6.6842651e-03
 -2.5482014e-02
  8.6601079e-02
 -3.3822045e-02
 -3.9067358e-01
 -7.1896151e-02
  3.4719538e-02
 -4.3298941e-02
 -3.5107214e-02
  1.0382744e-02
 -1.7859448e-03
 -1.6684850e-01
 -3.5919710e-03
 -1.9537024e-02
 -3.2028461e-01
 -4.0844586e-02
  7.8433909e-02
  4.2928755e-02
  6.2491864e-01
 -1.0474596e-01
  5.3427577e-02
  8.0829887e-03
 -4.0338770e-02
 -5.4813232e-02
 -2.2458579e-01
  1.3731660e-01
  1.4493721e-02
  2.4241528e-01
  8.7479204e-01
 -2.4997279e-01
  4.6753469e-01
 -5.8365726e-01
 -6.4098102e-01
 -2.9615320e-03
  2.2807112e-01
  9.4062574e-02
  2.3024578e-02
  3.7834805e-01
  4.5351786e-04
 -1.5371921e+00
 -3.6803287e-02
  6.1299264e-02
  3.4297898e-01
 -6.4038455e-01
  4.8946582e-02
  6.4288813e-01
 -4.0980678e-02
  6.5011755e-02
  1.3169664e-01
  5.6408965e-03
 -7.2492091e-03
  1.5986906e-02
  1.4294696e-01
 -3.5507765e-01
 -3.7763335e-02
  4.2230538e-01
 -9.0179175e-02
  3.9497118e-02
 -7.5953402e-02
  1.8913904e-01
  1.3092360e-01
 -3.6658887e-02
  1.2996118e-01
  2.7593343e-02
 -8.9313370e-01
  1.1541303e+00
 -9.4881660e-01
 -1.5509053e+00
 -2.4247840e-01
 -4.8369229e-02
  2.8722960e-01
  8.5286957e-01
  7.5567380e-02
 -1.0846504e+00
  7.9409409e-01
 -2.3649322e-02
 -1.1004591e-01
 -1.3327564e-01
  3.7454253e-01
  1.9951165e-02
 -2.2892469e-01
  1.0692981e+00
 -1.1762787e-01
 -3.8860675e-02
  4.1412689e-02
  6.5175390e-01
  2.5173912e-02
 -1.0924167e-01
  4.4172770e-01
 -1.9466735e-02
 -9.8879421e-01
 -8.0856591e-01
  7.6396060e-01
  2.8379370e-02
  1.6962701e+00
  7.9195100e-01
 -1.4385960e+00
 -1.9467352e-01
  3.1955435e+00
  2.6984859e-01
 -1.5118173e-01
 -1.6994774e-02
  3.9352543e+00
  7.1624398e-02
  8.8647837e-03
 -5.0245561e-02
  5.3273016e-03
  9.1337806e-01
  5.6597222e-02
 -1.6304587e-01
  2.2550695e-01
  3.8085528e-02
 -3.8456190e-01
  1.9655952e-01
  1.2286393e-02
 -1.2827416e-02
  3.9228457e-01
 -4.3583680e-02
 -5.7992153e-02
 -6.9402013e-05
  2.3364455e-01
  7.3750369e-02
  1.3228966e-01
  1.8974619e-01
 -1.2507567e-01
  4.2393554e-02
 -1.5760733e-02
 -8.6350098e-02
 -4.4264961e-02
  4.8662864e-02
  1.5480812e-01
 -2.3351185e-02
 -1.1349902e-02
  3.0393122e-02
 -1.8876642e-03
  5.0443709e-02
  1.3304269e-01
  1.1523846e+00
  1.0407922e-01
 -2.2769216e-02
 -4.8809893e-02
  3.2302257e-02
 -1.3789405e-02
 -6.1552204e-02
 -2.5781354e-02
  6.3637369e-03
  4.4810034e-02
 -5.5091284e-02
 -9.1974497e-01
 -2.6059890e-01
  6.4571190e-01
  2.3454636e-02
 -2.7903935e-01
  1.9381128e-02
  8.9591533e-01
 -2.7117617e-03
  1.4739628e+00
 -2.8438969e-02
 -9.4041193e-01
  2.3868082e+00
  5.0080723e-01
  9.4969273e-01
 -1.0443076e-02
  3.3561021e-01
  1.0550861e+00
 -1.3516134e-01
  1.2667860e+00
  5.8643681e-01
  2.4334602e-02
 -2.7047428e-01
 -1.6493338e-01
  8.6837137e-01
 -7.4225891e-01
 -6.3148141e-01
  1.9434085e+00
  2.1963708e+00
 -7.6771870e-02
  4.9863186e-02
  7.3908001e-02
 -2.2284605e-02
  8.9766091e-01
 -5.3439625e-02
  8.0028898e-01
 -3.0371752e-01
 -7.9502016e-03
 -2.9631391e-02
  6.3655429e-02
 -5.5296030e-03
  2.3802193e-01
  6.5226299e-01
  4.3180985e+00
  3.7687522e-01
  7.4194588e-02
 -8.5723543e-01
  1.3508805e+00
  2.5893667e+00
 -1.1704912e+00
  4.1307652e-01
  3.2035327e-01
  2.0585990e-01
 -6.7833334e-02
 -5.0309962e-01
 -6.5463275e-02
  7.4180716e-01
  1.4696673e-01
 -4.1705448e-02
  1.4031981e+00
 -7.1694231e-01
 -1.4697695e+00
  1.1052906e-02
 -2.5324912e+00
 -7.7517450e-02
 -6.1830413e-01
 -1.7784584e-01
 -1.3386217e+00
  1.3470507e-01
 -7.1542484e-01
  1.4314234e+00
  5.4770958e-01
  8.0854970e-01
  3.2925713e-01
 -2.2240456e-03
  4.2795968e-01
  2.5885153e-01
 -9.0308458e-02
 -1.8159510e-01
 -4.6327762e-02
 -5.2114599e-03
  6.3773412e-01
  2.4586535e-01
 -1.5822251e-01
  8.6575663e-01
 -2.4696600e+00
  1.2447688e-01
  7.3453033e-01
 -8.0119705e-01
 -7.5340247e-01
 -4.4212154e-01
 -2.6436193e+00
  3.6098935e-02
  1.8066495e-03
  2.1465696e-01
 -1.8035811e-01
  9.5411980e-01
 -1.7440449e-02
 -3.4937806e-02
  2.1431360e-01
 -2.2823180e-01
 -2.5637176e-02
 -2.9358083e-01
 -6.1857343e-02
 -7.0060156e-02
  2.8683561e-01
  1.4560086e-01
  2.2495623e-01
  9.5530689e-02
 -6.4238407e-02
  2.9726347e-01
  7.9767883e-02
  6.7787175e-04
 -3.2066204e-02
 -7.0823155e-02
  7.5453824e-01
  3.6325520e-03
  1.3894187e-01
 -1.1679563e-02
  1.5434423e-02
 -3.9939536e-03
  8.8156499e-03
 -3.4625441e-02
  4.7512621e-02
  4.9436856e-03
 -4.6342634e-02
  1.2441509e-01
  4.3164566e-01
 -4.5542520e-01
 -1.5955602e+00
 -3.7807408e-01
 -1.3691452e+00
  3.3620080e-01
 -2.8996451e+00
 -6.1692160e-01
 -2.2443479e-02
 -3.3407576e+00
 -9.0160662e-01
  3.3724092e-02
  1.8826342e-01
  8.4696066e-01
 -1.0061242e-02
 -7.2055422e-02
 -3.4279791e-01
 -6.6841042e-01
 -1.5749334e-01
 -4.2341405e-01
 -1.6421622e-02
 -5.1987648e-01
 -3.4489222e-02
 -2.9453963e-02
  1.3118073e+00
  9.6401262e-01
  1.0146452e-01
  1.1026835e-01
 -1.5104806e+00
 -7.4898653e-02
 -4.4750806e-02
 -1.0099825e-01
  3.9104885e-01
 -1.4526287e+00
  2.1637787e-01
  6.8579249e-02
 -2.1185862e-02
  1.3744570e-01
  1.0789840e+00
 -1.1833802e-01
  7.8771338e-02
 -2.5489759e-02
  6.7498595e-01
  6.7222792e-01
 -2.5536082e+00
 -3.0500440e-02
  1.2289967e-01
  2.6216364e-01
  2.5098071e-01
 -7.0752506e-03
 -3.7039044e-01
  2.2081872e-02
 -7.0982850e-01
 -1.7815484e-02
 -3.8731720e-02
  4.4863544e-02
 -6.7726761e-01
 -1.1166497e-02
 -1.0603841e-01
  8.9222580e-02
  1.3323502e-02
 -5.0985056e-01
  9.2713363e-02
 -1.3356300e-01
  2.3643084e-01
 -3.2121763e-02
  1.7170457e-02
  1.0157144e-01
 -6.0757339e-02
  5.3444460e-02
 -7.1843892e-02
 -2.3934048e-02
 -4.8913728e-02
  5.8596348e-03
 -1.4865732e-01
  8.5654212e-03
 -1.1654322e-02
 -1.0790930e-01
 -3.0069193e-01
 -2.8574340e-02
  3.1978524e+00
  1.4035646e-02
  1.5679306e-01
  7.9937875e-02
  7.1099885e-02
 -4.0209927e-02
  2.2781629e-03
  2.6826734e-02
 -1.2708279e-02
  2.2164493e+00
  1.0074831e-01
 -1.1719168e-02
 -1.7865758e-02
 -1.4221804e-01
 -2.1075749e-01
  7.1321265e-04
 -8.7282405e-04
  1.2791966e-02
  3.5514392e-02
  8.5797615e-02
 -3.3447644e-01
 -1.8242540e-02
 -3.2638833e-02
 -3.5510365e-02
  8.5465461e-03
 -1.0364521e-01
  4.5948662e-02
 -8.4653817e-02
 -6.3889967e-03
 -2.0382383e-01
  3.2332454e-02
 -8.0837077e-04
 -6.0777247e-02
  1.1363453e-01
 -2.8524606e-02
  2.9607366e-03
 -2.4353096e-01
 -2.1512357e-03
 -2.8258112e-01
  7.1844071e-02
 -2.6605707e-02
  2.2581667e-02
  1.1262218e-02
 -3.1829644e-02
  6.0780915e-03
 -2.8208585e-02
  4.4081211e-01
 -6.3883819e-02
 -4.7241095e-03
  1.4486811e-02
 -8.5861109e-02
 -2.8220909e-02
  4.7244364e-01
 -7.1136802e-02
  1.4336873e-03
 -1.7308249e-01
 -5.6080051e-02
  9.3273669e-02
 -1.1401151e-02
 -9.3277395e-02
 -1.6199235e-02
 -5.0423092e-01
 -1.9032712e-01
  1.7750930e-02
  6.2736697e-02
  3.5689767e-02
 -8.6519029e-03
 -1.1511824e-01
  4.9997129e-02
 -6.0552936e-03
 -1.0715224e-02
 -1.8064002e-02
  6.7487359e-02
  2.7404157e-02
  8.0820382e-02
  5.8521115e-04
 -9.1316752e-02
 -4.4392698e-02
  5.4051541e-03
  7.4575753e-03
 -3.2743260e-01
  3.1058574e-02
 -5.2429583e-02
  8.9703843e-02
 -3.8064204e-02
 -2.4466692e-03
  2.5171058e-02
 -2.5674882e-03
 -4.9775690e-01
  2.2512174e+00
 -1.1112050e+00
 -5.3249443e-01
  5.1441222e-01
 -8.7889332e-01
 -9.1694015e-01
  2.5428436e+00
 -1.5123440e+00
 -1.3103728e+00
  6.5912962e-01
 -7.4952915e-02
  1.9222872e-01
  5.3708571e-01
  6.2477356e-01
  1.9810437e+00
 -5.9080964e-01
  1.4223162e+00
  4.2418342e-02
 -2.4780509e+00
  1.3311812e+00
 -2.0257990e+00
  9.1166490e-01
  1.0140640e+00
 -4.1337827e-01
  4.4202974e-01
 -2.3182118e+00
 -3.0748053e+00
  1.6798362e+00
 -2.1667524e-01
  9.5188910e-01
  1.0315616e+00
 -1.6691341e+00
  1.1458442e+00
  6.1315233e-01
 -7.6800215e-01
 -1.0543401e+00
 -9.1134286e-01
 -1.5979972e+00
  1.3250704e+00
 -8.8242090e-01
  2.1946412e-01
  9.8511517e-01
  4.8913017e-02
  4.8133552e-02
  2.2325563e+00
 -1.1716934e-01
  3.7782142e-01
 -6.9932973e-01
 -1.6743810e+00
 -1.5185785e+00
  2.4964283e+00
  5.4455024e-01
 -1.3982099e+00
 -2.8094585e+00
  1.2970071e+00
 -4.8911824e+00
 -2.6290026e+00
 -7.9751241e-01
 -1.2403961e-01
  3.5108626e-02
 -1.5265893e-02
  5.0578853e-03
 -4.1153353e-01
  1.5013292e+00
  2.0292660e-02
 -1.1214986e-01
  3.0815801e-02
  7.5096868e-02
 -1.4389019e-01
 -4.8599043e-03
 -7.4297153e-05
 -4.8615602e-03
  3.9137494e-02
  1.0129692e-01
 -1.8071674e-01
 -3.4679599e-02
  4.0487230e-02
  1.7533522e+00
 -7.1312115e-03
 -3.3378258e-02
  3.1680238e-02
 -1.1478265e-01
 -4.8286715e-03
 -2.7689099e-02
 -1.9289300e-02
  2.0693632e-02
 -5.9275035e-02
  7.5379342e-02
  1.5558238e-02
  4.5426086e-02
 -2.9963424e-02
 -1.7152894e-02
  3.0517647e-02
  1.0564797e-01
  2.0876825e-03
  1.0577170e-01
  2.1775749e-02
  9.4942674e-02
  6.2789209e-03
 -1.2353534e-02
 -3.7611678e-02
  3.6467335e-01
  8.1443764e-02
  9.7662801e-01
  4.3504050e-01
 -1.2294719e-01
 -2.3768625e+00
 -1.0334691e+00
  1.4019196e+00
  9.5907323e-02
  1.5475397e-01
 -6.7005843e-02
 -1.9204876e-01
  2.3038950e+00
  2.3724735e+00
  8.7918383e-01
  1.2784235e+00
  3.4179278e-02
  5.3259295e-01
 -1.3590865e+00
  6.2646598e-01
  6.7313176e-01
  1.7280889e+00
  7.8931011e-02
 -8.5082996e-01
 -8.5867673e-01
 -2.0910364e-01
 -2.9109862e-01
  3.5497776e-01
  5.0612223e-01
  1.0752316e-01
 -4.7470865e-01
 -3.5876933e-02
  1.7134902e+00
  3.0000222e-01
  5.1502623e-02
 -4.3821141e-02
 -9.7113177e-03
 -1.0820756e+00
 -3.4833875e-01
  5.4179102e-01
 -8.5408998e-01
  5.3856456e-01
  5.3593272e-01
 -1.4046240e-03
 -1.2850709e-01
 -1.7126743e-01
  1.3476701e-01
  9.8736562e-02
  6.8173413e-03
 -3.5916336e-02
 -4.7373984e-02
 -7.0859350e-02
  4.0215839e-04
  7.6995622e-03
 -1.1247151e-01
  3.2429684e-02
 -6.1024055e-03
 -5.0530728e-02
 -4.2543344e-02
  8.1108827e-03
  8.0064364e-02
 -1.0134686e-01
  8.1123136e-02
  1.4177944e-01
 -5.2713972e-02
 -1.7395241e-02
  6.7254759e-02
 -4.6007955e-03
 -4.8622783e-02
  1.7412547e-02
  5.5906163e-03
  1.1330099e-01
 -7.7336794e-03
 -1.1443076e-02
  9.5462678e-03
  1.4127747e-02
  7.3144637e-02
  6.9435798e-02
 -9.6615488e-03
 -3.2944004e-03
 -1.1404345e-01
  9.2663513e-03
  6.8531431e-02
  4.0508751e-02
 -7.9704905e-01
  4.1789971e-02
 -5.6255676e-02
  7.7380836e-02
 -2.9130989e-01
  2.8838875e-02
 -1.1526649e-02
 -4.5784362e-02
  8.2990984e-03
 -9.8023675e-02
  7.5794071e-02
  2.9491618e-02
  3.1807300e-02
 -7.7526510e-02
  4.1444264e-02
 -1.7953049e-02
 -1.1518298e-01
 -2.1485955e-02
 -4.4290569e-02
  2.9044714e-02
  4.3733366e-02
 -2.0207055e-02
 -4.4129372e-02
 -1.0436535e-02
  5.1321648e-02
 -2.8646214e-02
 -1.2408750e-02
 -4.2417299e-02
  6.8090332e-04
  1.5682292e-01
  1.0980180e-02
  2.1983042e-02
  9.1905832e-02
  1.5266487e-01
  9.4599783e-02
  5.6738285e-03
 -2.1819286e-03
 -1.8545288e-01
 -3.8985047e-04
 -1.1818587e-02
 -8.9530097e-03
 -7.9321288e-02
  3.6510092e-01
 -2.0635323e-01
  1.0626942e+00
 -3.0494973e-01
  6.0756139e-02
 -6.4228082e-01
 -8.9019313e-02
  8.1197208e-01
 -3.2578938e-02
  4.4681606e-01
  1.2103834e-02
  8.9140665e-03
 -1.8748824e-01
 -8.5392213e-01
 -2.8074101e-01
 -1.4786515e-01
  1.9785974e-02
  2.4907522e-01
 -6.6853815e-01
 -7.1826220e-01
 -6.8806005e-01
  2.3235172e-02
 -2.0726064e-01
 -7.6013631e-01
 -4.4232663e-02
 -1.5124049e+00
 -5.6304030e-02
 -1.1398368e+00
  1.1184485e-02
  9.2046842e-02
  1.0581540e+00
  3.6751900e-02
  9.3916553e-01
 -4.0113914e-01
 -3.7570000e-01
 -2.3204677e-02
  2.9163115e-02
  3.6389105e-02
 -2.1169716e-03
  7.4422307e-02
 -7.9936236e-03
  1.2017441e-02
  1.9475038e+00
  1.0870035e+00
 -5.8183378e-01
  1.0470454e+00
 -7.2822380e-01
  4.4620684e-01
  2.5221339e-01
 -4.4198954e-01
 -1.9691670e-02
 -1.1931496e+00
 -2.6357809e-01
  5.6324489e-02
  2.3819031e-01
 -7.5215876e-02
  1.1334729e+00
 -8.1764318e-02
 -9.1936618e-02
 -1.5362209e-01
  2.5367373e-01
  7.6782459e-01
 -1.6119889e+00
 -2.8825623e-01
  9.1952890e-01
  8.5346258e-01
  8.4331244e-02
 -3.6823072e+00
 -4.4422522e-01
 -1.1656082e+00
 -1.6398000e+00
 -1.8513527e+00
  2.1420338e+00
  2.7994514e-01
 -7.7121001e-01
 -5.2108234e-01
 -6.1745661e-01
  1.3755502e-02
 -2.3503965e-02
  5.6858145e-02
 -4.4145964e-02
  1.7121318e-01
 -1.1189410e-01
 -2.7139092e-02
  7.4467689e-01
  2.0174141e+00
  2.7017024e-01
 -4.7003469e-01
  2.1393937e-01
  2.1083086e+00
  2.8593290e+00
  1.8960996e+00
 -8.9844130e-03
 -2.9509503e-01
 -2.6144049e-01
  1.2016132e+00
 -2.2006968e-01
 -2.6513687e-01
 -8.3764590e-02
  7.3033362e-03
 -7.6333553e-01
  1.2011800e+00
  4.6232226e-01
  1.8008575e-01
 -4.0039507e-01
 -2.5912184e-01
  2.1770032e-01
  1.0173972e+00
  3.1761691e-01
  3.2979232e-01
 -1.2594896e-02
 -5.6485784e-01
  1.5628515e+00
 -2.1156227e-02
  9.2626765e-02
  3.4048435e-01
  9.4872880e-01
 -7.5218546e-01
  4.0164098e-01
 -4.8782624e-02
  1.1946555e-01
 -8.3369970e-02
  9.2487730e-02
  2.0145239e-02
  1.1226105e-02
  4.3358061e-01
  1.1502908e+00
  2.6524609e-01
  9.4610471e-01
 -2.7237823e+00
  3.6178012e+00
 -2.6326460e-01
  8.6004722e-01
 -1.3602550e-01
 -1.6512454e-01
  1.7967354e-01
 -1.6972519e-02
  5.2917875e-02
  1.2305582e+00
 -1.7548071e-01
 -8.7792568e-02
 -1.6743070e-01
  2.2898647e-03
  8.8413559e-02
  2.6789877e-01
 -4.3605687e-03
 -1.9091681e-01
  1.1270649e-01
 -8.1707515e-02
  7.2276360e-01
  4.8592305e-01
  6.3191377e-02
  2.2823802e-01
 -7.3587410e-02
  5.9240505e-02
  9.6735738e-02
  2.8320491e-01
  4.1816327e-01
  8.4007716e-01
  6.1670803e-02
  5.1008710e-03
  1.1800101e-02
  1.6861083e-01
 -2.3407319e+00
  2.5455978e-02
  2.1173546e-01
  1.3631239e-02
  8.0005238e-03
  1.7878382e+00
  3.5033944e+00
  4.0009975e+00
  3.0859103e+00
 -1.5312043e-01
 -2.8762445e+00
  2.4262521e+00
  1.7042382e-01
 -3.5795155e-01
 -5.7002489e-02
  2.5857275e-02
  4.4722912e-01
  1.4725363e+00
 -4.6656078e-01
 -1.1352209e+00
  2.3246950e-01
 -8.1091034e-01
 -1.9080777e-01
 -1.0012710e+00
 -3.9445758e-02
 -4.0016139e-01
 -2.2011761e-01
  4.7893128e-01
 -3.4930620e-02
  1.6810387e-01
  2.9689234e-01
  1.8891398e-02
 -5.9714761e-02
 -1.4126621e+00
 -2.6303404e-03
  5.5420780e-01
  5.5319713e-03
 -2.2515881e-01
 -1.1685754e-01
 -4.5999598e-02
  4.1448116e-01
  1.5926061e-02
  3.1880891e-01
 -1.9371010e-03
  5.9399182e-01
  1.1335389e-01
  1.1537185e+00
  1.7683344e+00
  3.9821033e+00
  3.2079303e+00
  3.2985374e-01
  9.8012275e-01
 -1.4410355e+00
  1.3260019e+00
  6.3546938e-03
 -5.1528178e-02
  9.5367295e-01
  5.3539451e-02
  1.3150395e+00
 -1.1368456e-02
 -4.7637150e-03
  2.6220128e-01
 -6.6948589e-03
 -1.2628586e+00
 -1.3497069e-01
 -6.1727560e-01
 -4.4615963e-03
 -7.0778154e-02
 -6.4387810e-01
  2.7138939e-02
 -8.0647916e-02
 -2.5910078e-02
 -4.0797852e-02
 -1.6899722e-02
 -7.3082456e-03
  3.7923870e+00
 -1.1138751e-01
  4.3251738e-01
 -7.7273726e-01
 -2.4452801e+00
  4.7896816e-03
 -3.2081780e-01
  7.5226435e-03
 -1.2203368e-01
 -6.4105801e-02
  4.9555838e-02
 -3.4372747e-02
  2.8934481e-02
  3.7568480e-02
 -4.7232229e-01
 -3.1300042e-02
 -3.5515029e-02
  7.3307431e-01
 -1.2837699e-01
  1.1760372e-03
 -1.5948799e-02
 -4.9011804e-02
  3.7641738e-02
  2.0711499e-01
 -1.3967352e-02
 -1.7857176e-01
  4.1149314e-02
  2.3239026e-02
  2.5879445e-02
 -1.1449955e-01
  2.0818179e-03
  1.7421114e-01
 -2.2298448e-02
 -5.8685228e-02
  3.2993626e-02
  4.4014137e-03
  4.9931216e-03
 -8.0417944e-03
 -2.5552897e-02
  2.7291704e-02
 -8.9541990e-03
 -5.3404819e-02
 -3.3913881e-02
 -5.0911773e-02
 -6.6173606e-02
  5.2225333e-02
  3.0978275e-02
 -3.8318790e-02
  3.6833212e-02
 -1.3511217e-01
 -1.9942768e-02
 -1.3227589e-02
 -8.2972996e-02
 -4.0746521e-02
 -4.7975935e-02
  9.4833057e-03
 -8.4302855e-01
  1.5095551e-01
 -1.4609846e-01
  1.0335633e+00
  3.0765593e+00
  4.3739480e-01
  1.4315318e+00
  9.7172178e-02
 -1.9503145e-01
 -4.1884566e-03
 -4.2223036e-01
  1.0729437e-01
  3.3145157e-01
 -1.0686813e-02
  1.1682994e-01
  3.9896410e-02
  1.3267102e+00
 -9.9286395e-01
 -5.6046419e-02
 -6.9355410e-01
  9.1677421e-01
  8.5003071e-02
 -3.4565023e-01
  7.1828318e-01
 -9.4752491e-02
 -1.1844202e+00
 -1.6060665e-02
  5.8044374e-01
  9.8485023e-01
  1.9039644e-02
  6.4384006e-02
 -1.1568984e+00
  3.3293068e-01
  5.4330833e-02
 -1.4547595e-02
  1.4442915e-02
 -1.7397057e-02
  1.8104449e-02
  1.7836100e-01
 -4.0277153e-01
 -4.1338902e-02
 -9.8513946e-02
  2.6134586e-02
  8.2602808e-03
  1.9199201e-01
 -8.0424404e-01
 -7.6907569e-01
 -6.4111769e-02
 -4.1897759e-01
  1.8435320e-01
 -2.5114331e-02
  1.2119148e-03
  9.6408114e-02
  5.6974243e-02
  1.9607747e-02
  2.0911202e-02
  1.2310667e-02
 -3.2040656e-02
 -9.0183593e-02
  1.0689215e-01
  3.5082088e-03
  8.0455825e-02
  1.8723756e-03
  2.0377180e-03
 -1.6444801e-01
  7.2527695e-03
  4.0177453e-02
 -1.7930327e-02
 -7.5793691e-02
  6.1796975e-01
 -1.4682151e-02
 -7.6268479e-02
 -1.9005809e-02
  3.8635049e-02
 -2.5220428e-02
  6.5014675e-02
  2.6192885e-02
  2.6243761e-01
 -6.5503262e-02
  1.0458316e-01
  5.0381147e-03
 -1.0717160e-01
 -3.9652117e-02
 -1.5082481e-02
 -3.2734003e+00
  9.7768056e-01
  8.5274565e-01
 -1.4210294e+00
 -3.1384568e+00
 -2.0053229e-01
  7.8989786e-01
 -1.2061081e+00
 -1.0132794e-02
 -6.4541847e-01
 -2.3658970e-02
 -1.3586493e+00
  1.9251087e-01
  6.3375644e-02
 -4.6579834e-02
 -1.9660650e-02
  7.6417118e-02
  5.7310767e-02
  8.6054005e-02
 -2.6868185e-01
 -1.4100470e-01
 -4.7468074e-02
  8.7457243e-04
  1.3629492e-02
  1.7532086e-02
 -6.0972303e-02
 -2.7535241e-02
 -2.3758624e-01
  6.5039897e-01
  8.7860775e-01
  9.4960231e-01
  2.8160487e-03
  1.0106730e+00
 -1.4901662e-01
 -3.5390966e-03
  2.7326948e-03
 -2.5871539e-02
  1.8142698e-02
 -1.7827054e-02
 -6.6551805e-02
  2.0612823e-02
  2.5203329e-01
  3.4652957e-01
  3.7535622e-03
  2.9952878e-02
 -1.1065063e-01
 -1.3617484e-02
 -1.8972281e-02
  5.8418557e-02
 -2.2511536e-02
  1.1773502e-01
 -3.2351413e-03
  3.2646146e-02
  7.9474933e-02
 -4.1169420e-02
  2.1868980e-02
  8.6380973e-02
 -6.9238536e-02
  5.4256581e-02
 -7.7189304e-02
  1.2878248e-01
  4.4517047e-03
 -4.5388225e-02
 -2.5310662e-02
  5.8536204e-03
  5.8951534e-02
 -1.5611578e-02
 -5.7607893e-02
 -1.6572402e-01
  8.1406866e-04
  2.5342933e-03
  1.2930505e-01
  1.5862357e-02
 -1.0042457e-02
 -1.1401099e-02
 -1.6789755e-02
  5.4104306e-02
 -1.3566294e-02
  9.5956214e-03
  1.3295121e-01
 -1.3400043e-03
 -9.3673073e-02
  4.6130523e-02
 -3.1804059e-02
 -1.1726257e+00
  3.0146127e+00
  4.4574958e-01
  7.8915304e-01
 -1.3980401e-01
 -2.9030582e-01
  3.9251600e-03
  4.8261475e-02
  2.8151038e-01
  1.6622996e-02
  3.1930935e-02
  7.6306230e-01
  1.0230418e-01
 -5.7697073e-03
  3.8830447e-01
 -3.3237498e-02
  2.6733974e-01
 -3.3378642e-02
  2.7971320e-02
  8.6581940e-03
  3.1123471e-01
 -1.5050620e-02
  4.9072292e-02
 -1.5679413e-01
  3.5408561e-03
  1.5061267e-01
  3.5866473e-02
 -6.6178953e-03
 -6.6701546e-02
 -3.3106226e-02
  1.2241100e+00
  1.1274186e-02
  8.2961065e-01
  2.6294930e-02
  4.6068165e-01
 -1.3808936e-01
 -3.1133369e-02
  6.3993149e-02
  2.8915593e-01
 -4.0250909e-02
 -2.5245944e-02
  2.6346644e-02
 -1.7014533e+00
 -5.1121557e-01
 -2.5741611e+00
  2.9100578e+00
 -4.4321507e-02
  1.1314604e+00
 -1.5425918e-01
 -5.1969546e-01
  1.4822529e-01
 -3.2744031e-02
 -6.2402809e-01
 -2.7346304e-02
 -7.9627104e-02
 -3.0287595e-02
 -9.1030346e-03
  3.7410606e-02
 -7.2836764e-02
  2.0688146e-03
 -1.2258111e-02
  1.0656187e-02
 -3.0897174e-02
 -1.0340001e-01
 -6.3586280e-02
 -1.0087502e+00
 -3.2050408e-02
  1.6263907e-01
  7.2065301e-02
 -8.4622726e-02
 -3.1760991e-01
 -2.0605717e-02
 -1.0305829e+00
 -3.3017600e-01
 -1.1568201e-01
  1.8639766e-02
 -1.2446200e-01
 -9.6837908e-02
 -6.4180908e-03
  1.1820173e-01
  7.1262091e-02
 -6.0466018e-02
  4.2808093e-02
  1.5169756e-02
 -1.9359253e-01
  1.0862584e+00
  1.2302060e+00
 -4.7314298e-01
  2.0367108e-01
  1.6395642e-01
  4.6765354e-01
  6.8782292e-02
  4.3591249e-01
 -2.0528789e-01
  3.4136128e-02
 -3.3453262e-01
  2.5637540e-01
  3.3484334e-01
  3.5472465e-01
  5.8586610e-04
 -2.2494923e-01
 -2.2490582e-01
  2.0147988e-01
  2.3134044e-01
  4.7303268e-01
  1.0384864e-01
  8.4890586e-01
 -1.2314956e-01
  8.9195073e-03
  3.7112597e-01
  1.0870338e-01
  4.2507610e-01
 -5.6230855e-01
  1.2989720e+00
  9.8738408e-01
 -1.7712800e-01
  2.6543233e-01
  2.8013328e-01
  8.3046168e-01
  1.0270755e-01
 -1.4947772e-01
 -3.1415571e-02
  3.2421809e-02
  1.4185425e+00
  1.0928173e-01
  1.6826832e-01
  3.1991130e-01
  1.2700418e-01
 -1.7478627e-01
 -2.4700109e-02
  3.5686787e-02
  4.7423273e-02
 -1.0142039e-01
  5.8747318e-02
 -5.5903152e-02
 -1.7520310e-02
  2.6555941e-03
 -9.7375937e-02
  1.6131904e-02
  1.2888183e-01
  4.3640858e-03
 -5.2789196e-02
  1.7096008e+00
  5.2635685e-02
  7.3600240e-02
  6.8469234e-02
  2.4718439e-02
 -4.8112259e-03
  5.1088367e-02
 -2.6380727e-02
 -2.3657598e-02
  1.1051757e-01
  5.2765772e-02
 -9.8265614e-03
 -2.3486242e-02
  2.3099622e-02
  1.4364392e-01
 -6.4553238e-02
  8.2697190e-02
  4.9148891e-02
 -1.1461642e-02
 -6.7864411e-02
  1.0787010e-01
 -5.2770138e-02
 -4.9649687e-03
 -5.0324854e-02
  2.4591206e-02
 -8.6963829e-03
  7.6286447e-01
 -9.4802631e-04
 -3.1004918e-01
 -2.8429347e-01
  1.6592672e+00
 -3.0882268e+00
  1.0969023e+00
  8.5458958e-01
 -1.6868247e-02
 -6.9411367e-01
  5.1198725e-02
 -8.7125525e-02
 -4.4560332e-02
 -3.9276712e-02
  9.4174705e-03
  7.2369921e-01
 -1.6073720e+00
  4.5799989e-01
  7.9823393e-01
 -4.7987197e-02
  7.3051333e-01
 -6.7776167e-01
 -6.0068697e-01
 -4.5416985e-02
 -1.3749966e-01
 -3.7305427e-01
 -1.5523015e-02
  6.3890612e-01
 -3.1370136e-01
  1.8895534e-01
  2.3261631e+00
 -4.6600620e-03
  1.6317388e+00
  3.6216968e-01
 -1.2567170e-01
 -5.5924434e-02
  3.0784151e-02
 -4.3749806e-01
 -2.6979792e-01
 -1.4004226e+00
 -3.1882862e-03
 -3.3774309e-02
  6.8840122e-01
  4.6829667e-02
 -8.2220227e-02
 -7.5562589e-02
  1.1376189e+00
  1.7089857e-02
  3.1399869e-03
  9.1188595e-05
  5.4637197e-02
 -9.5126443e-03
  1.2531169e-02
 -1.6539961e-01
 -7.9339826e-03
 -1.0449385e-01
 -1.0495953e-02
  2.5502138e-02
  1.2567841e-02
 -5.6437850e-03
 -9.0424027e-03
  3.9427518e-03
 -1.1762977e-03
  7.7597491e-02
  7.4903227e-02
  1.7746231e-02
 -2.7877595e-02
 -4.3690968e-02
 -6.3229830e-04
 -6.3933879e-02
 -5.0207919e-01
  1.2246791e-02
  1.5007210e-02
  5.3547420e-02
  3.4597408e-02
 -1.2882421e-02
  1.2337249e-02
 -1.9527495e-02
 -2.2039019e-02
  6.3122022e-03
 -3.4988879e-03
  6.0276587e-02
  4.2143390e-02
  4.7566965e-03
 -6.0180092e-01
  3.4233056e-02
 -4.7629774e-02
  3.1702369e-01
 -1.7255399e-01
  6.0852647e-02
  5.2524272e-02
 -9.5128261e-02
 -3.5082929e-02
 -1.2076609e-01
 -2.5718752e-01
  6.0945372e-03
 -3.7800695e-03
 -1.8232895e-02
 -3.8951118e-03
  1.7201675e-02
 -3.0546054e-02
 -8.2935452e-02
 -7.2233289e-02
  3.2864258e-02
 -3.8887583e-02
 -1.3707791e-01
  2.7654700e-02
  1.1230416e+00
 -2.5691604e-02
  4.8083384e-03
  5.7802141e-02
  5.7298206e-02
  6.7912508e-03
  6.1103730e-03
 -1.5863976e-01
 -7.7533503e-03
 -9.5872693e-02
 -7.4552916e-02
 -3.3763662e-02
  1.0796735e-02
 -1.0104098e-01
  6.0304757e-02
  1.7352492e-02
 -2.3142569e-02
  4.0983777e-03
  2.0215280e-02
  4.7903928e-01
  1.1804538e-01
 -2.9263239e-02
  2.4392618e-02
 -1.6742493e+00
  2.1784809e+00
 -4.1463595e-02
 -9.0512112e-03
  3.1253599e-02
  1.3528687e-01
 -1.6601996e-03
 -4.2835202e-02
 -6.4299382e-02
  7.0138700e-02
 -1.2219787e-01
 -3.4128584e-02
  5.3688761e-02
 -3.7367083e-03
 -1.4690981e-03
  9.6112385e-02
 -3.4353308e-02
  3.2676470e-02
  4.7980465e-02
  4.1863453e-02
 -2.0264328e-01
 -2.0345671e-02
 -5.0232798e-02
  4.9160477e-03
 -1.4769402e-01
  4.0075146e-02
 -1.1689786e-01
 -9.2109311e-03
 -7.3514022e-03
  4.0709961e-02
  5.8115326e-02
 -2.8298649e-01
 -7.3997252e-02
 -2.6586877e-02
  3.4288578e-02
  1.4697615e-02
 -7.1518999e-03
 -5.6644879e-02
 -7.4575269e-01
  2.1526694e-02
 -1.4082596e-02
 -1.1037795e-01
 -1.7936181e+00
  4.0194508e-01
 -1.9257613e+00
 -2.4783622e-02
 -8.0919256e-03
  8.5858397e-02
  6.4670369e-02
 -2.1242812e-02
 -8.0560677e-02
 -4.5398362e-02
  4.0144540e-02
 -1.8558135e-02
 -1.2651591e-01
  1.5764976e-04
 -1.6042428e-02
  1.9579416e-03
  4.5168257e-01
  2.3851644e-02
 -9.3864799e-02
  4.8495930e-02
  6.9740131e-02
  4.3862805e-02
 -1.1932082e-01
 -3.2545138e-02
  6.7784205e-02
 -2.9075189e-02
 -2.4409238e-02
  5.1556714e-03
  6.7203301e-01
  9.7501464e-02
  1.6671318e-01
  4.5072995e-02
  5.9251986e-02
  7.5782195e-02
  4.1172076e-03
 -3.6727995e-02
  1.2474460e-02
  1.6512234e-02
 -1.7061111e-01
 -7.0593804e-02
  6.8105049e-02
 -2.1574717e-02
 -2.2156727e-02
  4.7239657e-02
  6.6166979e-01
  1.2277328e-02
  1.8526682e-01
  3.3999316e-02
 -7.4979886e-03
  9.4856778e-03
 -3.4957550e-02
 -1.9921375e-02
 -4.5438126e-02
 -2.6108323e-02
 -1.0961416e-01
 -1.5550360e-02
 -1.2720576e-01
 -6.7002594e-02
 -5.4234482e-02
  6.3285664e-02
 -1.3050784e-02
  1.2831875e-02
  2.3919366e-02
 -6.8085842e-02
  2.6061647e-02
 -4.1964803e-02
 -1.1340500e-03
 -6.9711372e-02
 -7.7631414e-02
  5.6985363e-02
 -4.4641759e-02
 -2.5537189e-03
 -1.6122159e-02
  3.3629227e-02
  4.2614713e-02
 -2.4056146e-02
 -3.9148293e-02
  6.2425379e-02
  1.4716710e-01
 -9.3646437e-02
 -7.7228598e-02
 -4.1341496e-01
  9.6996862e-01
 -1.1096867e-01
  8.3442360e-01
 -2.4282029e+00
  5.7872492e-01
 -4.8097994e-02
 -3.8355684e-01
 -3.6446479e-01
 -4.2916641e-01
  5.4506534e-01
 -3.1611258e-01
 -5.1199335e-01
  3.9233655e-01
 -2.8866986e-03
  2.8156167e-02
 -4.5858085e-01
  4.5170918e-01
 -3.8881221e-01
 -3.8846263e-01
 -5.2179760e-01
 -3.3353138e-01
 -1.1393642e-01
 -1.0108199e+00
  2.5059852e-01
 -1.1776426e+00
 -4.5599794e-01
 -5.2304480e-02
 -9.2054641e-01
 -2.1316994e-02
 -1.0136464e-01
  6.1876172e-01
 -2.0556615e-01
  1.0111672e-02
  1.0003096e-01
  1.6424896e-01
  3.7370838e-02
 -6.9464110e-02
 -3.5092899e-01
 -5.4084886e-02
 -6.4170372e-01
  4.2511576e-01
  2.3910961e+00
 -1.5051986e+00
 -1.0158583e+00
 -4.1020688e-01
 -2.2618672e-01
 -2.2780442e+00
 -1.9389516e-01
  1.2575303e-01
  4.3925747e-01
  7.4797159e-01
  1.5260788e+00
 -2.1737915e-02
  8.2509503e-02
  1.8833255e+00
 -8.8137168e-01
  6.9200784e-01
  1.8901096e-01
  1.9577222e+00
  1.0103478e-01
 -2.3576418e-01
  1.4721932e+00
  1.3790217e-01
  7.7255058e-01
 -3.8100723e-02
  5.0733948e-01
  3.0213735e-01
  8.0539638e-01
 -2.7255785e-01
 -2.6941705e-01
  2.5560498e+00
  1.2003665e-01
 -6.5556526e-01
  5.4059279e-01
  1.5809608e+00
 -1.9633241e-01
  4.6758749e-02
  4.4648233e-01
 -2.1141957e-01
  1.1874273e-02
 -2.1111401e-02
  1.4199629e-01
  1.0816061e+00
  3.5403147e-01
  5.7849102e-02
 -9.7936291e-01
 -2.2451104e-01
  2.9003820e+00
 -1.7314893e+00
  5.4191001e-02
 -4.5429401e-02
  5.3411484e-01
  6.3572747e-01
  1.5069458e+00
 -1.2789522e-02
  3.2743614e-02
  1.0788687e-02
 -1.1089982e-02
 -1.3687363e+00
 -2.0976657e-01
  5.3010786e-01
 -6.3270912e-02
  1.2607527e-01
  5.8444723e-02
 -5.3166490e-02
  1.0500427e+00
 -7.5609893e-01
  1.1732471e-01
 -7.6047122e-02
  3.8624369e-04
  4.7928453e-03
 -3.6174554e-02
  2.2972126e+00
 -1.0515402e-02
 -4.0903334e-03
 -1.4689966e-01
  2.4391332e-01
 -3.2981530e-02
 -5.1899094e-02
  2.6317298e-01
  2.4909523e-01
  6.4843285e-01
 -1.1148842e-02
  1.3269174e-02
  4.5458397e-01
 -3.8338809e+00
  8.9224517e-02
  1.0637701e+00
 -7.9709333e-01
  3.2969725e-01
  5.3263372e-01
  6.4175390e-02
 -1.1802297e-02
 -1.0025587e-01
  2.9763761e-01
  9.4250160e-01
  1.0551394e+00
  1.0745093e-01
 -9.6426435e-02
  1.8736002e-01
 -4.1874343e-01
 -1.0562454e-02
  1.5882617e+00
 -4.6930665e-01
  3.7940952e-01
  1.0439107e+00
 -4.5249686e-01
 -2.9684144e-01
  1.4686002e+00
 -2.2311686e-01
 -1.5200661e-02
  5.5039310e-01
  1.1711111e+00
 -2.2234170e-01
 -1.8333087e+00
  6.0859430e-01
  6.7389429e-01
  3.5728943e-01
  3.0223321e-02
 -2.3675691e-02
  4.7017697e-02
 -9.1853514e-02
  3.1995231e-01
 -8.7927967e-01
 -6.5315431e-03
 -1.6125530e-02
 -2.3095102e+00
  2.3751782e-02
 -2.1455586e-01
  1.3769455e-01
 -9.4680339e-02
  1.1009568e-01
 -1.0195760e-01
 -6.1209430e-03
 -7.3760498e-04
 -2.4035844e-01
 -2.6720351e-01
 -4.6755183e-02
 -4.1437883e-02
 -9.9298574e-02
 -1.0476674e-01
 -8.6648695e-02
 -6.2876843e-02
 -4.2214203e-03
 -8.8079381e-01
  7.1236588e-02
  6.9766077e-03
 -5.4907999e-03
 -1.0125098e-02
 -3.6115162e-03
  2.6419817e-02
  2.8775048e-02
 -9.5540248e-03
 -6.4437268e-03
 -1.0335215e-01
 -6.7776017e-02
  9.2288919e-02
 -1.5466721e-03
 -2.5312585e-01
  1.7083088e-02
  9.5652835e-03
  5.3454433e-02
 -1.1155926e-01
 -6.5974757e-02
  2.4593486e-01
  5.1761854e-02
 -5.4863121e-02
 -1.5039323e-01
  4.0374506e-01
  1.1904083e+00
 -1.7078156e+00
  9.7585684e-01
 -1.7061282e+00
  4.1804847e-01
  1.0288872e+00
  1.5255699e+00
 -2.3161418e+00
  3.3107111e+00
  1.3302680e+00
  7.3178351e-01
 -1.2515410e+00
 -2.1061888e+00
 -4.0988445e-01
  1.7996526e+00
 -9.3270242e-01
  1.2981328e+00
 -1.9040207e+00
 -1.7405681e-01
 -1.6073518e+00
  1.5695870e+00
  1.0258279e+00
  7.0274091e-01
  1.9760256e+00
 -1.3296933e+00
  2.0792434e+00
  6.6495949e-01
 -4.3994331e-01
 -8.0838591e-01
 -6.6224813e-02
  1.3568211e+00
 -1.4139360e+00
  2.8762808e-01
 -2.2329862e+00
 -1.1470965e+00
 -7.0059067e-01
 -8.5087192e-01
 -1.1235486e+00
 -6.9916004e-01
  3.1195918e-01
  4.3915927e-01
 -3.2338288e-01
 -4.2151973e-01
 -5.9882879e-02
  1.1607234e+00
  4.7018188e-01
  1.1665698e+00
 -7.7768958e-01
  1.2855473e+00
 -1.5179905e+00
  6.5803313e-01
  1.9683973e-01
  4.1044262e-01
  1.2639346e+00
 -1.1392187e+00
  8.6590046e-01
 -7.8928018e-01
  6.9863266e-01
  3.2557088e-01
 -7.6147819e+00
 -1.1176506e+00
  1.1998749e+00
  9.2363518e-01
  6.2581342e-01
  3.2554910e-01
  1.9705857e-01
 -5.0322652e-01
 -4.2728382e-01
 -4.2192271e-01
 -1.4692564e+00
 -2.9323323e+00
  1.0526638e+00
 -4.5561743e-01
  1.3046618e+00
 -1.6494220e+00
  8.5638088e-01
  2.0654774e+00
  7.1778238e-01
 -3.2654864e-01
  5.2146173e-01
  2.7428691e+00
  1.3408642e+00
  2.9291079e+00
  9.8829818e-01
  1.0814405e-01
 -1.3872458e+00
  6.1672771e-01
  6.4435297e-01
 -2.6222140e-01
 -1.5664169e+00
 -6.1368201e-02
  2.6032236e-01
  1.6898596e+00
  1.9186684e-01
  1.7338120e+00
 -6.5610522e-01
 -3.5896168e+00
 -1.2452730e+00
  1.7600816e+00
 -1.9876438e+00
 -5.6206280e-01
 -1.8689221e+00
 -1.1325084e+00
  1.5809714e+00
 -1.6117103e+00
  1.0100634e+00
  2.1869538e+00
  1.1030947e+00
 -3.9847451e-01
  1.9231896e-01
 -1.1989812e-01
 -1.1573048e+00
  1.5915269e+00
  1.0770189e+00
  1.0037031e+00
 -3.7869954e-01
 -9.2444813e-01
 -3.9904672e-01
 -1.6789200e+00
 -3.1884864e-02
  1.3327010e+00
  1.1984344e+00
  7.0977217e-01
 -4.5811524e+00
  3.4524083e-01
  1.2287792e+00
 -7.1789300e-01
  1.2980956e+00
 -5.1250178e-01
  1.0806044e+00
  8.9042521e-01
  1.0451410e+00
 -7.3076981e-01
 -2.9056278e-01
  1.5455612e+00
  1.9555590e+00
 -2.5054893e-01
 -1.3047746e+00
  1.5003725e+00
 -2.4823499e+00
  3.8087487e-01
 -2.9620454e+00
  1.4348209e+00
 -6.7147058e-01
 -6.3028830e-01
  6.8378776e-01
 -1.3756424e+00
  5.9228355e-01
 -9.2531955e-01
  1.4724355e+00
 -1.3009275e-01
 -3.9627354e+00
  7.6052970e-01
 -4.0291328e+00
  2.9797356e+00
  1.6771390e+00
  9.7812468e-01
  1.4392532e+00
  1.8036318e+00
  1.6256791e-01
  1.2188779e+00
  6.6061544e-01
 -3.2501178e+00
 -1.9870169e+00
  8.2622878e-02
  1.3533964e+00
  1.4452085e+00
 -6.5476888e-01
 -9.4182026e-01
 -1.9290495e+00
  1.5205330e-02
 -1.1481776e+00
  2.1294735e-01
 -1.2244332e+00
  7.6075798e-01
  1.1441131e+00
  2.7308462e+00
  3.9587805e+00
  3.0204949e-01
 -3.1030104e-01
 -3.9322332e-01
  9.9683297e-01
  5.2652097e+00
  2.5413747e+00
 -3.8017508e-01
 -1.1487693e+00
 -1.2465739e+00
  6.5680289e-01
  1.0171386e+00
 -7.6274246e-01
  1.1808203e+00
 -6.7953020e-01
 -1.5881319e-01
  1.1702168e+00
  5.3637725e-01
 -2.9607555e-01
 -2.3060806e+00
 -5.8538991e-01
  1.2592573e+00
 -4.8786762e-01
  8.4186393e-01
 -1.0672650e-01
  4.2855725e-01
  1.4284015e-01
  1.5310154e+00
  7.1962783e-04
  3.4380851e+00
  5.3521800e-01
 -1.5054119e+00
 -8.8662809e-01
  3.1905346e+00
 -1.5138364e+00
 -1.8864667e+00
 -5.1966548e-01
 -6.4620924e-01
  3.6722416e-01
 -3.6478907e-01
 -9.7361550e-02
 -2.3438897e-02
  1.3161961e+00
  6.1533171e-01
 -2.7108350e-01
  1.0052500e+00
  1.7216582e+00
  1.8493322e+00
  6.4080721e-01
 -1.8154178e+00
 -2.3229537e+00
 -2.4990813e-01
  9.7556663e-01
 -8.5682243e-01
  8.7045068e-01
  1.7780031e+00
  1.8917669e+00
  8.2375753e-01
 -2.7259998e+00
  4.3469197e-01
  7.3613375e-01
 -6.4378744e-01
  1.4804507e+00
  1.3280406e+00
  5.2868754e-01
 -8.1242949e-01
  6.1323249e-01
  1.0216296e+00
  5.1127613e-01
  1.8517311e+00
 -3.5757647e+00
 -1.3875975e-01
 -1.2827097e-01
 -3.1705055e-01
 -1.2508624e+00
 -1.6969293e+00
  4.1216764e-01
 -1.3578214e-01
  2.5845748e-01
 -4.3007571e-01
 -1.0107584e+00
  5.5514312e-01
  4.3819332e+00
 -4.1634755e+00
 -1.6652946e-01
  2.3177423e+00
  3.3359416e+00
  8.1690663e-01
  2.1693283e-01
 -2.1956521e-01
 -2.4678984e+00
  1.2823864e+00
 -1.1650686e+00
 -7.6972151e-01
 -3.0964599e-03
  1.0478663e+00
  7.8117198e-01
 -1.7202294e+00
 -1.5100148e+00
 -8.0186182e-01
 -2.0766860e-01
  1.2640996e+00
 -1.0254661e+00
 -3.0718967e-01
 -2.0519637e-01
  1.8410838e+00
 -1.9406549e+00
 -4.2081055e-01
 -5.8666861e-01
  1.7407243e+00
  6.3693571e-01
  3.8924985e-02
  5.4742569e-01
 -9.3004398e-02
 -6.7368798e-02
  2.3404276e+00
 -8.6011636e-01
 -4.3446398e+00
  1.4878283e+00
  9.9052429e-02
  2.1041980e+00
 -1.9156128e-01
 -3.8959521e-01
  1.0211815e+00
  4.1350389e-01
 -1.0287008e+00
  3.1205750e+00
  9.3679529e-01
 -1.4515513e-01
  9.3432105e-01
  6.8830088e-02
 -7.9909384e-01
 -1.3847305e-02
 -9.5038092e-01
 -6.1230087e-01
 -6.3191223e-01
  1.2569826e+00
 -1.4453007e-01
 -6.0021192e-02
  9.6349549e-01
 -5.9245551e-01
 -6.5854287e-01
  1.7475772e+00
 -2.4984841e+00
  2.7503288e+00
 -8.9831269e-01
 -1.6353570e+00
  1.6983944e+00
 -3.7717322e-01
 -3.8086453e-01
  1.3971267e+00
 -2.2544055e-01
 -5.8153433e-01
  7.5764053e-02
 -3.2861358e-01
  2.4271929e+00
  3.2467929e-01
 -1.8751556e+00
 -7.8720194e-01
  5.5745351e-01
 -3.0029571e-01
 -9.1800320e-01
  7.9799545e-01
  9.6505922e-01
 -3.2873014e-01
 -5.9663916e-01
  1.4063172e+00
  2.2403095e+00
  5.1539576e-01
  2.6646021e-01
  2.4108617e+00
 -3.3667688e+00
 -1.2532353e+00
 -1.3074242e+00
  1.1287779e+00
 -1.3076618e+00
  1.3508226e+00
  6.1742485e-01
  1.1297774e+00
  2.5202615e+00
  2.2168591e+00
 -1.0178296e-01
  6.2095746e-02
  1.4180678e+00
  2.0746070e-01
 -5.4843479e-01
 -9.7347116e-01
  9.2046446e-01
  2.0716503e-01
  1.3682828e+00
  6.3089401e-01
  1.0534790e+00
  3.8716602e-01
 -1.6597004e+00
  6.0521334e-01
 -1.5357268e+00
 -2.3091864e-03
  6.9940627e-02
  5.2835923e-01
 -2.8724965e-01
  1.9829553e+00
  9.6247122e-02
  6.0590729e-03
  1.0700976e+00
  1.9590862e-01
 -4.1060373e-01
 -1.8167454e-01
  8.4480710e-02
 -5.2622223e-01
 -8.4443527e-01
  8.7332493e-01
  8.1461084e-01
  1.5656012e-01
  8.0952823e-01
  2.2066035e+00
  4.1551927e-01
  7.5427884e-01
 -1.7200137e-02
  1.0278866e+00
  8.5651112e-01
  2.1177847e+00
 -6.6292763e-01
  3.4012945e+00
  3.1818004e+00
 -5.6689525e-01
 -1.7648014e-01
  1.4448142e+00
  2.5245755e+00
 -1.3827313e+00
  2.9022973e+00
 -2.5379102e+00
 -7.5004566e-01
 -1.4668347e+00
 -9.6804661e-01
 -1.9415826e+00
 -2.0109625e+00
  1.2820058e+00
 -2.2870064e+00
 -1.7387174e-01
  5.3754473e-01
 -3.2735658e-01
 -1.5997046e-01
 -8.0952394e-01
 -1.0639433e+00
 -2.8663442e-01
  5.0799412e-01
 -2.8401973e+00
 -3.9105219e-01
 -1.0420777e+00
  2.0679178e+00
  1.0010588e+00
 -6.8823747e-02
 -1.7374901e+00
  1.0357531e-01
 -9.0194076e-01
 -7.1816045e-01
 -2.1874731e+00
 -4.0667748e+00
  1.3876867e+00
 -1.0738430e+00
  2.1029549e+00
  3.0216298e+00
 -1.7838262e+00
  1.3955075e+00
  1.6528282e-01
  1.5150399e+00
 -2.2891006e+00
 -3.8133189e-01
  3.1689295e-01
 -5.6335217e-01
 -6.9768804e-01
  1.7274499e-01
 -1.1085378e-01
 -1.8114839e+00
  8.8155013e-01
  1.3730261e-02
  1.3730261e-02
  1.3730261e-02
  1.3730261e-02
  1.3730261e-02
  1.3730261e-02
  1.3730261e-02
  1.5708421e-01
  1.5708421e-01
  1.5708421e-01
  1.5708421e-01
  1.5708421e-01
  1.5708421e-01
  1.5708421e-01
  1.1640356e-01
  1.1640356e-01
  1.1640356e-01
  1.1640356e-01
  1.1640356e-01
  1.1640356e-01
  1.1640356e-01
  4.8729431e-02
  4.8729431e-02
  4.8729431e-02
  4.8729431e-02
  4.8729431e-02
  4.8729431e-02
  4.8729431e-02
  3.4205198e-02
  3.4205198e-02
  3.4205198e-02
  3.4205198e-02
  3.4205198e-02
  3.4205198e-02
  3.4205198e-02
  1.4757344e-01
  1.4757344e-01
  1.4757344e-01
  1.4757344e-01
  1.4757344e-01
  1.4757344e-01
  1.4757344e-01
